<?xml version="1.0"?>
<MethodSetup Method="BDT::BDT_NewCuts_NewQCD_NoRegSplits_fold10">
  <GeneralInfo>
    <Info name="TMVA Release" value="4.2.1 [262657]"/>
    <Info name="ROOT Release" value="6.38/04 [402948]"/>
    <Info name="Creator" value="b78499db"/>
    <Info name="Date" value="Fri Apr 10 16:02:19 2026"/>
    <Info name="Host" value="Darwin sat12-bq151-c9e4e291-cebf-421f-a4bb-9c6e9893d24e-B204E9FB7EFE.local 24.6.0 Darwin Kernel Version 24.6.0: Mon Jan 19 22:02:01 PST 2026; root:xnu-11417.140.69.708.3~1/RELEASE_ARM64_VMAPPLE arm64"/>
    <Info name="Dir" value="/Users/user/Documents/HEP/MVA-Analysis-BU"/>
    <Info name="Training events" value="40739"/>
    <Info name="TrainingTime" value="8.21194887e-01"/>
    <Info name="AnalysisType" value="Classification"/>
  </GeneralInfo>
  <Options>
    <Option name="V" modified="Yes">False</Option>
    <Option name="VerbosityLevel" modified="No">Default</Option>
    <Option name="VarTransform" modified="No">None</Option>
    <Option name="H" modified="Yes">False</Option>
    <Option name="CreateMVAPdfs" modified="No">False</Option>
    <Option name="IgnoreNegWeightsInTraining" modified="No">False</Option>
    <Option name="NTrees" modified="Yes">125</Option>
    <Option name="MaxDepth" modified="Yes">2</Option>
    <Option name="MinNodeSize" modified="Yes">3%</Option>
    <Option name="nCuts" modified="Yes">80</Option>
    <Option name="BoostType" modified="Yes">Grad</Option>
    <Option name="AdaBoostR2Loss" modified="No">quadratic</Option>
    <Option name="UseBaggedBoost" modified="Yes">True</Option>
    <Option name="Shrinkage" modified="Yes">1.000000e-01</Option>
    <Option name="AdaBoostBeta" modified="No">5.000000e-01</Option>
    <Option name="UseRandomisedTrees" modified="No">False</Option>
    <Option name="UseNvars" modified="Yes">2</Option>
    <Option name="UsePoissonNvars" modified="No">True</Option>
    <Option name="BaggedSampleFraction" modified="Yes">5.000000e-01</Option>
    <Option name="UseYesNoLeaf" modified="No">True</Option>
    <Option name="NegWeightTreatment" modified="No">pray</Option>
    <Option name="Css" modified="No">1.000000e+00</Option>
    <Option name="Cts_sb" modified="No">1.000000e+00</Option>
    <Option name="Ctb_ss" modified="No">1.000000e+00</Option>
    <Option name="Cbb" modified="No">1.000000e+00</Option>
    <Option name="NodePurityLimit" modified="No">5.000000e-01</Option>
    <Option name="SeparationType" modified="Yes">sdivsqrtsplusb</Option>
    <Option name="RegressionLossFunctionBDTG" modified="No">huber</Option>
    <Option name="HuberQuantile" modified="No">7.000000e-01</Option>
    <Option name="DoBoostMonitor" modified="No">False</Option>
    <Option name="UseFisherCuts" modified="No">False</Option>
    <Option name="MinLinCorrForFisher" modified="No">8.000000e-01</Option>
    <Option name="UseExclusiveVars" modified="No">False</Option>
    <Option name="DoPreselection" modified="No">False</Option>
    <Option name="SigToBkgFraction" modified="No">1.000000e+00</Option>
    <Option name="PruneMethod" modified="No">nopruning</Option>
    <Option name="PruneStrength" modified="No">0.000000e+00</Option>
    <Option name="PruningValFraction" modified="No">5.000000e-01</Option>
    <Option name="SkipNormalization" modified="No">False</Option>
    <Option name="nEventsMin" modified="No">0</Option>
    <Option name="UseBaggedGrad" modified="No">False</Option>
    <Option name="GradBaggingFraction" modified="No">5.000000e-01</Option>
    <Option name="UseNTrainEvents" modified="No">0</Option>
    <Option name="NNodesMax" modified="No">0</Option>
  </Options>
  <Variables NVar="6">
    <Variable VarIndex="0" Expression="mjj" Label="mjj" Title="m_{jj}" Unit="GeV" Internal="mjj" Type="D" Min="7.50009277e+02" Max="1.04008096e+04"/>
    <Variable VarIndex="1" Expression="deltaRapidity" Label="deltaRapidity" Title="#Delta y_{jj}" Unit="" Internal="deltaRapidity" Type="D" Min="2.00024772e+00" Max="8.57665539e+00"/>
    <Variable VarIndex="2" Expression="ptBalance" Label="ptBalance" Title="pT_{balance}" Unit="" Internal="ptBalance" Type="D" Min="0.00000000e+00" Max="1.49991289e-01"/>
    <Variable VarIndex="3" Expression="zCentrality" Label="zCentrality" Title="#xi(Z)" Unit="" Internal="zCentrality" Type="D" Min="1.51442191e-05" Max="4.99976218e-01"/>
    <Variable VarIndex="4" Expression="omega" Label="omega" Title="#Omega" Unit="" Internal="omega" Type="D" Min="-1.99983269e-01" Max="1.59815931e+00"/>
    <Variable VarIndex="5" Expression="transverseRecoMassVariable" Label="transverseRecoMassVariable" Title="m_{T}(l)/f(m_{reco})" Unit="GeV" Internal="transverseRecoMassVariable" Type="D" Min="6.55489217e-04" Max="9.62869568e+01"/>
  </Variables>
  <Spectators NSpec="1">
    <Spectator SpecIndex="0" Expression="eventNumber" Label="eventNumber" Title="I" Unit="" Internal="eventNumber" Type="F" Min="1.27000000e+02" Max="1.24552128e+09"/>
  </Spectators>
  <Classes NClass="2">
    <Class Name="Signal" Index="0"/>
    <Class Name="Background" Index="1"/>
  </Classes>
  <Transformations NTransformations="0"/>
  <MVAPdfs/>
  <Weights NTrees="125" AnalysisType="1">
    <BinaryTree type="DecisionTree" boostWeight="1.0000000000000000e+00" itree="0">
      <Node pos="s" depth="0" NCoef="0" IVar="2" Cut="3.1479652971029282e-02" cType="1" res="-1.9978234544396400e-02" rms="4.9960070848464966e-01" purity="4.8002180457115173e-01" nType="0">
        <Node pos="l" depth="1" NCoef="0" IVar="1" Cut="3.8676228523254395e+00" cType="1" res="2.0741400122642517e-01" rms="4.5494991540908813e-01" purity="7.0741397142410278e-01" nType="0">
          <Node pos="l" depth="2" NCoef="0" IVar="-1" Cut="0.0000000000000000e+00" cType="1" res="-2.5578031782060862e-03" rms="4.9983641505241394e-01" purity="4.8721098899841309e-01" nType="-99"/>
          <Node pos="r" depth="2" NCoef="0" IVar="-1" Cut="0.0000000000000000e+00" cType="1" res="6.1831902712583542e-02" rms="3.9296361804008484e-01" purity="8.0915951728820801e-01" nType="-99"/>
        </Node>
        <Node pos="r" depth="1" NCoef="0" IVar="5" Cut="1.5000331878662109e+01" cType="1" res="-2.0020991563796997e-01" rms="4.5816591382026672e-01" purity="2.9979008436203003e-01" nType="0">
          <Node pos="l" depth="2" NCoef="0" IVar="-1" Cut="0.0000000000000000e+00" cType="1" res="-2.0475495606660843e-02" rms="4.8940664529800415e-01" purity="3.9762252569198608e-01" nType="-99"/>
          <Node pos="r" depth="2" NCoef="0" IVar="-1" Cut="0.0000000000000000e+00" cType="1" res="-8.6018525063991547e-02" rms="2.5499081611633301e-01" purity="6.9907359778881073e-02" nType="-99"/>
        </Node>
      </Node>
    </BinaryTree>
    <BinaryTree type="DecisionTree" boostWeight="1.0000000000000000e+00" itree="1">
      <Node pos="s" depth="0" NCoef="0" IVar="2" Cut="3.1457673758268356e-02" cType="1" res="-9.9022733047604561e-03" rms="4.8829570412635803e-01" purity="4.8897165060043335e-01" nType="0">
        <Node pos="l" depth="1" NCoef="0" IVar="5" Cut="1.3662499427795410e+01" cType="1" res="1.9214038550853729e-01" rms="4.4905391335487366e-01" purity="7.1353858709335327e-01" nType="0">
          <Node pos="l" depth="2" NCoef="0" IVar="-1" Cut="0.0000000000000000e+00" cType="1" res="5.0867676734924316e-02" rms="4.1436856985092163e-01" purity="7.7569967508316040e-01" nType="-99"/>
          <Node pos="r" depth="2" NCoef="0" IVar="-1" Cut="0.0000000000000000e+00" cType="1" res="-2.3140359669923782e-02" rms="4.8777672648429871e-01" purity="4.0262210369110107e-01" nType="-99"/>
        </Node>
        <Node pos="r" depth="1" NCoef="0" IVar="5" Cut="1.2692270278930664e+01" cType="1" res="-1.7868140339851379e-01" rms="4.5450314879417419e-01" purity="3.0137667059898376e-01" nType="0">
          <Node pos="l" depth="2" NCoef="0" IVar="-1" Cut="0.0000000000000000e+00" cType="1" res="-1.5383348800241947e-02" rms="4.9235320091247559e-01" purity="4.1288554668426514e-01" nType="-99"/>
          <Node pos="r" depth="2" NCoef="0" IVar="-1" Cut="0.0000000000000000e+00" cType="1" res="-7.0035651326179504e-02" rms="3.1777313351631165e-01" purity="1.1579597741365433e-01" nType="-99"/>
        </Node>
      </Node>
    </BinaryTree>
    <BinaryTree type="DecisionTree" boostWeight="1.0000000000000000e+00" itree="2">
      <Node pos="s" depth="0" NCoef="0" IVar="2" Cut="4.8082631081342697e-02" cType="1" res="5.8969599194824696e-04" rms="4.7905641794204712e-01" purity="4.9812650680541992e-01" nType="0">
        <Node pos="l" depth="1" NCoef="0" IVar="5" Cut="1.4800815582275391e+01" cType="1" res="1.5082442760467529e-01" rms="4.5697149634361267e-01" purity="6.7506521940231323e-01" nType="0">
          <Node pos="l" depth="2" NCoef="0" IVar="-1" Cut="0.0000000000000000e+00" cType="1" res="4.2439188808202744e-02" rms="4.3160906434059143e-01" purity="7.4347138404846191e-01" nType="-99"/>
          <Node pos="r" depth="2" NCoef="0" IVar="-1" Cut="0.0000000000000000e+00" cType="1" res="-2.6657911017537117e-02" rms="4.6766924858093262e-01" purity="3.5046142339706421e-01" nType="-99"/>
        </Node>
        <Node pos="r" depth="1" NCoef="0" IVar="5" Cut="1.1539236068725586e+01" cType="1" res="-1.9945369660854340e-01" rms="4.3237707018852234e-01" purity="2.6252573728561401e-01" nType="0">
          <Node pos="l" depth="2" NCoef="0" IVar="-1" Cut="0.0000000000000000e+00" cType="1" res="-2.1988395601511002e-02" rms="4.8341178894042969e-01" purity="3.7227752804756165e-01" nType="-99"/>
          <Node pos="r" depth="2" NCoef="0" IVar="-1" Cut="0.0000000000000000e+00" cType="1" res="-6.7775368690490723e-02" rms="2.9710167646408081e-01" purity="1.0008145123720169e-01" nType="-99"/>
        </Node>
      </Node>
    </BinaryTree>
    <BinaryTree type="DecisionTree" boostWeight="1.0000000000000000e+00" itree="3">
      <Node pos="s" depth="0" NCoef="0" IVar="2" Cut="3.8880437612533569e-02" cType="1" res="-1.2664562091231346e-02" rms="4.7007629275321960e-01" purity="4.8441547155380249e-01" nType="0">
        <Node pos="l" depth="1" NCoef="0" IVar="5" Cut="1.9021810531616211e+01" cType="1" res="1.4042441546916962e-01" rms="4.5050680637359619e-01" purity="6.8718063831329346e-01" nType="0">
          <Node pos="l" depth="2" NCoef="0" IVar="-1" Cut="0.0000000000000000e+00" cType="1" res="3.8230624049901962e-02" rms="4.3107295036315918e-01" purity="7.4322026968002319e-01" nType="-99"/>
          <Node pos="r" depth="2" NCoef="0" IVar="-1" Cut="0.0000000000000000e+00" cType="1" res="-5.1078215241432190e-02" rms="4.1281417012214661e-01" purity="2.2422192990779877e-01" nType="-99"/>
        </Node>
        <Node pos="r" depth="1" NCoef="0" IVar="2" Cut="8.6883634328842163e-02" cType="1" res="-1.6795058548450470e-01" rms="4.3744632601737976e-01" purity="2.7874028682708740e-01" nType="0">
          <Node pos="l" depth="2" NCoef="0" IVar="-1" Cut="0.0000000000000000e+00" cType="1" res="-1.6113912686705589e-02" rms="4.7434845566749573e-01" purity="3.7431314587593079e-01" nType="-99"/>
          <Node pos="r" depth="2" NCoef="0" IVar="-1" Cut="0.0000000000000000e+00" cType="1" res="-5.7097177952528000e-02" rms="3.5595285892486572e-01" purity="1.5846051275730133e-01" nType="-99"/>
        </Node>
      </Node>
    </BinaryTree>
    <BinaryTree type="DecisionTree" boostWeight="1.0000000000000000e+00" itree="4">
      <Node pos="s" depth="0" NCoef="0" IVar="5" Cut="1.7075826644897461e+01" cType="1" res="6.6293631680309772e-03" rms="4.6449127793312073e-01" purity="5.0652772188186646e-01" nType="0">
        <Node pos="l" depth="1" NCoef="0" IVar="2" Cut="2.7771741151809692e-02" cType="1" res="6.9990798830986023e-02" rms="4.6685355901718140e-01" purity="5.9198969602584839e-01" nType="0">
          <Node pos="l" depth="2" NCoef="0" IVar="-1" Cut="0.0000000000000000e+00" cType="1" res="4.2058132588863373e-02" rms="4.0524810552597046e-01" purity="7.8711479902267456e-01" nType="-99"/>
          <Node pos="r" depth="2" NCoef="0" IVar="-1" Cut="0.0000000000000000e+00" cType="1" res="-9.7453398630023003e-03" rms="4.8523071408271790e-01" purity="4.2024153470993042e-01" nType="-99"/>
        </Node>
        <Node pos="r" depth="1" NCoef="0" IVar="2" Cut="1.6852803528308868e-02" cType="1" res="-2.5633344054222107e-01" rms="3.4757739305496216e-01" purity="1.5184311568737030e-01" nType="0">
          <Node pos="l" depth="2" NCoef="0" IVar="-1" Cut="0.0000000000000000e+00" cType="1" res="-2.1138092502951622e-02" rms="4.7928854823112488e-01" purity="3.7082865834236145e-01" nType="-99"/>
          <Node pos="r" depth="2" NCoef="0" IVar="-1" Cut="0.0000000000000000e+00" cType="1" res="-6.0805160552263260e-02" rms="3.0303284525871277e-01" purity="1.0538883507251740e-01" nType="-99"/>
        </Node>
      </Node>
    </BinaryTree>
    <BinaryTree type="DecisionTree" boostWeight="1.0000000000000000e+00" itree="5">
      <Node pos="s" depth="0" NCoef="0" IVar="5" Cut="1.6152412414550781e+01" cType="1" res="8.8254092261195183e-03" rms="4.5850616693496704e-01" purity="5.1067525148391724e-01" nType="0">
        <Node pos="l" depth="1" NCoef="0" IVar="2" Cut="2.9623189941048622e-02" cType="1" res="6.7647457122802734e-02" rms="4.6349081397056580e-01" purity="5.9736967086791992e-01" nType="0">
          <Node pos="l" depth="2" NCoef="0" IVar="-1" Cut="0.0000000000000000e+00" cType="1" res="3.7272956222295761e-02" rms="4.1013258695602417e-01" purity="7.8137981891632080e-01" nType="-99"/>
          <Node pos="r" depth="2" NCoef="0" IVar="-1" Cut="0.0000000000000000e+00" cType="1" res="-7.8173484653234482e-03" rms="4.8643708229064941e-01" purity="4.2048522830009460e-01" nType="-99"/>
        </Node>
        <Node pos="r" depth="1" NCoef="0" IVar="2" Cut="3.1637903302907944e-02" cType="1" res="-2.3074623942375183e-01" rms="3.4644359350204468e-01" purity="1.5758462250232697e-01" nType="0">
          <Node pos="l" depth="2" NCoef="0" IVar="-1" Cut="0.0000000000000000e+00" cType="1" res="-2.5633268058300018e-02" rms="4.6654000878334045e-01" purity="3.3632200956344604e-01" nType="-99"/>
          <Node pos="r" depth="2" NCoef="0" IVar="-1" Cut="0.0000000000000000e+00" cType="1" res="-6.2044091522693634e-02" rms="2.5184082984924316e-01" purity="6.8686567246913910e-02" nType="-99"/>
        </Node>
      </Node>
    </BinaryTree>
    <BinaryTree type="DecisionTree" boostWeight="1.0000000000000000e+00" itree="6">
      <Node pos="s" depth="0" NCoef="0" IVar="2" Cut="5.7375300675630569e-02" cType="1" res="-1.3394969515502453e-02" rms="4.5353943109512329e-01" purity="4.8618617653846741e-01" nType="0">
        <Node pos="l" depth="1" NCoef="0" IVar="3" Cut="3.1476908922195435e-01" cType="1" res="8.3427779376506805e-02" rms="4.5342704653739929e-01" purity="6.3870418071746826e-01" nType="0">
          <Node pos="l" depth="2" NCoef="0" IVar="-1" Cut="0.0000000000000000e+00" cType="1" res="2.7919124811887741e-02" rms="4.3341594934463501e-01" purity="6.9127881526947021e-01" nType="-99"/>
          <Node pos="r" depth="2" NCoef="0" IVar="-1" Cut="0.0000000000000000e+00" cType="1" res="-2.9203221201896667e-02" rms="4.7311374545097351e-01" purity="4.0419116616249084e-01" nType="-99"/>
        </Node>
        <Node pos="r" depth="1" NCoef="0" IVar="3" Cut="2.6535952091217041e-01" cType="1" res="-1.8202170729637146e-01" rms="4.0138965845108032e-01" purity="2.2056043148040771e-01" nType="0">
          <Node pos="l" depth="2" NCoef="0" IVar="-1" Cut="0.0000000000000000e+00" cType="1" res="-2.7420932427048683e-02" rms="4.2844969034194946e-01" purity="2.7175909280776978e-01" nType="-99"/>
          <Node pos="r" depth="2" NCoef="0" IVar="-1" Cut="0.0000000000000000e+00" cType="1" res="-5.9587340801954269e-02" rms="3.1895714998245239e-01" purity="1.2062203139066696e-01" nType="-99"/>
        </Node>
      </Node>
    </BinaryTree>
    <BinaryTree type="DecisionTree" boostWeight="1.0000000000000000e+00" itree="7">
      <Node pos="s" depth="0" NCoef="0" IVar="2" Cut="5.3673669695854187e-02" cType="1" res="5.1144859753549099e-03" rms="4.4883704185485840e-01" purity="5.0634163618087769e-01" nType="0">
        <Node pos="l" depth="1" NCoef="0" IVar="1" Cut="3.8676228523254395e+00" cType="1" res="9.1457203030586243e-02" rms="4.4577133655548096e-01" purity="6.6120249032974243e-01" nType="0">
          <Node pos="l" depth="2" NCoef="0" IVar="-1" Cut="0.0000000000000000e+00" cType="1" res="-1.6046950593590736e-02" rms="4.6912938356399536e-01" purity="4.5711258053779602e-01" nType="-99"/>
          <Node pos="r" depth="2" NCoef="0" IVar="-1" Cut="0.0000000000000000e+00" cType="1" res="3.5428240895271301e-02" rms="4.1306987404823303e-01" purity="7.5270789861679077e-01" nType="-99"/>
        </Node>
        <Node pos="r" depth="1" NCoef="0" IVar="5" Cut="8.1425781250000000e+00" cType="1" res="-1.4165607094764709e-01" rms="4.1461133956909180e-01" purity="2.4309983849525452e-01" nType="0">
          <Node pos="l" depth="2" NCoef="0" IVar="-1" Cut="0.0000000000000000e+00" cType="1" res="-1.2471511960029602e-02" rms="4.7933232784271240e-01" purity="3.6632272601127625e-01" nType="-99"/>
          <Node pos="r" depth="2" NCoef="0" IVar="-1" Cut="0.0000000000000000e+00" cType="1" res="-4.6267781406641006e-02" rms="3.3894586563110352e-01" purity="1.4227984845638275e-01" nType="-99"/>
        </Node>
      </Node>
    </BinaryTree>
    <BinaryTree type="DecisionTree" boostWeight="1.0000000000000000e+00" itree="8">
      <Node pos="s" depth="0" NCoef="0" IVar="2" Cut="2.0352605730295181e-02" cType="1" res="1.0695503442548215e-04" rms="4.4518551230430603e-01" purity="5.0239396095275879e-01" nType="0">
        <Node pos="l" depth="1" NCoef="0" IVar="1" Cut="4.0995602607727051e+00" cType="1" res="1.4422388374805450e-01" rms="4.0265423059463501e-01" purity="7.6124835014343262e-01" nType="0">
          <Node pos="l" depth="2" NCoef="0" IVar="-1" Cut="0.0000000000000000e+00" cType="1" res="5.8775697834789753e-04" rms="4.7612467408180237e-01" purity="5.8506965637207031e-01" nType="-99"/>
          <Node pos="r" depth="2" NCoef="0" IVar="-1" Cut="0.0000000000000000e+00" cType="1" res="5.2210688591003418e-02" rms="3.1204000115394592e-01" purity="8.7790244817733765e-01" nType="-99"/>
        </Node>
        <Node pos="r" depth="1" NCoef="0" IVar="5" Cut="1.0383928298950195e+01" cType="1" res="-7.3681071400642395e-02" rms="4.4785484671592712e-01" purity="3.6986032128334045e-01" nType="0">
          <Node pos="l" depth="2" NCoef="0" IVar="-1" Cut="0.0000000000000000e+00" cType="1" res="5.9257226530462503e-04" rms="4.8003807663917542e-01" purity="4.9482253193855286e-01" nType="-99"/>
          <Node pos="r" depth="2" NCoef="0" IVar="-1" Cut="0.0000000000000000e+00" cType="1" res="-4.2126607149839401e-02" rms="3.6662188172340393e-01" purity="1.8383856117725372e-01" nType="-99"/>
        </Node>
      </Node>
    </BinaryTree>
    <BinaryTree type="DecisionTree" boostWeight="1.0000000000000000e+00" itree="9">
      <Node pos="s" depth="0" NCoef="0" IVar="5" Cut="1.3078160285949707e+01" cType="1" res="-5.0820782780647278e-03" rms="4.4135504961013794e-01" purity="4.9537828564643860e-01" nType="0">
        <Node pos="l" depth="1" NCoef="0" IVar="2" Cut="6.6608525812625885e-02" cType="1" res="5.1558900624513626e-02" rms="4.4953241944313049e-01" purity="5.9939080476760864e-01" nType="0">
          <Node pos="l" depth="2" NCoef="0" IVar="-1" Cut="0.0000000000000000e+00" cType="1" res="2.3692229762673378e-02" rms="4.3355080485343933e-01" purity="7.0957905054092407e-01" nType="-99"/>
          <Node pos="r" depth="2" NCoef="0" IVar="-1" Cut="0.0000000000000000e+00" cType="1" res="-2.2694060578942299e-02" rms="4.5315611362457275e-01" purity="2.9787701368331909e-01" nType="-99"/>
        </Node>
        <Node pos="r" depth="1" NCoef="0" IVar="5" Cut="2.1300399780273438e+01" cType="1" res="-1.5634781122207642e-01" rms="3.7932759523391724e-01" purity="2.1760179102420807e-01" nType="0">
          <Node pos="l" depth="2" NCoef="0" IVar="-1" Cut="0.0000000000000000e+00" cType="1" res="-2.2650478407740593e-02" rms="4.3188896775245667e-01" purity="3.0973052978515625e-01" nType="-99"/>
          <Node pos="r" depth="2" NCoef="0" IVar="-1" Cut="0.0000000000000000e+00" cType="1" res="-5.1491960883140564e-02" rms="2.9294246435165405e-01" purity="1.0835340619087219e-01" nType="-99"/>
        </Node>
      </Node>
    </BinaryTree>
    <BinaryTree type="DecisionTree" boostWeight="1.0000000000000000e+00" itree="10">
      <Node pos="s" depth="0" NCoef="0" IVar="5" Cut="1.0700766563415527e+01" cType="1" res="7.6288082636892796e-03" rms="4.3223819136619568e-01" purity="5.0502055883407593e-01" nType="0">
        <Node pos="l" depth="1" NCoef="0" IVar="0" Cut="9.8239514160156250e+02" cType="1" res="7.7708683907985687e-02" rms="4.4079607725143433e-01" purity="6.3705843687057495e-01" nType="0">
          <Node pos="l" depth="2" NCoef="0" IVar="-1" Cut="0.0000000000000000e+00" cType="1" res="-1.2232112698256969e-02" rms="4.6801435947418213e-01" purity="4.7091308236122131e-01" nType="-99"/>
          <Node pos="r" depth="2" NCoef="0" IVar="-1" Cut="0.0000000000000000e+00" cType="1" res="2.9531825333833694e-02" rms="4.1491299867630005e-01" purity="7.0903468132019043e-01" nType="-99"/>
        </Node>
        <Node pos="r" depth="1" NCoef="0" IVar="2" Cut="7.4069770053029060e-03" cType="1" res="-1.2155973166227341e-01" rms="3.8381460309028625e-01" purity="2.6161572337150574e-01" nType="0">
          <Node pos="l" depth="2" NCoef="0" IVar="-1" Cut="0.0000000000000000e+00" cType="1" res="2.7623370289802551e-02" rms="4.4015014171600342e-01" purity="6.8966919183731079e-01" nType="-99"/>
          <Node pos="r" depth="2" NCoef="0" IVar="-1" Cut="0.0000000000000000e+00" cType="1" res="-3.3628713339567184e-02" rms="3.6963927745819092e-01" purity="2.2211307287216187e-01" nType="-99"/>
        </Node>
      </Node>
    </BinaryTree>
    <BinaryTree type="DecisionTree" boostWeight="1.0000000000000000e+00" itree="11">
      <Node pos="s" depth="0" NCoef="0" IVar="5" Cut="1.4265293121337891e+01" cType="1" res="1.5814162790775299e-02" rms="4.2866218090057373e-01" purity="5.0778400897979736e-01" nType="0">
        <Node pos="l" depth="1" NCoef="0" IVar="1" Cut="4.0675749778747559e+00" cType="1" res="7.6356612145900726e-02" rms="4.3831598758697510e-01" purity="6.3366818428039551e-01" nType="0">
          <Node pos="l" depth="2" NCoef="0" IVar="-1" Cut="0.0000000000000000e+00" cType="1" res="-9.2404689639806747e-03" rms="4.7155055403709412e-01" purity="4.7393986582756042e-01" nType="-99"/>
          <Node pos="r" depth="2" NCoef="0" IVar="-1" Cut="0.0000000000000000e+00" cType="1" res="3.2930187880992889e-02" rms="3.9950567483901978e-01" purity="7.3067462444305420e-01" nType="-99"/>
        </Node>
        <Node pos="r" depth="1" NCoef="0" IVar="5" Cut="2.2366403579711914e+01" cType="1" res="-1.3605967164039612e-01" rms="3.6124113202095032e-01" purity="1.9199715554714203e-01" nType="0">
          <Node pos="l" depth="2" NCoef="0" IVar="-1" Cut="0.0000000000000000e+00" cType="1" res="-1.5367914922535419e-02" rms="4.2160156369209290e-01" purity="2.9606360197067261e-01" nType="-99"/>
          <Node pos="r" depth="2" NCoef="0" IVar="-1" Cut="0.0000000000000000e+00" cType="1" res="-5.0727266818284988e-02" rms="2.7380624413490295e-01" purity="9.0254239737987518e-02" nType="-99"/>
        </Node>
      </Node>
    </BinaryTree>
    <BinaryTree type="DecisionTree" boostWeight="1.0000000000000000e+00" itree="12">
      <Node pos="s" depth="0" NCoef="0" IVar="2" Cut="2.5924419984221458e-02" cType="1" res="-1.0828305035829544e-02" rms="4.3158107995986938e-01" purity="4.9215471744537354e-01" nType="0">
        <Node pos="l" depth="1" NCoef="0" IVar="3" Cut="3.6411315202713013e-01" cType="1" res="8.6416848003864288e-02" rms="4.0836635231971741e-01" purity="7.2620737552642822e-01" nType="0">
          <Node pos="l" depth="2" NCoef="0" IVar="-1" Cut="0.0000000000000000e+00" cType="1" res="2.8238205239176750e-02" rms="3.8405981659889221e-01" purity="7.6930916309356689e-01" nType="-99"/>
          <Node pos="r" depth="2" NCoef="0" IVar="-1" Cut="0.0000000000000000e+00" cType="1" res="-4.2239937931299210e-02" rms="4.7089836001396179e-01" purity="4.0163990855216980e-01" nType="-99"/>
        </Node>
        <Node pos="r" depth="1" NCoef="0" IVar="5" Cut="1.0066348075866699e+01" cType="1" res="-7.5170151889324188e-02" rms="4.3447318673133850e-01" purity="3.3729472756385803e-01" nType="0">
          <Node pos="l" depth="2" NCoef="0" IVar="-1" Cut="0.0000000000000000e+00" cType="1" res="-4.3676872737705708e-03" rms="4.8198226094245911e-01" purity="4.6721258759498596e-01" nType="-99"/>
          <Node pos="r" depth="2" NCoef="0" IVar="-1" Cut="0.0000000000000000e+00" cType="1" res="-3.6934372037649155e-02" rms="3.4467294812202454e-01" purity="1.5722790360450745e-01" nType="-99"/>
        </Node>
      </Node>
    </BinaryTree>
    <BinaryTree type="DecisionTree" boostWeight="1.0000000000000000e+00" itree="13">
      <Node pos="s" depth="0" NCoef="0" IVar="2" Cut="4.9962189048528671e-02" cType="1" res="-1.1905949562788010e-02" rms="4.2546713352203369e-01" purity="4.8209682106971741e-01" nType="0">
        <Node pos="l" depth="1" NCoef="0" IVar="1" Cut="3.7335197925567627e+00" cType="1" res="5.9220101684331894e-02" rms="4.2635983228683472e-01" purity="6.5777432918548584e-01" nType="0">
          <Node pos="l" depth="2" NCoef="0" IVar="-1" Cut="0.0000000000000000e+00" cType="1" res="-1.4399427920579910e-02" rms="4.7117951512336731e-01" purity="4.6519470214843750e-01" nType="-99"/>
          <Node pos="r" depth="2" NCoef="0" IVar="-1" Cut="0.0000000000000000e+00" cType="1" res="2.5829700753092766e-02" rms="3.9361032843589783e-01" purity="7.3944586515426636e-01" nType="-99"/>
        </Node>
        <Node pos="r" depth="1" NCoef="0" IVar="0" Cut="1.4837796630859375e+03" cType="1" res="-1.0982309281826019e-01" rms="4.0425631403923035e-01" purity="2.4024675786495209e-01" nType="0">
          <Node pos="l" depth="2" NCoef="0" IVar="-1" Cut="0.0000000000000000e+00" cType="1" res="-3.3655978739261627e-02" rms="3.7958902120590210e-01" purity="1.9750867784023285e-01" nType="-99"/>
          <Node pos="r" depth="2" NCoef="0" IVar="-1" Cut="0.0000000000000000e+00" cType="1" res="-8.8680634507909417e-04" rms="4.5517212152481079e-01" purity="3.6989423632621765e-01" nType="-99"/>
        </Node>
      </Node>
    </BinaryTree>
    <BinaryTree type="DecisionTree" boostWeight="1.0000000000000000e+00" itree="14">
      <Node pos="s" depth="0" NCoef="0" IVar="2" Cut="7.9625003039836884e-02" cType="1" res="2.8541057836264372e-03" rms="4.2233809828758240e-01" purity="4.9645078182220459e-01" nType="0">
        <Node pos="l" depth="1" NCoef="0" IVar="1" Cut="4.1113815307617188e+00" cType="1" res="4.8995278775691986e-02" rms="4.2735427618026733e-01" purity="6.0127323865890503e-01" nType="0">
          <Node pos="l" depth="2" NCoef="0" IVar="-1" Cut="0.0000000000000000e+00" cType="1" res="-1.2409954331815243e-02" rms="4.5207253098487854e-01" purity="4.3354639410972595e-01" nType="-99"/>
          <Node pos="r" depth="2" NCoef="0" IVar="-1" Cut="0.0000000000000000e+00" cType="1" res="2.9637347906827927e-02" rms="3.8989961147308350e-01" purity="7.2592425346374512e-01" nType="-99"/>
        </Node>
        <Node pos="r" depth="1" NCoef="0" IVar="3" Cut="1.4180496335029602e-01" cType="1" res="-1.3041171431541443e-01" rms="3.7702852487564087e-01" purity="1.9370077550411224e-01" nType="0">
          <Node pos="l" depth="2" NCoef="0" IVar="-1" Cut="0.0000000000000000e+00" cType="1" res="-1.5173505060374737e-02" rms="4.1023087501525879e-01" purity="2.6324006915092468e-01" nType="-99"/>
          <Node pos="r" depth="2" NCoef="0" IVar="-1" Cut="0.0000000000000000e+00" cType="1" res="-4.0649209171533585e-02" rms="3.4904924035072327e-01" purity="1.5120564401149750e-01" nType="-99"/>
        </Node>
      </Node>
    </BinaryTree>
    <BinaryTree type="DecisionTree" boostWeight="1.0000000000000000e+00" itree="15">
      <Node pos="s" depth="0" NCoef="0" IVar="4" Cut="6.6216550767421722e-02" cType="1" res="1.4723426429554820e-03" rms="4.3135112524032593e-01" purity="5.0958484411239624e-01" nType="0">
        <Node pos="l" depth="1" NCoef="0" IVar="0" Cut="1.4355001220703125e+03" cType="1" res="-1.6299012303352356e-01" rms="3.4192273020744324e-01" purity="1.5359836816787720e-01" nType="0">
          <Node pos="l" depth="2" NCoef="0" IVar="-1" Cut="0.0000000000000000e+00" cType="1" res="-5.3328115493059158e-02" rms="3.0052146315574646e-01" purity="1.0275255888700485e-01" nType="-99"/>
          <Node pos="r" depth="2" NCoef="0" IVar="-1" Cut="0.0000000000000000e+00" cType="1" res="-1.4855391345918179e-02" rms="4.1511142253875732e-01" purity="2.8736621141433716e-01" nType="-99"/>
        </Node>
        <Node pos="r" depth="1" NCoef="0" IVar="2" Cut="8.6988359689712524e-02" cType="1" res="2.6384947821497917e-02" rms="4.3797391653060913e-01" purity="5.6350934505462646e-01" nType="0">
          <Node pos="l" depth="2" NCoef="0" IVar="-1" Cut="0.0000000000000000e+00" cType="1" res="1.3611324131488800e-02" rms="4.4026902318000793e-01" purity="6.4401876926422119e-01" nType="-99"/>
          <Node pos="r" depth="2" NCoef="0" IVar="-1" Cut="0.0000000000000000e+00" cType="1" res="-2.7943236753344536e-02" rms="3.9537242054939270e-01" purity="2.1261307597160339e-01" nType="-99"/>
        </Node>
      </Node>
    </BinaryTree>
    <BinaryTree type="DecisionTree" boostWeight="1.0000000000000000e+00" itree="16">
      <Node pos="s" depth="0" NCoef="0" IVar="5" Cut="1.6642732620239258e+01" cType="1" res="-5.8470750227570534e-03" rms="4.1660323739051819e-01" purity="4.9552518129348755e-01" nType="0">
        <Node pos="l" depth="1" NCoef="0" IVar="3" Cut="3.6416485905647278e-01" cType="1" res="2.8882231563329697e-02" rms="4.3398919701576233e-01" purity="5.8804613351821899e-01" nType="0">
          <Node pos="l" depth="2" NCoef="0" IVar="-1" Cut="0.0000000000000000e+00" cType="1" res="1.3649996370077133e-02" rms="4.2381200194358826e-01" purity="6.2685972452163696e-01" nType="-99"/>
          <Node pos="r" depth="2" NCoef="0" IVar="-1" Cut="0.0000000000000000e+00" cType="1" res="-4.0966518223285675e-02" rms="4.4111916422843933e-01" purity="3.1772923469543457e-01" nType="-99"/>
        </Node>
        <Node pos="r" depth="1" NCoef="0" IVar="0" Cut="1.6346513671875000e+03" cType="1" res="-1.4884825050830841e-01" rms="2.9538118839263916e-01" purity="1.1456155776977539e-01" nType="0">
          <Node pos="l" depth="2" NCoef="0" IVar="-1" Cut="0.0000000000000000e+00" cType="1" res="-4.8971995711326599e-02" rms="2.4949419498443604e-01" purity="7.5481660664081573e-02" nType="-99"/>
          <Node pos="r" depth="2" NCoef="0" IVar="-1" Cut="0.0000000000000000e+00" cType="1" res="-1.4256077818572521e-02" rms="4.1871169209480286e-01" purity="2.6831048727035522e-01" nType="-99"/>
        </Node>
      </Node>
    </BinaryTree>
    <BinaryTree type="DecisionTree" boostWeight="1.0000000000000000e+00" itree="17">
      <Node pos="s" depth="0" NCoef="0" IVar="3" Cut="2.9012319445610046e-01" cType="1" res="-2.3779656738042831e-02" rms="4.2524909973144531e-01" purity="4.8704835772514343e-01" nType="0">
        <Node pos="l" depth="1" NCoef="0" IVar="2" Cut="3.7015929818153381e-02" cType="1" res="1.7387675121426582e-02" rms="4.1973644495010376e-01" purity="5.4576414823532104e-01" nType="0">
          <Node pos="l" depth="2" NCoef="0" IVar="-1" Cut="0.0000000000000000e+00" cType="1" res="1.9858514890074730e-02" rms="4.0553951263427734e-01" purity="7.5370389223098755e-01" nType="-99"/>
          <Node pos="r" depth="2" NCoef="0" IVar="-1" Cut="0.0000000000000000e+00" cType="1" res="-1.3113637454807758e-02" rms="4.2326506972312927e-01" purity="3.1022149324417114e-01" nType="-99"/>
        </Node>
        <Node pos="r" depth="1" NCoef="0" IVar="4" Cut="8.4145176410675049e-01" cType="1" res="-1.4874698221683502e-01" rms="4.1739135980606079e-01" purity="3.0881094932556152e-01" nType="0">
          <Node pos="l" depth="2" NCoef="0" IVar="-1" Cut="0.0000000000000000e+00" cType="1" res="-2.4972865357995033e-02" rms="4.1531628370285034e-01" purity="3.3231401443481445e-01" nType="-99"/>
          <Node pos="r" depth="2" NCoef="0" IVar="-1" Cut="0.0000000000000000e+00" cType="1" res="-5.3856160491704941e-02" rms="4.0583449602127075e-01" purity="2.5229740142822266e-01" nType="-99"/>
        </Node>
      </Node>
    </BinaryTree>
    <BinaryTree type="DecisionTree" boostWeight="1.0000000000000000e+00" itree="18">
      <Node pos="s" depth="0" NCoef="0" IVar="5" Cut="8.3216934204101562e+00" cType="1" res="-6.8259276449680328e-03" rms="4.2010280489921570e-01" purity="4.9679431319236755e-01" nType="0">
        <Node pos="l" depth="1" NCoef="0" IVar="3" Cut="3.2711303234100342e-01" cType="1" res="5.2697271108627319e-02" rms="4.2572960257530212e-01" purity="6.3874936103820801e-01" nType="0">
          <Node pos="l" depth="2" NCoef="0" IVar="-1" Cut="0.0000000000000000e+00" cType="1" res="2.0676303654909134e-02" rms="4.1310200095176697e-01" purity="6.9630187749862671e-01" nType="-99"/>
          <Node pos="r" depth="2" NCoef="0" IVar="-1" Cut="0.0000000000000000e+00" cType="1" res="-2.7462014928460121e-02" rms="4.4007855653762817e-01" purity="3.5842940211296082e-01" nType="-99"/>
        </Node>
        <Node pos="r" depth="1" NCoef="0" IVar="0" Cut="2.3114243164062500e+03" cType="1" res="-7.8259602189064026e-02" rms="4.0177106857299805e-01" purity="3.2643437385559082e-01" nType="0">
          <Node pos="l" depth="2" NCoef="0" IVar="-1" Cut="0.0000000000000000e+00" cType="1" res="-2.5422215461730957e-02" rms="3.9534431695938110e-01" purity="2.9108771681785583e-01" nType="-99"/>
          <Node pos="r" depth="2" NCoef="0" IVar="-1" Cut="0.0000000000000000e+00" cType="1" res="3.0286798253655434e-02" rms="3.9832881093025208e-01" purity="6.3335669040679932e-01" nType="-99"/>
        </Node>
      </Node>
    </BinaryTree>
    <BinaryTree type="DecisionTree" boostWeight="1.0000000000000000e+00" itree="19">
      <Node pos="s" depth="0" NCoef="0" IVar="4" Cut="1.0877760648727417e+00" cType="1" res="3.6171993706375360e-03" rms="4.1605544090270996e-01" purity="4.9964138865470886e-01" nType="0">
        <Node pos="l" depth="1" NCoef="0" IVar="5" Cut="1.4799142837524414e+01" cType="1" res="2.4738375097513199e-02" rms="4.1280364990234375e-01" purity="5.2527415752410889e-01" nType="0">
          <Node pos="l" depth="2" NCoef="0" IVar="-1" Cut="0.0000000000000000e+00" cType="1" res="1.5524830669164658e-02" rms="4.2560580372810364e-01" purity="6.5031147003173828e-01" nType="-99"/>
          <Node pos="r" depth="2" NCoef="0" IVar="-1" Cut="0.0000000000000000e+00" cType="1" res="-2.5784244760870934e-02" rms="3.4924066066741943e-01" purity="1.8068310618400574e-01" nType="-99"/>
        </Node>
        <Node pos="r" depth="1" NCoef="0" IVar="5" Cut="4.7781143188476562e+00" cType="1" res="-1.8439605832099915e-01" rms="3.9720824360847473e-01" purity="2.7146744728088379e-01" nType="0">
          <Node pos="l" depth="2" NCoef="0" IVar="-1" Cut="0.0000000000000000e+00" cType="1" res="-9.9050514400005341e-03" rms="4.5814934372901917e-01" purity="4.7797134518623352e-01" nType="-99"/>
          <Node pos="r" depth="2" NCoef="0" IVar="-1" Cut="0.0000000000000000e+00" cType="1" res="-7.0241264998912811e-02" rms="2.7702057361602783e-01" purity="8.3584718406200409e-02" nType="-99"/>
        </Node>
      </Node>
    </BinaryTree>
    <BinaryTree type="DecisionTree" boostWeight="1.0000000000000000e+00" itree="20">
      <Node pos="s" depth="0" NCoef="0" IVar="1" Cut="5.0042858123779297e+00" cType="1" res="-3.4314105287194252e-03" rms="4.1702005267143250e-01" purity="4.9667459726333618e-01" nType="0">
        <Node pos="l" depth="1" NCoef="0" IVar="2" Cut="1.4796003699302673e-02" cType="1" res="-4.3961971998214722e-02" rms="4.2219242453575134e-01" purity="4.2569750547409058e-01" nType="0">
          <Node pos="l" depth="2" NCoef="0" IVar="-1" Cut="0.0000000000000000e+00" cType="1" res="1.3221392408013344e-02" rms="4.2491295933723450e-01" purity="6.9660872220993042e-01" nType="-99"/>
          <Node pos="r" depth="2" NCoef="0" IVar="-1" Cut="0.0000000000000000e+00" cType="1" res="-1.8260963261127472e-02" rms="4.1634577512741089e-01" purity="3.4012651443481445e-01" nType="-99"/>
        </Node>
        <Node pos="r" depth="1" NCoef="0" IVar="5" Cut="1.4802176475524902e+01" cType="1" res="1.1484194546937943e-01" rms="3.7743437290191650e-01" purity="7.0379483699798584e-01" nType="0">
          <Node pos="l" depth="2" NCoef="0" IVar="-1" Cut="0.0000000000000000e+00" cType="1" res="3.7218321114778519e-02" rms="3.6091694235801697e-01" purity="7.9876834154129028e-01" nType="-99"/>
          <Node pos="r" depth="2" NCoef="0" IVar="-1" Cut="0.0000000000000000e+00" cType="1" res="-1.4818004332482815e-02" rms="4.0425425767898560e-01" purity="2.5905936956405640e-01" nType="-99"/>
        </Node>
      </Node>
    </BinaryTree>
    <BinaryTree type="DecisionTree" boostWeight="1.0000000000000000e+00" itree="21">
      <Node pos="s" depth="0" NCoef="0" IVar="3" Cut="1.5429978072643280e-01" cType="1" res="-5.6638275273144245e-03" rms="4.2723661661148071e-01" purity="4.9792358279228210e-01" nType="0">
        <Node pos="l" depth="1" NCoef="0" IVar="4" Cut="6.7093692719936371e-02" cType="1" res="6.3038863241672516e-02" rms="4.0997272729873657e-01" purity="5.9283864498138428e-01" nType="0">
          <Node pos="l" depth="2" NCoef="0" IVar="-1" Cut="0.0000000000000000e+00" cType="1" res="-2.4815719574689865e-02" rms="3.4333059191703796e-01" purity="1.9048595428466797e-01" nType="-99"/>
          <Node pos="r" depth="2" NCoef="0" IVar="-1" Cut="0.0000000000000000e+00" cType="1" res="2.0930934697389603e-02" rms="4.1468423604965210e-01" purity="6.5871042013168335e-01" nType="-99"/>
        </Node>
        <Node pos="r" depth="1" NCoef="0" IVar="0" Cut="2.4669301757812500e+03" cType="1" res="-6.2735855579376221e-02" rms="4.3285050988197327e-01" purity="4.1907665133476257e-01" nType="0">
          <Node pos="l" depth="2" NCoef="0" IVar="-1" Cut="0.0000000000000000e+00" cType="1" res="-1.8038362264633179e-02" rms="4.3409451842308044e-01" purity="3.9533877372741699e-01" nType="-99"/>
          <Node pos="r" depth="2" NCoef="0" IVar="-1" Cut="0.0000000000000000e+00" cType="1" res="2.6590663939714432e-02" rms="3.7680497765541077e-01" purity="7.4642759561538696e-01" nType="-99"/>
        </Node>
      </Node>
    </BinaryTree>
    <BinaryTree type="DecisionTree" boostWeight="1.0000000000000000e+00" itree="22">
      <Node pos="s" depth="0" NCoef="0" IVar="5" Cut="1.3845019340515137e+01" cType="1" res="1.7671026289463043e-02" rms="4.0694108605384827e-01" purity="5.1860296726226807e-01" nType="0">
        <Node pos="l" depth="1" NCoef="0" IVar="4" Cut="1.0220354795455933e+00" cType="1" res="5.1998186856508255e-02" rms="4.1956192255020142e-01" purity="6.3614189624786377e-01" nType="0">
          <Node pos="l" depth="2" NCoef="0" IVar="-1" Cut="0.0000000000000000e+00" cType="1" res="1.9499307498335838e-02" rms="4.1306936740875244e-01" purity="6.8652206659317017e-01" nType="-99"/>
          <Node pos="r" depth="2" NCoef="0" IVar="-1" Cut="0.0000000000000000e+00" cType="1" res="-2.2069474682211876e-02" rms="4.1856887936592102e-01" purity="3.9330905675888062e-01" nType="-99"/>
        </Node>
        <Node pos="r" depth="1" NCoef="0" IVar="0" Cut="1.7994302978515625e+03" cType="1" res="-7.7834077179431915e-02" rms="3.5239157080650330e-01" purity="1.9158585369586945e-01" nType="0">
          <Node pos="l" depth="2" NCoef="0" IVar="-1" Cut="0.0000000000000000e+00" cType="1" res="-2.9208390042185783e-02" rms="3.2810318470001221e-01" purity="1.5198682248592377e-01" nType="-99"/>
          <Node pos="r" depth="2" NCoef="0" IVar="-1" Cut="0.0000000000000000e+00" cType="1" res="5.7531828060746193e-03" rms="4.3559652566909790e-01" purity="3.7813952565193176e-01" nType="-99"/>
        </Node>
      </Node>
    </BinaryTree>
    <BinaryTree type="DecisionTree" boostWeight="1.0000000000000000e+00" itree="23">
      <Node pos="s" depth="0" NCoef="0" IVar="2" Cut="8.3315223455429077e-02" cType="1" res="6.4391256310045719e-03" rms="4.0943065285682678e-01" purity="5.1056224107742310e-01" nType="0">
        <Node pos="l" depth="1" NCoef="0" IVar="1" Cut="3.8680238723754883e+00" cType="1" res="3.5449348390102386e-02" rms="4.1814544796943665e-01" purity="6.0025882720947266e-01" nType="0">
          <Node pos="l" depth="2" NCoef="0" IVar="-1" Cut="0.0000000000000000e+00" cType="1" res="-9.0705370530486107e-03" rms="4.4154518842697144e-01" purity="4.2068511247634888e-01" nType="-99"/>
          <Node pos="r" depth="2" NCoef="0" IVar="-1" Cut="0.0000000000000000e+00" cType="1" res="1.7962086945772171e-02" rms="4.0117466449737549e-01" purity="6.8779301643371582e-01" nType="-99"/>
        </Node>
        <Node pos="r" depth="1" NCoef="0" IVar="5" Cut="9.1283721923828125e+00" cType="1" res="-9.8693780601024628e-02" rms="3.5692277550697327e-01" purity="1.8550215661525726e-01" nType="0">
          <Node pos="l" depth="2" NCoef="0" IVar="-1" Cut="0.0000000000000000e+00" cType="1" res="-1.0682892985641956e-02" rms="4.5359104871749878e-01" purity="3.2742989063262939e-01" nType="-99"/>
          <Node pos="r" depth="2" NCoef="0" IVar="-1" Cut="0.0000000000000000e+00" cType="1" res="-4.7353096306324005e-02" rms="2.2499433159828186e-01" purity="5.4253756999969482e-02" nType="-99"/>
        </Node>
      </Node>
    </BinaryTree>
    <BinaryTree type="DecisionTree" boostWeight="1.0000000000000000e+00" itree="24">
      <Node pos="s" depth="0" NCoef="0" IVar="0" Cut="1.2382995605468750e+03" cType="1" res="-4.2804325930774212e-03" rms="4.1481289267539978e-01" purity="5.0238794088363647e-01" nType="0">
        <Node pos="l" depth="1" NCoef="0" IVar="3" Cut="2.5921502709388733e-01" cType="1" res="-6.0184542089700699e-02" rms="4.2328751087188721e-01" purity="3.9261853694915771e-01" nType="0">
          <Node pos="l" depth="2" NCoef="0" IVar="-1" Cut="0.0000000000000000e+00" cType="1" res="-4.7522289678454399e-03" rms="4.2420583963394165e-01" purity="4.5718762278556824e-01" nType="-99"/>
          <Node pos="r" depth="2" NCoef="0" IVar="-1" Cut="0.0000000000000000e+00" cType="1" res="-3.3982455730438232e-02" rms="4.0962135791778564e-01" purity="2.6461362838745117e-01" nType="-99"/>
        </Node>
        <Node pos="r" depth="1" NCoef="0" IVar="2" Cut="8.7018124759197235e-02" cType="1" res="5.5357709527015686e-02" rms="3.9699119329452515e-01" purity="6.1948925256729126e-01" nType="0">
          <Node pos="l" depth="2" NCoef="0" IVar="-1" Cut="0.0000000000000000e+00" cType="1" res="2.2652681916952133e-02" rms="3.9343780279159546e-01" purity="7.0989930629730225e-01" nType="-99"/>
          <Node pos="r" depth="2" NCoef="0" IVar="-1" Cut="0.0000000000000000e+00" cType="1" res="-2.9009848833084106e-02" rms="3.6946231126785278e-01" purity="1.8718904256820679e-01" nType="-99"/>
        </Node>
      </Node>
    </BinaryTree>
    <BinaryTree type="DecisionTree" boostWeight="1.0000000000000000e+00" itree="25">
      <Node pos="s" depth="0" NCoef="0" IVar="5" Cut="9.2302751541137695e+00" cType="1" res="2.5342073058709502e-04" rms="4.1471391916275024e-01" purity="5.0548404455184937e-01" nType="0">
        <Node pos="l" depth="1" NCoef="0" IVar="4" Cut="7.8072899580001831e-01" cType="1" res="4.2405251413583755e-02" rms="4.2239391803741455e-01" purity="6.4786797761917114e-01" nType="0">
          <Node pos="l" depth="2" NCoef="0" IVar="-1" Cut="0.0000000000000000e+00" cType="1" res="2.7781415730714798e-02" rms="3.9323028922080994e-01" purity="7.4515712261199951e-01" nType="-99"/>
          <Node pos="r" depth="2" NCoef="0" IVar="-1" Cut="0.0000000000000000e+00" cType="1" res="-4.3790368363261223e-03" rms="4.3615499138832092e-01" purity="5.6612712144851685e-01" nType="-99"/>
        </Node>
        <Node pos="r" depth="1" NCoef="0" IVar="4" Cut="3.7655225396156311e-01" cType="1" res="-6.0970675200223923e-02" rms="3.9537405967712402e-01" purity="2.9867637157440186e-01" nType="0">
          <Node pos="l" depth="2" NCoef="0" IVar="-1" Cut="0.0000000000000000e+00" cType="1" res="-8.1007210537791252e-03" rms="3.9000278711318970e-01" purity="3.0041924118995667e-01" nType="-99"/>
          <Node pos="r" depth="2" NCoef="0" IVar="-1" Cut="0.0000000000000000e+00" cType="1" res="-4.0573477745056152e-02" rms="3.9520952105522156e-01" purity="2.9315042495727539e-01" nType="-99"/>
        </Node>
      </Node>
    </BinaryTree>
    <BinaryTree type="DecisionTree" boostWeight="1.0000000000000000e+00" itree="26">
      <Node pos="s" depth="0" NCoef="0" IVar="1" Cut="3.7083528041839600e+00" cType="1" res="-6.3005480915307999e-03" rms="4.0581345558166504e-01" purity="4.9142137169837952e-01" nType="0">
        <Node pos="l" depth="1" NCoef="0" IVar="3" Cut="2.2844134271144867e-01" cType="1" res="-8.8709197938442230e-02" rms="4.0723696351051331e-01" purity="2.9907581210136414e-01" nType="0">
          <Node pos="l" depth="2" NCoef="0" IVar="-1" Cut="0.0000000000000000e+00" cType="1" res="-1.1255865916609764e-02" rms="4.1503855586051941e-01" purity="3.7184444069862366e-01" nType="-99"/>
          <Node pos="r" depth="2" NCoef="0" IVar="-1" Cut="0.0000000000000000e+00" cType="1" res="-3.3876407891511917e-02" rms="3.9311239123344421e-01" purity="2.1820056438446045e-01" nType="-99"/>
        </Node>
        <Node pos="r" depth="1" NCoef="0" IVar="2" Cut="1.0182971507310867e-01" cType="1" res="2.7033774182200432e-02" rms="4.0044748783111572e-01" purity="5.6922519207000732e-01" nType="0">
          <Node pos="l" depth="2" NCoef="0" IVar="-1" Cut="0.0000000000000000e+00" cType="1" res="1.2723525054752827e-02" rms="4.0448498725891113e-01" purity="6.4474278688430786e-01" nType="-99"/>
          <Node pos="r" depth="2" NCoef="0" IVar="-1" Cut="0.0000000000000000e+00" cType="1" res="-2.7240574359893799e-02" rms="3.5229715704917908e-01" purity="1.6798891127109528e-01" nType="-99"/>
        </Node>
      </Node>
    </BinaryTree>
    <BinaryTree type="DecisionTree" boostWeight="1.0000000000000000e+00" itree="27">
      <Node pos="s" depth="0" NCoef="0" IVar="2" Cut="2.2205416113138199e-02" cType="1" res="4.3884348124265671e-03" rms="4.0241298079490662e-01" purity="5.0372511148452759e-01" nType="0">
        <Node pos="l" depth="1" NCoef="0" IVar="5" Cut="1.8217506408691406e+01" cType="1" res="8.2640722393989563e-02" rms="3.6733338236808777e-01" purity="7.7052986621856689e-01" nType="0">
          <Node pos="l" depth="2" NCoef="0" IVar="-1" Cut="0.0000000000000000e+00" cType="1" res="2.7567880228161812e-02" rms="3.4722396731376648e-01" purity="8.3069223165512085e-01" nType="-99"/>
          <Node pos="r" depth="2" NCoef="0" IVar="-1" Cut="0.0000000000000000e+00" cType="1" res="-1.4957695268094540e-02" rms="4.6283245086669922e-01" purity="3.2950693368911743e-01" nType="-99"/>
        </Node>
        <Node pos="r" depth="1" NCoef="0" IVar="4" Cut="9.7673892974853516e-01" cType="1" res="-4.0820378810167313e-02" rms="4.1467437148094177e-01" purity="3.4958356618881226e-01" nType="0">
          <Node pos="l" depth="2" NCoef="0" IVar="-1" Cut="0.0000000000000000e+00" cType="1" res="-5.1989560015499592e-03" rms="4.1304072737693787e-01" purity="3.6153766512870789e-01" nType="-99"/>
          <Node pos="r" depth="2" NCoef="0" IVar="-1" Cut="0.0000000000000000e+00" cType="1" res="-2.8971165418624878e-02" rms="4.1039529442787170e-01" purity="2.9980009794235229e-01" nType="-99"/>
        </Node>
      </Node>
    </BinaryTree>
    <BinaryTree type="DecisionTree" boostWeight="1.0000000000000000e+00" itree="28">
      <Node pos="s" depth="0" NCoef="0" IVar="5" Cut="8.5716857910156250e+00" cType="1" res="-1.0073652490973473e-02" rms="4.0444853901863098e-01" purity="4.8843362927436829e-01" nType="0">
        <Node pos="l" depth="1" NCoef="0" IVar="4" Cut="1.0451486110687256e+00" cType="1" res="3.4802798181772232e-02" rms="4.1886797547340393e-01" purity="6.3712674379348755e-01" nType="0">
          <Node pos="l" depth="2" NCoef="0" IVar="-1" Cut="0.0000000000000000e+00" cType="1" res="1.5094869770109653e-02" rms="4.1080063581466675e-01" purity="6.8990737199783325e-01" nType="-99"/>
          <Node pos="r" depth="2" NCoef="0" IVar="-1" Cut="0.0000000000000000e+00" cType="1" res="-2.1240040659904480e-02" rms="4.3365553021430969e-01" purity="3.8204196095466614e-01" nType="-99"/>
        </Node>
        <Node pos="r" depth="1" NCoef="0" IVar="4" Cut="5.9871399402618408e-01" cType="1" res="-6.7929677665233612e-02" rms="3.7726584076881409e-01" purity="2.9673412442207336e-01" nType="0">
          <Node pos="l" depth="2" NCoef="0" IVar="-1" Cut="0.0000000000000000e+00" cType="1" res="-1.4944944530725479e-02" rms="3.7919068336486816e-01" purity="3.0958163738250732e-01" nType="-99"/>
          <Node pos="r" depth="2" NCoef="0" IVar="-1" Cut="0.0000000000000000e+00" cType="1" res="-5.8571416884660721e-02" rms="3.1889587640762329e-01" purity="1.5733219683170319e-01" nType="-99"/>
        </Node>
      </Node>
    </BinaryTree>
    <BinaryTree type="DecisionTree" boostWeight="1.0000000000000000e+00" itree="29">
      <Node pos="s" depth="0" NCoef="0" IVar="0" Cut="9.8240386962890625e+02" cType="1" res="-1.4872963540256023e-02" rms="4.0984278917312622e-01" purity="4.8658829927444458e-01" nType="0">
        <Node pos="l" depth="1" NCoef="0" IVar="3" Cut="4.2589628696441650e-01" cType="1" res="-8.7149314582347870e-02" rms="4.0800416469573975e-01" purity="3.2274708151817322e-01" nType="0">
          <Node pos="l" depth="2" NCoef="0" IVar="-1" Cut="0.0000000000000000e+00" cType="1" res="-1.8496764823794365e-02" rms="4.1451299190521240e-01" purity="3.4553432464599609e-01" nType="-99"/>
          <Node pos="r" depth="2" NCoef="0" IVar="-1" Cut="0.0000000000000000e+00" cType="1" res="-5.4470065981149673e-02" rms="3.1730467081069946e-01" purity="1.2561897933483124e-01" nType="-99"/>
        </Node>
        <Node pos="r" depth="1" NCoef="0" IVar="3" Cut="1.6046464443206787e-01" cType="1" res="1.8852993845939636e-02" rms="4.0632221102714539e-01" purity="5.6304067373275757e-01" nType="0">
          <Node pos="l" depth="2" NCoef="0" IVar="-1" Cut="0.0000000000000000e+00" cType="1" res="1.7736842855811119e-02" rms="3.9091461896896362e-01" purity="6.4629268646240234e-01" nType="-99"/>
          <Node pos="r" depth="2" NCoef="0" IVar="-1" Cut="0.0000000000000000e+00" cType="1" res="-7.9993633553385735e-03" rms="4.1580009460449219e-01" purity="4.7629296779632568e-01" nType="-99"/>
        </Node>
      </Node>
    </BinaryTree>
    <BinaryTree type="DecisionTree" boostWeight="1.0000000000000000e+00" itree="30">
      <Node pos="s" depth="0" NCoef="0" IVar="2" Cut="2.4060610681772232e-02" cType="1" res="-8.8862944394350052e-03" rms="4.0747734904289246e-01" purity="4.9056494235992432e-01" nType="0">
        <Node pos="l" depth="1" NCoef="0" IVar="5" Cut="6.0074462890625000e+00" cType="1" res="5.1264885812997818e-02" rms="3.8763123750686646e-01" purity="7.4708330631256104e-01" nType="0">
          <Node pos="l" depth="2" NCoef="0" IVar="-1" Cut="0.0000000000000000e+00" cType="1" res="3.0491696670651436e-02" rms="3.1646728515625000e-01" purity="8.6314523220062256e-01" nType="-99"/>
          <Node pos="r" depth="2" NCoef="0" IVar="-1" Cut="0.0000000000000000e+00" cType="1" res="4.5762144145555794e-04" rms="4.3538585305213928e-01" purity="6.4400869607925415e-01" nType="-99"/>
        </Node>
        <Node pos="r" depth="1" NCoef="0" IVar="4" Cut="9.1027599573135376e-01" cType="1" res="-4.4719867408275604e-02" rms="4.1472730040550232e-01" purity="3.3775049448013306e-01" nType="0">
          <Node pos="l" depth="2" NCoef="0" IVar="-1" Cut="0.0000000000000000e+00" cType="1" res="-5.2765440195798874e-03" rms="4.0914636850357056e-01" purity="3.4766975045204163e-01" nType="-99"/>
          <Node pos="r" depth="2" NCoef="0" IVar="-1" Cut="0.0000000000000000e+00" cType="1" res="-2.7199273928999901e-02" rms="4.2254224419593811e-01" purity="3.0803340673446655e-01" nType="-99"/>
        </Node>
      </Node>
    </BinaryTree>
    <BinaryTree type="DecisionTree" boostWeight="1.0000000000000000e+00" itree="31">
      <Node pos="s" depth="0" NCoef="0" IVar="2" Cut="9.6290707588195801e-02" cType="1" res="-1.7431655433028936e-03" rms="4.0335896611213684e-01" purity="4.9763748049736023e-01" nType="0">
        <Node pos="l" depth="1" NCoef="0" IVar="5" Cut="2.1397649765014648e+01" cType="1" res="1.8390659242868423e-02" rms="4.1487136483192444e-01" purity="5.7225316762924194e-01" nType="0">
          <Node pos="l" depth="2" NCoef="0" IVar="-1" Cut="0.0000000000000000e+00" cType="1" res="9.4975251704454422e-03" rms="4.2541643977165222e-01" purity="6.4053291082382202e-01" nType="-99"/>
          <Node pos="r" depth="2" NCoef="0" IVar="-1" Cut="0.0000000000000000e+00" cType="1" res="-3.5509735345840454e-02" rms="3.0354231595993042e-01" purity="1.1371731013059616e-01" nType="-99"/>
        </Node>
        <Node pos="r" depth="1" NCoef="0" IVar="4" Cut="8.6526995897293091e-01" cType="1" res="-9.6696957945823669e-02" rms="3.2763624191284180e-01" purity="1.4574007689952850e-01" nType="0">
          <Node pos="l" depth="2" NCoef="0" IVar="-1" Cut="0.0000000000000000e+00" cType="1" res="-2.2693160921335220e-02" rms="3.2816341519355774e-01" purity="1.5292620658874512e-01" nType="-99"/>
          <Node pos="r" depth="2" NCoef="0" IVar="-1" Cut="0.0000000000000000e+00" cType="1" res="-3.8561824709177017e-02" rms="3.2015344500541687e-01" purity="1.2970064580440521e-01" nType="-99"/>
        </Node>
      </Node>
    </BinaryTree>
    <BinaryTree type="DecisionTree" boostWeight="1.0000000000000000e+00" itree="32">
      <Node pos="s" depth="0" NCoef="0" IVar="3" Cut="3.4564906358718872e-01" cType="1" res="-5.3327870555222034e-03" rms="4.0384599566459656e-01" purity="4.8662155866622925e-01" nType="0">
        <Node pos="l" depth="1" NCoef="0" IVar="5" Cut="5.5927066802978516e+00" cType="1" res="1.5629466623067856e-02" rms="3.9915722608566284e-01" purity="5.2834200859069824e-01" nType="0">
          <Node pos="l" depth="2" NCoef="0" IVar="-1" Cut="0.0000000000000000e+00" cType="1" res="1.9687073305249214e-02" rms="3.8946530222892761e-01" purity="7.1321046352386475e-01" nType="-99"/>
          <Node pos="r" depth="2" NCoef="0" IVar="-1" Cut="0.0000000000000000e+00" cType="1" res="-7.4580628424882889e-03" rms="4.0014892816543579e-01" purity="3.9957129955291748e-01" nType="-99"/>
        </Node>
        <Node pos="r" depth="1" NCoef="0" IVar="1" Cut="3.6832463741302490e+00" cType="1" res="-1.2151533365249634e-01" rms="4.0990948677062988e-01" purity="2.5538793206214905e-01" nType="0">
          <Node pos="l" depth="2" NCoef="0" IVar="-1" Cut="0.0000000000000000e+00" cType="1" res="-1.2435900978744030e-02" rms="4.0858936309814453e-01" purity="2.6360768079757690e-01" nType="-99"/>
          <Node pos="r" depth="2" NCoef="0" IVar="-1" Cut="0.0000000000000000e+00" cType="1" res="-4.2888358235359192e-02" rms="4.0437814593315125e-01" purity="2.5062373280525208e-01" nType="-99"/>
        </Node>
      </Node>
    </BinaryTree>
    <BinaryTree type="DecisionTree" boostWeight="1.0000000000000000e+00" itree="33">
      <Node pos="s" depth="0" NCoef="0" IVar="3" Cut="1.1111151427030563e-01" cType="1" res="-1.8205326341558248e-04" rms="4.0476971864700317e-01" purity="4.9895763397216797e-01" nType="0">
        <Node pos="l" depth="1" NCoef="0" IVar="1" Cut="4.4386382102966309e+00" cType="1" res="5.7368494570255280e-02" rms="4.0080437064170837e-01" purity="6.0553967952728271e-01" nType="0">
          <Node pos="l" depth="2" NCoef="0" IVar="-1" Cut="0.0000000000000000e+00" cType="1" res="3.5414940793998539e-04" rms="4.3281579017639160e-01" purity="4.8717284202575684e-01" nType="-99"/>
          <Node pos="r" depth="2" NCoef="0" IVar="-1" Cut="0.0000000000000000e+00" cType="1" res="3.1270124018192291e-02" rms="3.5842227935791016e-01" purity="7.2136193513870239e-01" nType="-99"/>
        </Node>
        <Node pos="r" depth="1" NCoef="0" IVar="5" Cut="5.1194353103637695e+00" cType="1" res="-2.9497848823666573e-02" rms="4.0363246202468872e-01" purity="4.4466552138328552e-01" nType="0">
          <Node pos="l" depth="2" NCoef="0" IVar="-1" Cut="0.0000000000000000e+00" cType="1" res="8.3476835861802101e-03" rms="4.0980502963066101e-01" purity="6.2674564123153687e-01" nType="-99"/>
          <Node pos="r" depth="2" NCoef="0" IVar="-1" Cut="0.0000000000000000e+00" cType="1" res="-1.8214644864201546e-02" rms="3.9544188976287842e-01" purity="3.3933293819427490e-01" nType="-99"/>
        </Node>
      </Node>
    </BinaryTree>
    <BinaryTree type="DecisionTree" boostWeight="1.0000000000000000e+00" itree="34">
      <Node pos="s" depth="0" NCoef="0" IVar="2" Cut="2.0369186997413635e-02" cType="1" res="7.3953694663941860e-03" rms="4.0298092365264893e-01" purity="5.0791472196578979e-01" nType="0">
        <Node pos="l" depth="1" NCoef="0" IVar="1" Cut="3.3002085685729980e+00" cType="1" res="6.6694855690002441e-02" rms="3.7177759408950806e-01" purity="7.6325529813766479e-01" nType="0">
          <Node pos="l" depth="2" NCoef="0" IVar="-1" Cut="0.0000000000000000e+00" cType="1" res="-6.7970636300742626e-03" rms="4.6599274873733521e-01" purity="5.1167446374893188e-01" nType="-99"/>
          <Node pos="r" depth="2" NCoef="0" IVar="-1" Cut="0.0000000000000000e+00" cType="1" res="2.4983726441860199e-02" rms="3.4551304578781128e-01" purity="8.1580883264541626e-01" nType="-99"/>
        </Node>
        <Node pos="r" depth="1" NCoef="0" IVar="4" Cut="1.0877616405487061e+00" cType="1" res="-2.3621138185262680e-02" rms="4.1501453518867493e-01" purity="3.7435922026634216e-01" nType="0">
          <Node pos="l" depth="2" NCoef="0" IVar="-1" Cut="0.0000000000000000e+00" cType="1" res="-1.9370525842532516e-03" rms="4.1840276122093201e-01" purity="3.9777573943138123e-01" nType="-99"/>
          <Node pos="r" depth="2" NCoef="0" IVar="-1" Cut="0.0000000000000000e+00" cType="1" res="-3.1009888276457787e-02" rms="3.7753415107727051e-01" purity="2.2734026610851288e-01" nType="-99"/>
        </Node>
      </Node>
    </BinaryTree>
    <BinaryTree type="DecisionTree" boostWeight="1.0000000000000000e+00" itree="35">
      <Node pos="s" depth="0" NCoef="0" IVar="0" Cut="2.5579680175781250e+03" cType="1" res="5.1592220552265644e-03" rms="4.0720531344413757e-01" purity="5.1023411750793457e-01" nType="0">
        <Node pos="l" depth="1" NCoef="0" IVar="4" Cut="4.4208932667970657e-02" cType="1" res="-5.4809087887406349e-03" rms="4.0903788805007935e-01" purity="4.8575225472450256e-01" nType="0">
          <Node pos="l" depth="2" NCoef="0" IVar="-1" Cut="0.0000000000000000e+00" cType="1" res="-3.5201258957386017e-02" rms="3.0397951602935791e-01" purity="1.1441214382648468e-01" nType="-99"/>
          <Node pos="r" depth="2" NCoef="0" IVar="-1" Cut="0.0000000000000000e+00" cType="1" res="2.2808336652815342e-03" rms="4.2073780298233032e-01" purity="5.4177165031433105e-01" nType="-99"/>
        </Node>
        <Node pos="r" depth="1" NCoef="0" IVar="0" Cut="2.9770561523437500e+03" cType="1" res="1.2076045572757721e-01" rms="3.6738389730453491e-01" purity="7.7622091770172119e-01" nType="0">
          <Node pos="l" depth="2" NCoef="0" IVar="-1" Cut="0.0000000000000000e+00" cType="1" res="5.6305076926946640e-02" rms="3.4415206313133240e-01" purity="8.3370423316955566e-01" nType="-99"/>
          <Node pos="r" depth="2" NCoef="0" IVar="-1" Cut="0.0000000000000000e+00" cType="1" res="1.6116125509142876e-02" rms="3.7271851301193237e-01" purity="7.2900158166885376e-01" nType="-99"/>
        </Node>
      </Node>
    </BinaryTree>
    <BinaryTree type="DecisionTree" boostWeight="1.0000000000000000e+00" itree="36">
      <Node pos="s" depth="0" NCoef="0" IVar="1" Cut="3.6150245666503906e+00" cType="1" res="6.7153172567486763e-03" rms="3.9834216237068176e-01" purity="5.0830078125000000e-01" nType="0">
        <Node pos="l" depth="1" NCoef="0" IVar="4" Cut="7.7700895071029663e-01" cType="1" res="-7.1911431849002838e-02" rms="4.1703146696090698e-01" purity="3.2015624642372131e-01" nType="0">
          <Node pos="l" depth="2" NCoef="0" IVar="-1" Cut="0.0000000000000000e+00" cType="1" res="-1.0135206393897533e-02" rms="4.0865287184715271e-01" purity="3.1710201501846313e-01" nType="-99"/>
          <Node pos="r" depth="2" NCoef="0" IVar="-1" Cut="0.0000000000000000e+00" cType="1" res="-3.1935881823301315e-02" rms="4.2494037747383118e-01" purity="3.2611814141273499e-01" nType="-99"/>
        </Node>
        <Node pos="r" depth="1" NCoef="0" IVar="4" Cut="1.0427446365356445e+00" cType="1" res="3.2490082085132599e-02" rms="3.8857445120811462e-01" purity="5.6997674703598022e-01" nType="0">
          <Node pos="l" depth="2" NCoef="0" IVar="-1" Cut="0.0000000000000000e+00" cType="1" res="1.4047418721020222e-02" rms="3.8073423504829407e-01" purity="6.0156881809234619e-01" nType="-99"/>
          <Node pos="r" depth="2" NCoef="0" IVar="-1" Cut="0.0000000000000000e+00" cType="1" res="-2.5300517678260803e-02" rms="4.1790559887886047e-01" purity="3.3931055665016174e-01" nType="-99"/>
        </Node>
      </Node>
    </BinaryTree>
    <BinaryTree type="DecisionTree" boostWeight="1.0000000000000000e+00" itree="37">
      <Node pos="s" depth="0" NCoef="0" IVar="5" Cut="2.1397611618041992e+01" cType="1" res="7.9828593879938126e-03" rms="4.0365061163902283e-01" purity="5.0842046737670898e-01" nType="0">
        <Node pos="l" depth="1" NCoef="0" IVar="3" Cut="2.6542744040489197e-01" cType="1" res="2.1870406344532967e-02" rms="4.1870856285095215e-01" purity="5.7282936573028564e-01" nType="0">
          <Node pos="l" depth="2" NCoef="0" IVar="-1" Cut="0.0000000000000000e+00" cType="1" res="1.1298316530883312e-02" rms="4.0789535641670227e-01" purity="6.2557816505432129e-01" nType="-99"/>
          <Node pos="r" depth="2" NCoef="0" IVar="-1" Cut="0.0000000000000000e+00" cType="1" res="-8.6737526580691338e-03" rms="4.4072952866554260e-01" purity="4.3475344777107239e-01" nType="-99"/>
        </Node>
        <Node pos="r" depth="1" NCoef="0" IVar="5" Cut="2.8797645568847656e+01" cType="1" res="-8.0120414495468140e-02" rms="2.7457138895988464e-01" purity="9.9806919693946838e-02" nType="0">
          <Node pos="l" depth="2" NCoef="0" IVar="-1" Cut="0.0000000000000000e+00" cType="1" res="-1.7480587586760521e-02" rms="3.1991761922836304e-01" purity="1.3918375968933105e-01" nType="-99"/>
          <Node pos="r" depth="2" NCoef="0" IVar="-1" Cut="0.0000000000000000e+00" cType="1" res="-4.4789854437112808e-02" rms="2.0544736087322235e-01" purity="5.4878413677215576e-02" nType="-99"/>
        </Node>
      </Node>
    </BinaryTree>
    <BinaryTree type="DecisionTree" boostWeight="1.0000000000000000e+00" itree="38">
      <Node pos="s" depth="0" NCoef="0" IVar="4" Cut="1.0212244987487793e+00" cType="1" res="-1.1940749362111092e-02" rms="3.9677134156227112e-01" purity="4.8913341760635376e-01" nType="0">
        <Node pos="l" depth="1" NCoef="0" IVar="5" Cut="2.3905838012695312e+01" cType="1" res="3.9981775917112827e-03" rms="3.9595574140548706e-01" purity="5.1679438352584839e-01" nType="0">
          <Node pos="l" depth="2" NCoef="0" IVar="-1" Cut="0.0000000000000000e+00" cType="1" res="4.7055291943252087e-03" rms="4.1050311923027039e-01" purity="5.8055669069290161e-01" nType="-99"/>
          <Node pos="r" depth="2" NCoef="0" IVar="-1" Cut="0.0000000000000000e+00" cType="1" res="-3.5545449703931808e-02" rms="2.5564226508140564e-01" purity="7.7621296048164368e-02" nType="-99"/>
        </Node>
        <Node pos="r" depth="1" NCoef="0" IVar="1" Cut="4.8092646598815918e+00" cType="1" res="-1.1833380907773972e-01" rms="3.8565257191658020e-01" purity="3.0449521541595459e-01" nType="0">
          <Node pos="l" depth="2" NCoef="0" IVar="-1" Cut="0.0000000000000000e+00" cType="1" res="-3.9450328797101974e-02" rms="3.7577083706855774e-01" purity="2.3649038374423981e-01" nType="-99"/>
          <Node pos="r" depth="2" NCoef="0" IVar="-1" Cut="0.0000000000000000e+00" cType="1" res="-7.6756491325795650e-03" rms="3.9423435926437378e-01" purity="4.6427819132804871e-01" nType="-99"/>
        </Node>
      </Node>
    </BinaryTree>
    <BinaryTree type="DecisionTree" boostWeight="1.0000000000000000e+00" itree="39">
      <Node pos="s" depth="0" NCoef="0" IVar="5" Cut="9.2319984436035156e+00" cType="1" res="-4.3933447450399399e-03" rms="4.0258628129959106e-01" purity="5.0297003984451294e-01" nType="0">
        <Node pos="l" depth="1" NCoef="0" IVar="4" Cut="9.1310250759124756e-01" cType="1" res="2.2773439064621925e-02" rms="4.1032683849334717e-01" purity="6.4236319065093994e-01" nType="0">
          <Node pos="l" depth="2" NCoef="0" IVar="-1" Cut="0.0000000000000000e+00" cType="1" res="1.4239263720810413e-02" rms="4.0327283740043640e-01" purity="7.1490150690078735e-01" nType="-99"/>
          <Node pos="r" depth="2" NCoef="0" IVar="-1" Cut="0.0000000000000000e+00" cType="1" res="-9.5281191170215607e-03" rms="4.1697376966476440e-01" purity="5.0195461511611938e-01" nType="-99"/>
        </Node>
        <Node pos="r" depth="1" NCoef="0" IVar="4" Cut="3.7707421183586121e-01" cType="1" res="-4.4102881103754044e-02" rms="3.8758552074432373e-01" purity="2.9921984672546387e-01" nType="0">
          <Node pos="l" depth="2" NCoef="0" IVar="-1" Cut="0.0000000000000000e+00" cType="1" res="-4.3238718062639236e-03" rms="3.7715166807174683e-01" purity="3.0112481117248535e-01" nType="-99"/>
          <Node pos="r" depth="2" NCoef="0" IVar="-1" Cut="0.0000000000000000e+00" cType="1" res="-3.8237310945987701e-02" rms="4.0494537353515625e-01" purity="2.9270431399345398e-01" nType="-99"/>
        </Node>
      </Node>
    </BinaryTree>
    <BinaryTree type="DecisionTree" boostWeight="1.0000000000000000e+00" itree="40">
      <Node pos="s" depth="0" NCoef="0" IVar="1" Cut="3.2113304138183594e+00" cType="1" res="4.5924251899123192e-03" rms="4.0407347679138184e-01" purity="5.0249618291854858e-01" nType="0">
        <Node pos="l" depth="1" NCoef="0" IVar="1" Cut="2.4336233139038086e+00" cType="1" res="-8.7845824658870697e-02" rms="4.2067790031433105e-01" purity="2.9729828238487244e-01" nType="0">
          <Node pos="l" depth="2" NCoef="0" IVar="-1" Cut="0.0000000000000000e+00" cType="1" res="-4.9899384379386902e-02" rms="4.2350640892982483e-01" purity="1.9278787076473236e-01" nType="-99"/>
          <Node pos="r" depth="2" NCoef="0" IVar="-1" Cut="0.0000000000000000e+00" cType="1" res="-1.4784610830247402e-02" rms="4.1498407721519470e-01" purity="3.2623204588890076e-01" nType="-99"/>
        </Node>
        <Node pos="r" depth="1" NCoef="0" IVar="5" Cut="8.0782127380371094e+00" cType="1" res="2.1071262657642365e-02" rms="3.9879724383354187e-01" purity="5.3907650709152222e-01" nType="0">
          <Node pos="l" depth="2" NCoef="0" IVar="-1" Cut="0.0000000000000000e+00" cType="1" res="1.4692994765937328e-02" rms="3.9874291419982910e-01" purity="6.9571787118911743e-01" nType="-99"/>
          <Node pos="r" depth="2" NCoef="0" IVar="-1" Cut="0.0000000000000000e+00" cType="1" res="-5.1856511272490025e-03" rms="3.9522689580917358e-01" purity="3.5993924736976624e-01" nType="-99"/>
        </Node>
      </Node>
    </BinaryTree>
    <BinaryTree type="DecisionTree" boostWeight="1.0000000000000000e+00" itree="41">
      <Node pos="s" depth="0" NCoef="0" IVar="0" Cut="9.9654821777343750e+02" cType="1" res="5.3353826515376568e-03" rms="4.0228393673896790e-01" purity="5.0705391168594360e-01" nType="0">
        <Node pos="l" depth="1" NCoef="0" IVar="3" Cut="4.9373470246791840e-02" cType="1" res="-4.4491354376077652e-02" rms="4.1636455059051514e-01" purity="3.5892724990844727e-01" nType="0">
          <Node pos="l" depth="2" NCoef="0" IVar="-1" Cut="0.0000000000000000e+00" cType="1" res="-3.1841393560171127e-02" rms="4.5771577954292297e-01" purity="3.5600024461746216e-01" nType="-99"/>
          <Node pos="r" depth="2" NCoef="0" IVar="-1" Cut="0.0000000000000000e+00" cType="1" res="-8.6932564154267311e-03" rms="4.0770193934440613e-01" purity="3.5941082239151001e-01" nType="-99"/>
        </Node>
        <Node pos="r" depth="1" NCoef="0" IVar="5" Cut="1.0068359375000000e+01" cType="1" res="3.0827937647700310e-02" rms="3.9244711399078369e-01" purity="5.8283913135528564e-01" nType="0">
          <Node pos="l" depth="2" NCoef="0" IVar="-1" Cut="0.0000000000000000e+00" cType="1" res="1.7614625394344330e-02" rms="3.8055226206779480e-01" purity="7.3140788078308105e-01" nType="-99"/>
          <Node pos="r" depth="2" NCoef="0" IVar="-1" Cut="0.0000000000000000e+00" cType="1" res="-8.2630747929215431e-03" rms="4.0536022186279297e-01" purity="3.2597085833549500e-01" nType="-99"/>
        </Node>
      </Node>
    </BinaryTree>
    <BinaryTree type="DecisionTree" boostWeight="1.0000000000000000e+00" itree="42">
      <Node pos="s" depth="0" NCoef="0" IVar="5" Cut="2.3798868656158447e+00" cType="1" res="9.7768905106931925e-05" rms="3.9844927191734314e-01" purity="5.0211334228515625e-01" nType="0">
        <Node pos="l" depth="1" NCoef="0" IVar="1" Cut="4.8274908065795898e+00" cType="1" res="8.5524067282676697e-02" rms="3.8539469242095947e-01" purity="7.1514284610748291e-01" nType="0">
          <Node pos="l" depth="2" NCoef="0" IVar="-1" Cut="0.0000000000000000e+00" cType="1" res="8.7385922670364380e-03" rms="4.3857741355895996e-01" purity="6.1185210943222046e-01" nType="-99"/>
          <Node pos="r" depth="2" NCoef="0" IVar="-1" Cut="0.0000000000000000e+00" cType="1" res="5.7250645011663437e-02" rms="2.0631204545497894e-01" purity="9.2831683158874512e-01" nType="-99"/>
        </Node>
        <Node pos="r" depth="1" NCoef="0" IVar="4" Cut="9.0998131036758423e-01" cType="1" res="-1.6847155988216400e-02" rms="3.9881938695907593e-01" purity="4.5985740423202515e-01" nType="0">
          <Node pos="l" depth="2" NCoef="0" IVar="-1" Cut="0.0000000000000000e+00" cType="1" res="-6.5848720259964466e-04" rms="3.9742565155029297e-01" purity="4.8667678236961365e-01" nType="-99"/>
          <Node pos="r" depth="2" NCoef="0" IVar="-1" Cut="0.0000000000000000e+00" cType="1" res="-3.6675851792097092e-02" rms="3.8941913843154907e-01" purity="2.3268139362335205e-01" nType="-99"/>
        </Node>
      </Node>
    </BinaryTree>
    <BinaryTree type="DecisionTree" boostWeight="1.0000000000000000e+00" itree="43">
      <Node pos="s" depth="0" NCoef="0" IVar="2" Cut="7.4057974852621555e-03" cType="1" res="-1.1609338689595461e-03" rms="4.0270537137985229e-01" purity="5.0073623657226562e-01" nType="0">
        <Node pos="l" depth="1" NCoef="0" IVar="5" Cut="4.7621192932128906e+00" cType="1" res="9.4086684286594391e-02" rms="3.6641868948936462e-01" purity="8.0973714590072632e-01" nType="0">
          <Node pos="l" depth="2" NCoef="0" IVar="-1" Cut="0.0000000000000000e+00" cType="1" res="-1.8828641623258591e-04" rms="3.7838411331176758e-01" purity="7.9500138759613037e-01" nType="-99"/>
          <Node pos="r" depth="2" NCoef="0" IVar="-1" Cut="0.0000000000000000e+00" cType="1" res="4.4983331114053726e-02" rms="3.3858636021614075e-01" purity="8.2133787870407104e-01" nType="-99"/>
        </Node>
        <Node pos="r" depth="1" NCoef="0" IVar="5" Cut="2.1372283935546875e+01" cType="1" res="-1.1871889233589172e-02" rms="4.0518534183502197e-01" purity="4.6598789095878601e-01" nType="0">
          <Node pos="l" depth="2" NCoef="0" IVar="-1" Cut="0.0000000000000000e+00" cType="1" res="1.0307753836968914e-04" rms="4.2547225952148438e-01" purity="5.3119057416915894e-01" nType="-99"/>
          <Node pos="r" depth="2" NCoef="0" IVar="-1" Cut="0.0000000000000000e+00" cType="1" res="-3.7318546324968338e-02" rms="2.3045234382152557e-01" purity="6.2186330556869507e-02" nType="-99"/>
        </Node>
      </Node>
    </BinaryTree>
    <BinaryTree type="DecisionTree" boostWeight="1.0000000000000000e+00" itree="44">
      <Node pos="s" depth="0" NCoef="0" IVar="2" Cut="1.2027934193611145e-01" cType="1" res="-2.6994575746357441e-03" rms="4.0129277110099792e-01" purity="4.9675121903419495e-01" nType="0">
        <Node pos="l" depth="1" NCoef="0" IVar="5" Cut="2.2586330413818359e+01" cType="1" res="5.7451627217233181e-03" rms="4.0695378184318542e-01" purity="5.3132039308547974e-01" nType="0">
          <Node pos="l" depth="2" NCoef="0" IVar="-1" Cut="0.0000000000000000e+00" cType="1" res="4.1195251978933811e-03" rms="4.2188057303428650e-01" purity="5.9458142518997192e-01" nType="-99"/>
          <Node pos="r" depth="2" NCoef="0" IVar="-1" Cut="0.0000000000000000e+00" cType="1" res="-2.6856580749154091e-02" rms="2.7061745524406433e-01" purity="8.7406061589717865e-02" nType="-99"/>
        </Node>
        <Node pos="r" depth="1" NCoef="0" IVar="-1" Cut="0.0000000000000000e+00" cType="1" res="-2.8094541281461716e-02" rms="3.2416588068008423e-01" purity="1.3772445917129517e-01" nType="-99"/>
      </Node>
    </BinaryTree>
    <BinaryTree type="DecisionTree" boostWeight="1.0000000000000000e+00" itree="45">
      <Node pos="s" depth="0" NCoef="0" IVar="0" Cut="1.6628432617187500e+03" cType="1" res="-3.1391649972647429e-03" rms="3.9904174208641052e-01" purity="4.9508923292160034e-01" nType="0">
        <Node pos="l" depth="1" NCoef="0" IVar="2" Cut="1.4801895245909691e-02" cType="1" res="-2.2338746115565300e-02" rms="4.0539404749870300e-01" purity="4.3011802434921265e-01" nType="0">
          <Node pos="l" depth="2" NCoef="0" IVar="-1" Cut="0.0000000000000000e+00" cType="1" res="1.3822427950799465e-02" rms="3.7810289859771729e-01" purity="7.1840548515319824e-01" nType="-99"/>
          <Node pos="r" depth="2" NCoef="0" IVar="-1" Cut="0.0000000000000000e+00" cType="1" res="-1.1286774650216103e-02" rms="4.0992948412895203e-01" purity="3.5710242390632629e-01" nType="-99"/>
        </Node>
        <Node pos="r" depth="1" NCoef="0" IVar="2" Cut="7.7570959925651550e-02" cType="1" res="5.0997808575630188e-02" rms="3.7530711293220520e-01" purity="6.7828822135925293e-01" nType="0">
          <Node pos="l" depth="2" NCoef="0" IVar="-1" Cut="0.0000000000000000e+00" cType="1" res="1.9822265952825546e-02" rms="3.6739999055862427e-01" purity="7.6455813646316528e-01" nType="-99"/>
          <Node pos="r" depth="2" NCoef="0" IVar="-1" Cut="0.0000000000000000e+00" cType="1" res="-4.3444773182272911e-03" rms="4.0249657630920410e-01" purity="2.8680250048637390e-01" nType="-99"/>
        </Node>
      </Node>
    </BinaryTree>
    <BinaryTree type="DecisionTree" boostWeight="1.0000000000000000e+00" itree="46">
      <Node pos="s" depth="0" NCoef="0" IVar="1" Cut="4.9279880523681641e+00" cType="1" res="5.6654037907719612e-03" rms="3.9733177423477173e-01" purity="5.1061546802520752e-01" nType="0">
        <Node pos="l" depth="1" NCoef="0" IVar="3" Cut="2.5308310985565186e-01" cType="1" res="-1.3617274351418018e-02" rms="4.0652024745941162e-01" purity="4.3378660082817078e-01" nType="0">
          <Node pos="l" depth="2" NCoef="0" IVar="-1" Cut="0.0000000000000000e+00" cType="1" res="1.9660703837871552e-03" rms="3.9500284194946289e-01" purity="4.8804730176925659e-01" nType="-99"/>
          <Node pos="r" depth="2" NCoef="0" IVar="-1" Cut="0.0000000000000000e+00" cType="1" res="-1.4994488097727299e-02" rms="4.2499145865440369e-01" purity="3.2924002408981323e-01" nType="-99"/>
        </Node>
        <Node pos="r" depth="1" NCoef="0" IVar="4" Cut="9.9754738807678223e-01" cType="1" res="5.2345477044582367e-02" rms="3.7001720070838928e-01" purity="6.9660496711730957e-01" nType="0">
          <Node pos="l" depth="2" NCoef="0" IVar="-1" Cut="0.0000000000000000e+00" cType="1" res="2.2151639685034752e-02" rms="3.5826730728149414e-01" purity="7.2562634944915771e-01" nType="-99"/>
          <Node pos="r" depth="2" NCoef="0" IVar="-1" Cut="0.0000000000000000e+00" cType="1" res="-1.6617124900221825e-02" rms="4.1222882270812988e-01" purity="5.3304588794708252e-01" nType="-99"/>
        </Node>
      </Node>
    </BinaryTree>
    <BinaryTree type="DecisionTree" boostWeight="1.0000000000000000e+00" itree="47">
      <Node pos="s" depth="0" NCoef="0" IVar="5" Cut="8.0775365829467773e+00" cType="1" res="6.1304345726966858e-03" rms="3.9214646816253662e-01" purity="4.9755650758743286e-01" nType="0">
        <Node pos="l" depth="1" NCoef="0" IVar="3" Cut="3.5796827077865601e-01" cType="1" res="4.0073521435260773e-02" rms="4.0349301695823669e-01" purity="6.7688733339309692e-01" nType="0">
          <Node pos="l" depth="2" NCoef="0" IVar="-1" Cut="0.0000000000000000e+00" cType="1" res="1.6767930239439011e-02" rms="3.9103025197982788e-01" purity="7.2373837232589722e-01" nType="-99"/>
          <Node pos="r" depth="2" NCoef="0" IVar="-1" Cut="0.0000000000000000e+00" cType="1" res="-2.2006440907716751e-02" rms="4.5343947410583496e-01" purity="3.7725579738616943e-01" nType="-99"/>
        </Node>
        <Node pos="r" depth="1" NCoef="0" IVar="4" Cut="5.5453014373779297e-01" cType="1" res="-3.0023271217942238e-02" rms="3.7633609771728516e-01" purity="3.0654624104499817e-01" nType="0">
          <Node pos="l" depth="2" NCoef="0" IVar="-1" Cut="0.0000000000000000e+00" cType="1" res="-4.3803453445434570e-03" rms="3.7625080347061157e-01" purity="3.1722998619079590e-01" nType="-99"/>
          <Node pos="r" depth="2" NCoef="0" IVar="-1" Cut="0.0000000000000000e+00" cType="1" res="-4.1751693934202194e-02" rms="3.5330656170845032e-01" purity="2.2346551716327667e-01" nType="-99"/>
        </Node>
      </Node>
    </BinaryTree>
    <BinaryTree type="DecisionTree" boostWeight="1.0000000000000000e+00" itree="48">
      <Node pos="s" depth="0" NCoef="0" IVar="3" Cut="2.5306889414787292e-01" cType="1" res="-1.8867379054427147e-02" rms="4.0238270163536072e-01" purity="4.8897987604141235e-01" nType="0">
        <Node pos="l" depth="1" NCoef="0" IVar="1" Cut="3.2113304138183594e+00" cType="1" res="6.5141834784299135e-04" rms="3.9756304025650024e-01" purity="5.5217349529266357e-01" nType="0">
          <Node pos="l" depth="2" NCoef="0" IVar="-1" Cut="0.0000000000000000e+00" cType="1" res="-2.0731003955006599e-02" rms="4.0149179100990295e-01" purity="3.2178953289985657e-01" nType="-99"/>
          <Node pos="r" depth="2" NCoef="0" IVar="-1" Cut="0.0000000000000000e+00" cType="1" res="3.3670221455395222e-03" rms="3.9576396346092224e-01" purity="5.8400726318359375e-01" nType="-99"/>
        </Node>
        <Node pos="r" depth="1" NCoef="0" IVar="4" Cut="3.7719830870628357e-01" cType="1" res="-6.1846587806940079e-02" rms="4.0953052043914795e-01" purity="3.4983149170875549e-01" nType="0">
          <Node pos="l" depth="2" NCoef="0" IVar="-1" Cut="0.0000000000000000e+00" cType="1" res="-4.8289094120264053e-03" rms="3.3596482872962952e-01" purity="2.3813037574291229e-01" nType="-99"/>
          <Node pos="r" depth="2" NCoef="0" IVar="-1" Cut="0.0000000000000000e+00" cType="1" res="-2.1044567227363586e-02" rms="4.3864762783050537e-01" purity="4.0343135595321655e-01" nType="-99"/>
        </Node>
      </Node>
    </BinaryTree>
    <BinaryTree type="DecisionTree" boostWeight="1.0000000000000000e+00" itree="49">
      <Node pos="s" depth="0" NCoef="0" IVar="2" Cut="5.5543482303619385e-03" cType="1" res="5.3505338728427887e-03" rms="4.0231630206108093e-01" purity="5.0629770755767822e-01" nType="0">
        <Node pos="l" depth="1" NCoef="0" IVar="3" Cut="1.7916217446327209e-01" cType="1" res="1.3104672729969025e-01" rms="3.0667218565940857e-01" purity="8.6251217126846313e-01" nType="0">
          <Node pos="l" depth="2" NCoef="0" IVar="-1" Cut="0.0000000000000000e+00" cType="1" res="2.2477567195892334e-02" rms="3.3601149916648865e-01" purity="8.5214698314666748e-01" nType="-99"/>
          <Node pos="r" depth="2" NCoef="0" IVar="-1" Cut="0.0000000000000000e+00" cType="1" res="5.6833960115909576e-02" rms="2.4521715939044952e-01" purity="8.7503921985626221e-01" nType="-99"/>
        </Node>
        <Node pos="r" depth="1" NCoef="0" IVar="4" Cut="6.8837749958038330e-01" cType="1" res="-3.8038280326873064e-03" rms="4.0689375996589661e-01" purity="4.8035484552383423e-01" nType="0">
          <Node pos="l" depth="2" NCoef="0" IVar="-1" Cut="0.0000000000000000e+00" cType="1" res="6.6188704222440720e-03" rms="3.9501065015792847e-01" purity="4.4687139987945557e-01" nType="-99"/>
          <Node pos="r" depth="2" NCoef="0" IVar="-1" Cut="0.0000000000000000e+00" cType="1" res="-1.0795531794428825e-02" rms="4.2002570629119873e-01" purity="5.2639263868331909e-01" nType="-99"/>
        </Node>
      </Node>
    </BinaryTree>
    <BinaryTree type="DecisionTree" boostWeight="1.0000000000000000e+00" itree="50">
      <Node pos="s" depth="0" NCoef="0" IVar="0" Cut="8.3138946533203125e+02" cType="1" res="3.8334329146891832e-03" rms="3.9372935891151428e-01" purity="5.0380611419677734e-01" nType="0">
        <Node pos="l" depth="1" NCoef="0" IVar="0" Cut="8.0524285888671875e+02" cType="1" res="-1.2195152044296265e-01" rms="4.1302180290222168e-01" purity="2.7180308103561401e-01" nType="0">
          <Node pos="l" depth="2" NCoef="0" IVar="-1" Cut="0.0000000000000000e+00" cType="1" res="-4.6623647212982178e-02" rms="3.9575570821762085e-01" purity="2.1868067979812622e-01" nType="-99"/>
          <Node pos="r" depth="2" NCoef="0" IVar="-1" Cut="0.0000000000000000e+00" cType="1" res="6.3458709046244621e-03" rms="4.2806330323219299e-01" purity="4.2763301730155945e-01" nType="-99"/>
        </Node>
        <Node pos="r" depth="1" NCoef="0" IVar="1" Cut="5.2478566169738770e+00" cType="1" res="2.3473236709833145e-02" rms="3.8695806264877319e-01" purity="5.4003059864044189e-01" nType="0">
          <Node pos="l" depth="2" NCoef="0" IVar="-1" Cut="0.0000000000000000e+00" cType="1" res="8.4437534678727388e-04" rms="4.0417540073394775e-01" purity="4.7508376836776733e-01" nType="-99"/>
          <Node pos="r" depth="2" NCoef="0" IVar="-1" Cut="0.0000000000000000e+00" cType="1" res="2.8803467750549316e-02" rms="3.1392619013786316e-01" purity="7.5564467906951904e-01" nType="-99"/>
        </Node>
      </Node>
    </BinaryTree>
    <BinaryTree type="DecisionTree" boostWeight="1.0000000000000000e+00" itree="51">
      <Node pos="s" depth="0" NCoef="0" IVar="3" Cut="1.4813494682312012e-01" cType="1" res="-1.6382427886128426e-02" rms="4.0514507889747620e-01" purity="4.9043023586273193e-01" nType="0">
        <Node pos="l" depth="1" NCoef="0" IVar="0" Cut="2.2341992187500000e+03" cType="1" res="1.8590239807963371e-02" rms="3.8707351684570312e-01" purity="5.8710837364196777e-01" nType="0">
          <Node pos="l" depth="2" NCoef="0" IVar="-1" Cut="0.0000000000000000e+00" cType="1" res="8.8607054203748703e-04" rms="3.9503988623619080e-01" purity="5.4873180389404297e-01" nType="-99"/>
          <Node pos="r" depth="2" NCoef="0" IVar="-1" Cut="0.0000000000000000e+00" cType="1" res="3.6019802093505859e-02" rms="3.2068014144897461e-01" purity="8.1553703546524048e-01" nType="-99"/>
        </Node>
        <Node pos="r" depth="1" NCoef="0" IVar="5" Cut="2.2385458946228027e+00" cType="1" res="-4.4761415570974350e-02" rms="4.1708761453628540e-01" purity="4.1197958588600159e-01" nType="0">
          <Node pos="l" depth="2" NCoef="0" IVar="-1" Cut="0.0000000000000000e+00" cType="1" res="1.1977324262261391e-02" rms="4.1292908787727356e-01" purity="6.0704231262207031e-01" nType="-99"/>
          <Node pos="r" depth="2" NCoef="0" IVar="-1" Cut="0.0000000000000000e+00" cType="1" res="-1.7661854624748230e-02" rms="4.1557437181472778e-01" purity="3.7478852272033691e-01" nType="-99"/>
        </Node>
      </Node>
    </BinaryTree>
    <BinaryTree type="DecisionTree" boostWeight="1.0000000000000000e+00" itree="52">
      <Node pos="s" depth="0" NCoef="0" IVar="1" Cut="4.7832069396972656e+00" cType="1" res="9.6539109945297241e-03" rms="3.9710059762001038e-01" purity="5.1119035482406616e-01" nType="0">
        <Node pos="l" depth="1" NCoef="0" IVar="1" Cut="2.4127469062805176e+00" cType="1" res="-9.1795111075043678e-03" rms="4.1307583451271057e-01" purity="4.2521896958351135e-01" nType="0">
          <Node pos="l" depth="2" NCoef="0" IVar="-1" Cut="0.0000000000000000e+00" cType="1" res="-5.0109662115573883e-02" rms="3.3115670084953308e-01" purity="1.3516972959041595e-01" nType="-99"/>
          <Node pos="r" depth="2" NCoef="0" IVar="-1" Cut="0.0000000000000000e+00" cType="1" res="-3.5796186421066523e-04" rms="4.1513776779174805e-01" purity="4.3961364030838013e-01" nType="-99"/>
        </Node>
        <Node pos="r" depth="1" NCoef="0" IVar="5" Cut="5.5524287223815918e+00" cType="1" res="4.6798795461654663e-02" rms="3.6066988110542297e-01" purity="6.8075042963027954e-01" nType="0">
          <Node pos="l" depth="2" NCoef="0" IVar="-1" Cut="0.0000000000000000e+00" cType="1" res="3.0463077127933502e-02" rms="2.9644858837127686e-01" purity="8.5158258676528931e-01" nType="-99"/>
          <Node pos="r" depth="2" NCoef="0" IVar="-1" Cut="0.0000000000000000e+00" cType="1" res="2.4710961151868105e-03" rms="4.0137609839439392e-01" purity="5.4188179969787598e-01" nType="-99"/>
        </Node>
      </Node>
    </BinaryTree>
    <BinaryTree type="DecisionTree" boostWeight="1.0000000000000000e+00" itree="53">
      <Node pos="s" depth="0" NCoef="0" IVar="4" Cut="8.8806259632110596e-01" cType="1" res="-1.7529609613120556e-03" rms="3.9710903167724609e-01" purity="5.0328522920608521e-01" nType="0">
        <Node pos="l" depth="1" NCoef="0" IVar="4" Cut="2.8969824314117432e-02" cType="1" res="1.8679438158869743e-02" rms="3.9099836349487305e-01" purity="5.1582908630371094e-01" nType="0">
          <Node pos="l" depth="2" NCoef="0" IVar="-1" Cut="0.0000000000000000e+00" cType="1" res="-2.6089223101735115e-02" rms="2.9935556650161743e-01" purity="1.2588399648666382e-01" nType="-99"/>
          <Node pos="r" depth="2" NCoef="0" IVar="-1" Cut="0.0000000000000000e+00" cType="1" res="9.4024641439318657e-03" rms="4.0359050035476685e-01" purity="5.8679819107055664e-01" nType="-99"/>
        </Node>
        <Node pos="r" depth="1" NCoef="0" IVar="2" Cut="1.4800997450947762e-02" cType="1" res="-6.5265223383903503e-02" rms="4.0906444191932678e-01" purity="4.6429365873336792e-01" nType="0">
          <Node pos="l" depth="2" NCoef="0" IVar="-1" Cut="0.0000000000000000e+00" cType="1" res="6.7543820478022099e-03" rms="3.5396498441696167e-01" purity="8.0944496393203735e-01" nType="-99"/>
          <Node pos="r" depth="2" NCoef="0" IVar="-1" Cut="0.0000000000000000e+00" cType="1" res="-2.2327672690153122e-02" rms="4.1885191202163696e-01" purity="3.7919992208480835e-01" nType="-99"/>
        </Node>
      </Node>
    </BinaryTree>
    <BinaryTree type="DecisionTree" boostWeight="1.0000000000000000e+00" itree="54">
      <Node pos="s" depth="0" NCoef="0" IVar="4" Cut="7.3180651664733887e-01" cType="1" res="7.4054504511877894e-04" rms="3.9754375815391541e-01" purity="5.0522869825363159e-01" nType="0">
        <Node pos="l" depth="1" NCoef="0" IVar="5" Cut="2.1568820953369141e+01" cType="1" res="2.5501646101474762e-02" rms="3.7923040986061096e-01" purity="4.7773838043212891e-01" nType="0">
          <Node pos="l" depth="2" NCoef="0" IVar="-1" Cut="0.0000000000000000e+00" cType="1" res="1.3902125880122185e-02" rms="4.0299347043037415e-01" purity="5.8964741230010986e-01" nType="-99"/>
          <Node pos="r" depth="2" NCoef="0" IVar="-1" Cut="0.0000000000000000e+00" cType="1" res="-2.5745045393705368e-02" rms="2.6557916402816772e-01" purity="9.1918796300888062e-02" nType="-99"/>
        </Node>
        <Node pos="r" depth="1" NCoef="0" IVar="5" Cut="5.2701973915100098e+00" cType="1" res="-3.9749618619680405e-02" rms="4.2268279194831848e-01" purity="5.5018174648284912e-01" nType="0">
          <Node pos="l" depth="2" NCoef="0" IVar="-1" Cut="0.0000000000000000e+00" cType="1" res="-4.7097788192331791e-03" rms="4.2988598346710205e-01" purity="6.1279207468032837e-01" nType="-99"/>
          <Node pos="r" depth="2" NCoef="0" IVar="-1" Cut="0.0000000000000000e+00" cType="1" res="-4.5469127595424652e-02" rms="3.6153995990753174e-01" purity="2.2479057312011719e-01" nType="-99"/>
        </Node>
      </Node>
    </BinaryTree>
    <BinaryTree type="DecisionTree" boostWeight="1.0000000000000000e+00" itree="55">
      <Node pos="s" depth="0" NCoef="0" IVar="2" Cut="1.8497388809919357e-02" cType="1" res="-1.3665767619386315e-03" rms="3.9303788542747498e-01" purity="4.9304938316345215e-01" nType="0">
        <Node pos="l" depth="1" NCoef="0" IVar="1" Cut="3.1819491386413574e+00" cType="1" res="4.7203283756971359e-02" rms="3.6119681596755981e-01" purity="7.7232223749160767e-01" nType="0">
          <Node pos="l" depth="2" NCoef="0" IVar="-1" Cut="0.0000000000000000e+00" cType="1" res="-8.7112532928586006e-03" rms="4.5652016997337341e-01" purity="4.6075785160064697e-01" nType="-99"/>
          <Node pos="r" depth="2" NCoef="0" IVar="-1" Cut="0.0000000000000000e+00" cType="1" res="2.1169681102037430e-02" rms="3.3854469656944275e-01" purity="8.2965284585952759e-01" nType="-99"/>
        </Node>
        <Node pos="r" depth="1" NCoef="0" IVar="5" Cut="2.9118993282318115e+00" cType="1" res="-2.1034209057688713e-02" rms="4.0356099605560303e-01" purity="3.7996205687522888e-01" nType="0">
          <Node pos="l" depth="2" NCoef="0" IVar="-1" Cut="0.0000000000000000e+00" cType="1" res="9.7490176558494568e-03" rms="4.5498770475387573e-01" purity="5.8441358804702759e-01" nType="-99"/>
          <Node pos="r" depth="2" NCoef="0" IVar="-1" Cut="0.0000000000000000e+00" cType="1" res="-1.0118834674358368e-02" rms="3.8950774073600769e-01" purity="3.3322885632514954e-01" nType="-99"/>
        </Node>
      </Node>
    </BinaryTree>
    <BinaryTree type="DecisionTree" boostWeight="1.0000000000000000e+00" itree="56">
      <Node pos="s" depth="0" NCoef="0" IVar="4" Cut="6.4358979463577271e-01" cType="1" res="-9.6229081973433495e-03" rms="3.9333939552307129e-01" purity="4.9367970228195190e-01" nType="0">
        <Node pos="l" depth="1" NCoef="0" IVar="4" Cut="5.0797724723815918e-01" cType="1" res="1.3748304918408394e-02" rms="3.8329660892486572e-01" purity="4.4185397028923035e-01" nType="0">
          <Node pos="l" depth="2" NCoef="0" IVar="-1" Cut="0.0000000000000000e+00" cType="1" res="-2.0735552534461021e-03" rms="3.8998764753341675e-01" purity="3.8331022858619690e-01" nType="-99"/>
          <Node pos="r" depth="2" NCoef="0" IVar="-1" Cut="0.0000000000000000e+00" cType="1" res="2.7439581230282784e-02" rms="3.3921489119529724e-01" purity="6.9437891244888306e-01" nType="-99"/>
        </Node>
        <Node pos="r" depth="1" NCoef="0" IVar="5" Cut="4.1325683593750000e+00" cType="1" res="-3.6994919180870056e-02" rms="4.0306535363197327e-01" purity="5.5437713861465454e-01" nType="0">
          <Node pos="l" depth="2" NCoef="0" IVar="-1" Cut="0.0000000000000000e+00" cType="1" res="1.5478155110031366e-03" rms="3.9945930242538452e-01" purity="6.4293450117111206e-01" nType="-99"/>
          <Node pos="r" depth="2" NCoef="0" IVar="-1" Cut="0.0000000000000000e+00" cType="1" res="-3.2020688056945801e-02" rms="3.9872220158576965e-01" purity="4.0250092744827271e-01" nType="-99"/>
        </Node>
      </Node>
    </BinaryTree>
    <BinaryTree type="DecisionTree" boostWeight="1.0000000000000000e+00" itree="57">
      <Node pos="s" depth="0" NCoef="0" IVar="3" Cut="1.4814275503158569e-01" cType="1" res="3.7710780743509531e-03" rms="3.9580100774765015e-01" purity="5.1461088657379150e-01" nType="0">
        <Node pos="l" depth="1" NCoef="0" IVar="2" Cut="6.4778566360473633e-02" cType="1" res="3.9964392781257629e-02" rms="3.8071957230567932e-01" purity="6.1248236894607544e-01" nType="0">
          <Node pos="l" depth="2" NCoef="0" IVar="-1" Cut="0.0000000000000000e+00" cType="1" res="1.9472753629088402e-02" rms="3.6759805679321289e-01" purity="7.4311536550521851e-01" nType="-99"/>
          <Node pos="r" depth="2" NCoef="0" IVar="-1" Cut="0.0000000000000000e+00" cType="1" res="-5.1080579869449139e-03" rms="4.0525057911872864e-01" purity="2.9163956642150879e-01" nType="-99"/>
        </Node>
        <Node pos="r" depth="1" NCoef="0" IVar="0" Cut="1.6588880615234375e+03" cType="1" res="-2.5382773950695992e-02" rms="4.0519946813583374e-01" purity="4.3577510118484497e-01" nType="0">
          <Node pos="l" depth="2" NCoef="0" IVar="-1" Cut="0.0000000000000000e+00" cType="1" res="-9.8312355112284422e-04" rms="3.9539644122123718e-01" purity="4.0264165401458740e-01" nType="-99"/>
          <Node pos="r" depth="2" NCoef="0" IVar="-1" Cut="0.0000000000000000e+00" cType="1" res="-2.4948064237833023e-02" rms="4.2512419819831848e-01" purity="5.2622658014297485e-01" nType="-99"/>
        </Node>
      </Node>
    </BinaryTree>
    <BinaryTree type="DecisionTree" boostWeight="1.0000000000000000e+00" itree="58">
      <Node pos="s" depth="0" NCoef="0" IVar="1" Cut="4.8488640785217285e+00" cType="1" res="-3.6123837344348431e-03" rms="4.0051543712615967e-01" purity="4.9707224965095520e-01" nType="0">
        <Node pos="l" depth="1" NCoef="0" IVar="3" Cut="1.8532220274209976e-02" cType="1" res="-2.0264713093638420e-02" rms="4.1479796171188354e-01" purity="4.2772811651229858e-01" nType="0">
          <Node pos="l" depth="2" NCoef="0" IVar="-1" Cut="0.0000000000000000e+00" cType="1" res="2.5078590959310532e-02" rms="3.7126663327217102e-01" purity="5.9662413597106934e-01" nType="-99"/>
          <Node pos="r" depth="2" NCoef="0" IVar="-1" Cut="0.0000000000000000e+00" cType="1" res="-7.2400411590933800e-03" rms="4.1610443592071533e-01" purity="4.1902473568916321e-01" nType="-99"/>
        </Node>
        <Node pos="r" depth="1" NCoef="0" IVar="1" Cut="5.0686817169189453e+00" cType="1" res="3.4565173089504242e-02" rms="3.6279797554016113e-01" purity="6.5605241060256958e-01" nType="0">
          <Node pos="l" depth="2" NCoef="0" IVar="-1" Cut="0.0000000000000000e+00" cType="1" res="4.5350398868322372e-02" rms="2.8291314840316772e-01" purity="6.7323285341262817e-01" nType="-99"/>
          <Node pos="r" depth="2" NCoef="0" IVar="-1" Cut="0.0000000000000000e+00" cType="1" res="3.5628834739327431e-03" rms="3.7360370159149170e-01" purity="6.5239393711090088e-01" nType="-99"/>
        </Node>
      </Node>
    </BinaryTree>
    <BinaryTree type="DecisionTree" boostWeight="1.0000000000000000e+00" itree="59">
      <Node pos="s" depth="0" NCoef="0" IVar="5" Cut="4.6154899597167969e+00" cType="1" res="2.6243731845170259e-03" rms="3.9777332544326782e-01" purity="5.0417971611022949e-01" nType="0">
        <Node pos="l" depth="1" NCoef="0" IVar="3" Cut="3.0895799398422241e-02" cType="1" res="4.3077044188976288e-02" rms="4.0186724066734314e-01" purity="6.8596452474594116e-01" nType="0">
          <Node pos="l" depth="2" NCoef="0" IVar="-1" Cut="0.0000000000000000e+00" cType="1" res="-2.0030876621603966e-02" rms="4.2027765512466431e-01" purity="6.5949416160583496e-01" nType="-99"/>
          <Node pos="r" depth="2" NCoef="0" IVar="-1" Cut="0.0000000000000000e+00" cType="1" res="1.5353573486208916e-02" rms="3.9767423272132874e-01" purity="6.8911707401275635e-01" nType="-99"/>
        </Node>
        <Node pos="r" depth="1" NCoef="0" IVar="4" Cut="6.4357191324234009e-01" cType="1" res="-1.8728567287325859e-02" rms="3.9392369985580444e-01" purity="4.0822464227676392e-01" nType="0">
          <Node pos="l" depth="2" NCoef="0" IVar="-1" Cut="0.0000000000000000e+00" cType="1" res="-2.4334435875061899e-04" rms="3.8721325993537903e-01" purity="4.0940111875534058e-01" nType="-99"/>
          <Node pos="r" depth="2" NCoef="0" IVar="-1" Cut="0.0000000000000000e+00" cType="1" res="-2.6479605585336685e-02" rms="4.1157874464988708e-01" purity="4.0367522835731506e-01" nType="-99"/>
        </Node>
      </Node>
    </BinaryTree>
    <BinaryTree type="DecisionTree" boostWeight="1.0000000000000000e+00" itree="60">
      <Node pos="s" depth="0" NCoef="0" IVar="4" Cut="7.7441942691802979e-01" cType="1" res="1.3107610866427422e-03" rms="3.9375919103622437e-01" purity="5.0597685575485229e-01" nType="0">
        <Node pos="l" depth="1" NCoef="0" IVar="4" Cut="3.4133267402648926e-01" cType="1" res="2.2242799401283264e-02" rms="3.7942987680435181e-01" purity="4.9320343136787415e-01" nType="0">
          <Node pos="l" depth="2" NCoef="0" IVar="-1" Cut="0.0000000000000000e+00" cType="1" res="-3.8257814012467861e-03" rms="3.7747076153755188e-01" purity="3.1927877664566040e-01" nType="-99"/>
          <Node pos="r" depth="2" NCoef="0" IVar="-1" Cut="0.0000000000000000e+00" cType="1" res="1.5891408547759056e-02" rms="3.7820500135421753e-01" purity="6.7977571487426758e-01" nType="-99"/>
        </Node>
        <Node pos="r" depth="1" NCoef="0" IVar="3" Cut="2.6506286859512329e-01" cType="1" res="-3.8975894451141357e-02" rms="4.1701748967170715e-01" purity="5.3056108951568604e-01" nType="0">
          <Node pos="l" depth="2" NCoef="0" IVar="-1" Cut="0.0000000000000000e+00" cType="1" res="-3.1323644798249006e-03" rms="4.0576958656311035e-01" purity="6.0310822725296021e-01" nType="-99"/>
          <Node pos="r" depth="2" NCoef="0" IVar="-1" Cut="0.0000000000000000e+00" cType="1" res="-2.8364736586809158e-02" rms="4.3642514944076538e-01" purity="3.4465649724006653e-01" nType="-99"/>
        </Node>
      </Node>
    </BinaryTree>
    <BinaryTree type="DecisionTree" boostWeight="1.0000000000000000e+00" itree="61">
      <Node pos="s" depth="0" NCoef="0" IVar="2" Cut="3.7009026855230331e-03" cType="1" res="-4.4643231667578220e-03" rms="3.9482948184013367e-01" purity="5.0094777345657349e-01" nType="0">
        <Node pos="l" depth="1" NCoef="0" IVar="-1" Cut="0.0000000000000000e+00" cType="1" res="3.1657446175813675e-02" rms="3.3107042312622070e-01" purity="8.5149729251861572e-01" nType="-99"/>
        <Node pos="r" depth="1" NCoef="0" IVar="3" Cut="3.2097780704498291e-01" cType="1" res="-8.7614655494689941e-03" rms="3.9672872424125671e-01" purity="4.8611575365066528e-01" nType="0">
          <Node pos="l" depth="2" NCoef="0" IVar="-1" Cut="0.0000000000000000e+00" cType="1" res="4.6150958951329812e-05" rms="3.9375114440917969e-01" purity="5.2687239646911621e-01" nType="-99"/>
          <Node pos="r" depth="2" NCoef="0" IVar="-1" Cut="0.0000000000000000e+00" cType="1" res="-1.4460841193795204e-02" rms="4.0771433711051941e-01" purity="2.9709148406982422e-01" nType="-99"/>
        </Node>
      </Node>
    </BinaryTree>
    <BinaryTree type="DecisionTree" boostWeight="1.0000000000000000e+00" itree="62">
      <Node pos="s" depth="0" NCoef="0" IVar="5" Cut="2.0474791526794434e+00" cType="1" res="-4.4971373863518238e-03" rms="3.9075952768325806e-01" purity="4.9808499217033386e-01" nType="0">
        <Node pos="l" depth="1" NCoef="0" IVar="1" Cut="4.1841235160827637e+00" cType="1" res="7.5517438352108002e-02" rms="3.6992663145065308e-01" purity="7.2575145959854126e-01" nType="0">
          <Node pos="l" depth="2" NCoef="0" IVar="-1" Cut="0.0000000000000000e+00" cType="1" res="-4.1132383048534393e-03" rms="4.4587865471839905e-01" purity="5.1543265581130981e-01" nType="-99"/>
          <Node pos="r" depth="2" NCoef="0" IVar="-1" Cut="0.0000000000000000e+00" cType="1" res="4.9290042370557785e-02" rms="2.6685714721679688e-01" purity="9.0334397554397583e-01" nType="-99"/>
        </Node>
        <Node pos="r" depth="1" NCoef="0" IVar="2" Cut="9.0735472738742828e-02" cType="1" res="-1.7302181571722031e-02" rms="3.9248001575469971e-01" purity="4.6165063977241516e-01" nType="0">
          <Node pos="l" depth="2" NCoef="0" IVar="-1" Cut="0.0000000000000000e+00" cType="1" res="-2.0824233070015907e-03" rms="4.0584084391593933e-01" purity="5.3670978546142578e-01" nType="-99"/>
          <Node pos="r" depth="2" NCoef="0" IVar="-1" Cut="0.0000000000000000e+00" cType="1" res="-2.1250722929835320e-02" rms="3.2615086436271667e-01" purity="1.4190831780433655e-01" nType="-99"/>
        </Node>
      </Node>
    </BinaryTree>
    <BinaryTree type="DecisionTree" boostWeight="1.0000000000000000e+00" itree="63">
      <Node pos="s" depth="0" NCoef="0" IVar="0" Cut="8.3138946533203125e+02" cType="1" res="-6.4762150868773460e-03" rms="3.9465653896331787e-01" purity="4.9382221698760986e-01" nType="0">
