<?xml version="1.0"?>
<MethodSetup Method="BDT::BDT_NewCuts_NewQCD_NoRegSplits_fold2">
  <GeneralInfo>
    <Info name="TMVA Release" value="4.2.1 [262657]"/>
    <Info name="ROOT Release" value="6.38/04 [402948]"/>
    <Info name="Creator" value="b78499db"/>
    <Info name="Date" value="Fri Apr 10 16:02:07 2026"/>
    <Info name="Host" value="Darwin sat12-bq151-c9e4e291-cebf-421f-a4bb-9c6e9893d24e-B204E9FB7EFE.local 24.6.0 Darwin Kernel Version 24.6.0: Mon Jan 19 22:02:01 PST 2026; root:xnu-11417.140.69.708.3~1/RELEASE_ARM64_VMAPPLE arm64"/>
    <Info name="Dir" value="/Users/user/Documents/HEP/MVA-Analysis-BU"/>
    <Info name="Training events" value="40834"/>
    <Info name="TrainingTime" value="8.25314045e-01"/>
    <Info name="AnalysisType" value="Classification"/>
  </GeneralInfo>
  <Options>
    <Option name="V" modified="Yes">False</Option>
    <Option name="VerbosityLevel" modified="No">Default</Option>
    <Option name="VarTransform" modified="No">None</Option>
    <Option name="H" modified="Yes">False</Option>
    <Option name="CreateMVAPdfs" modified="No">False</Option>
    <Option name="IgnoreNegWeightsInTraining" modified="No">False</Option>
    <Option name="NTrees" modified="Yes">125</Option>
    <Option name="MaxDepth" modified="Yes">2</Option>
    <Option name="MinNodeSize" modified="Yes">3%</Option>
    <Option name="nCuts" modified="Yes">80</Option>
    <Option name="BoostType" modified="Yes">Grad</Option>
    <Option name="AdaBoostR2Loss" modified="No">quadratic</Option>
    <Option name="UseBaggedBoost" modified="Yes">True</Option>
    <Option name="Shrinkage" modified="Yes">1.000000e-01</Option>
    <Option name="AdaBoostBeta" modified="No">5.000000e-01</Option>
    <Option name="UseRandomisedTrees" modified="No">False</Option>
    <Option name="UseNvars" modified="Yes">2</Option>
    <Option name="UsePoissonNvars" modified="No">True</Option>
    <Option name="BaggedSampleFraction" modified="Yes">5.000000e-01</Option>
    <Option name="UseYesNoLeaf" modified="No">True</Option>
    <Option name="NegWeightTreatment" modified="No">pray</Option>
    <Option name="Css" modified="No">1.000000e+00</Option>
    <Option name="Cts_sb" modified="No">1.000000e+00</Option>
    <Option name="Ctb_ss" modified="No">1.000000e+00</Option>
    <Option name="Cbb" modified="No">1.000000e+00</Option>
    <Option name="NodePurityLimit" modified="No">5.000000e-01</Option>
    <Option name="SeparationType" modified="Yes">sdivsqrtsplusb</Option>
    <Option name="RegressionLossFunctionBDTG" modified="No">huber</Option>
    <Option name="HuberQuantile" modified="No">7.000000e-01</Option>
    <Option name="DoBoostMonitor" modified="No">False</Option>
    <Option name="UseFisherCuts" modified="No">False</Option>
    <Option name="MinLinCorrForFisher" modified="No">8.000000e-01</Option>
    <Option name="UseExclusiveVars" modified="No">False</Option>
    <Option name="DoPreselection" modified="No">False</Option>
    <Option name="SigToBkgFraction" modified="No">1.000000e+00</Option>
    <Option name="PruneMethod" modified="No">nopruning</Option>
    <Option name="PruneStrength" modified="No">0.000000e+00</Option>
    <Option name="PruningValFraction" modified="No">5.000000e-01</Option>
    <Option name="SkipNormalization" modified="No">False</Option>
    <Option name="nEventsMin" modified="No">0</Option>
    <Option name="UseBaggedGrad" modified="No">False</Option>
    <Option name="GradBaggingFraction" modified="No">5.000000e-01</Option>
    <Option name="UseNTrainEvents" modified="No">0</Option>
    <Option name="NNodesMax" modified="No">0</Option>
  </Options>
  <Variables NVar="6">
    <Variable VarIndex="0" Expression="mjj" Label="mjj" Title="m_{jj}" Unit="GeV" Internal="mjj" Type="D" Min="7.50009277e+02" Max="1.04008096e+04"/>
    <Variable VarIndex="1" Expression="deltaRapidity" Label="deltaRapidity" Title="#Delta y_{jj}" Unit="" Internal="deltaRapidity" Type="D" Min="2.00024772e+00" Max="8.57665539e+00"/>
    <Variable VarIndex="2" Expression="ptBalance" Label="ptBalance" Title="pT_{balance}" Unit="" Internal="ptBalance" Type="D" Min="0.00000000e+00" Max="1.49991289e-01"/>
    <Variable VarIndex="3" Expression="zCentrality" Label="zCentrality" Title="#xi(Z)" Unit="" Internal="zCentrality" Type="D" Min="1.51442191e-05" Max="4.99976218e-01"/>
    <Variable VarIndex="4" Expression="omega" Label="omega" Title="#Omega" Unit="" Internal="omega" Type="D" Min="-1.99983269e-01" Max="1.59815931e+00"/>
    <Variable VarIndex="5" Expression="transverseRecoMassVariable" Label="transverseRecoMassVariable" Title="m_{T}(l)/f(m_{reco})" Unit="GeV" Internal="transverseRecoMassVariable" Type="D" Min="6.55489217e-04" Max="9.62869568e+01"/>
  </Variables>
  <Spectators NSpec="1">
    <Spectator SpecIndex="0" Expression="eventNumber" Label="eventNumber" Title="I" Unit="" Internal="eventNumber" Type="F" Min="1.27000000e+02" Max="1.24552128e+09"/>
  </Spectators>
  <Classes NClass="2">
    <Class Name="Signal" Index="0"/>
    <Class Name="Background" Index="1"/>
  </Classes>
  <Transformations NTransformations="0"/>
  <MVAPdfs/>
  <Weights NTrees="125" AnalysisType="1">
    <BinaryTree type="DecisionTree" boostWeight="1.0000000000000000e+00" itree="0">
      <Node pos="s" depth="0" NCoef="0" IVar="2" Cut="3.1474638730287552e-02" cType="1" res="-2.0297303795814514e-02" rms="4.9958786368370056e-01" purity="4.7970268130302429e-01" nType="0">
        <Node pos="l" depth="1" NCoef="0" IVar="5" Cut="1.3076615333557129e+01" cType="1" res="2.1006052196025848e-01" rms="4.5373404026031494e-01" purity="7.1006047725677490e-01" nType="0">
          <Node pos="l" depth="2" NCoef="0" IVar="-1" Cut="0.0000000000000000e+00" cType="1" res="5.8135639876127243e-02" rms="4.0682452917098999e-01" purity="7.9067820310592651e-01" nType="-99"/>
          <Node pos="r" depth="2" NCoef="0" IVar="-1" Cut="0.0000000000000000e+00" cType="1" res="-1.7150854691863060e-02" rms="4.9259132146835327e-01" purity="4.1424572467803955e-01" nType="-99"/>
        </Node>
        <Node pos="r" depth="1" NCoef="0" IVar="5" Cut="1.1186368942260742e+01" cType="1" res="-2.0198372006416321e-01" rms="4.5738667249679565e-01" purity="2.9801627993583679e-01" nType="0">
          <Node pos="l" depth="2" NCoef="0" IVar="-1" Cut="0.0000000000000000e+00" cType="1" res="-1.6042184084653854e-02" rms="4.9352428317070007e-01" purity="4.1978904604911804e-01" nType="-99"/>
          <Node pos="r" depth="2" NCoef="0" IVar="-1" Cut="0.0000000000000000e+00" cType="1" res="-7.6696164906024933e-02" rms="3.2084646821022034e-01" purity="1.1651917546987534e-01" nType="-99"/>
        </Node>
      </Node>
    </BinaryTree>
    <BinaryTree type="DecisionTree" boostWeight="1.0000000000000000e+00" itree="1">
      <Node pos="s" depth="0" NCoef="0" IVar="2" Cut="3.1479652971029282e-02" cType="1" res="2.5242376141250134e-03" rms="4.8786398768424988e-01" purity="5.0214070081710815e-01" nType="0">
        <Node pos="l" depth="1" NCoef="0" IVar="5" Cut="1.4785998344421387e+01" cType="1" res="1.8880136311054230e-01" rms="4.4904085993766785e-01" purity="7.1071201562881470e-01" nType="0">
          <Node pos="l" depth="2" NCoef="0" IVar="-1" Cut="0.0000000000000000e+00" cType="1" res="4.9756918102502823e-02" rms="4.1701659560203552e-01" purity="7.7546048164367676e-01" nType="-99"/>
          <Node pos="r" depth="2" NCoef="0" IVar="-1" Cut="0.0000000000000000e+00" cType="1" res="-2.6993317529559135e-02" rms="4.7896486520767212e-01" purity="3.5649850964546204e-01" nType="-99"/>
        </Node>
        <Node pos="r" depth="1" NCoef="0" IVar="5" Cut="1.3845207214355469e+01" cType="1" res="-1.6470356285572052e-01" rms="4.5994493365287781e-01" purity="3.1489858031272888e-01" nType="0">
          <Node pos="l" depth="2" NCoef="0" IVar="-1" Cut="0.0000000000000000e+00" cType="1" res="-1.5148918144404888e-02" rms="4.9089395999908447e-01" purity="4.1180351376533508e-01" nType="-99"/>
          <Node pos="r" depth="2" NCoef="0" IVar="-1" Cut="0.0000000000000000e+00" cType="1" res="-7.3857046663761139e-02" rms="2.9266917705535889e-01" purity="9.4605438411235809e-02" nType="-99"/>
        </Node>
      </Node>
    </BinaryTree>
    <BinaryTree type="DecisionTree" boostWeight="1.0000000000000000e+00" itree="2">
      <Node pos="s" depth="0" NCoef="0" IVar="2" Cut="3.5154502838850021e-02" cType="1" res="-6.7618447355926037e-03" rms="4.7884351015090942e-01" purity="4.9156573414802551e-01" nType="0">
        <Node pos="l" depth="1" NCoef="0" IVar="5" Cut="2.1606575012207031e+01" cType="1" res="1.5286840498447418e-01" rms="4.5394587516784668e-01" purity="6.8806451559066772e-01" nType="0">
          <Node pos="l" depth="2" NCoef="0" IVar="-1" Cut="0.0000000000000000e+00" cType="1" res="3.8848582655191422e-02" rms="4.3802171945571899e-01" purity="7.3353171348571777e-01" nType="-99"/>
          <Node pos="r" depth="2" NCoef="0" IVar="-1" Cut="0.0000000000000000e+00" cType="1" res="-5.1100410521030426e-02" rms="4.1306060552597046e-01" purity="2.1873645484447479e-01" nType="-99"/>
        </Node>
        <Node pos="r" depth="1" NCoef="0" IVar="5" Cut="1.0066543579101562e+01" cType="1" res="-1.5974836051464081e-01" rms="4.5135641098022461e-01" purity="3.0324515700340271e-01" nType="0">
          <Node pos="l" depth="2" NCoef="0" IVar="-1" Cut="0.0000000000000000e+00" cType="1" res="-9.6086002886295319e-03" rms="4.9594023823738098e-01" purity="4.3641322851181030e-01" nType="-99"/>
          <Node pos="r" depth="2" NCoef="0" IVar="-1" Cut="0.0000000000000000e+00" cType="1" res="-6.0976322740316391e-02" rms="3.4024554491043091e-01" purity="1.3672472536563873e-01" nType="-99"/>
        </Node>
      </Node>
    </BinaryTree>
    <BinaryTree type="DecisionTree" boostWeight="1.0000000000000000e+00" itree="3">
      <Node pos="s" depth="0" NCoef="0" IVar="2" Cut="4.4434785842895508e-02" cType="1" res="-1.4914348721504211e-03" rms="4.7076177597045898e-01" purity="4.9511149525642395e-01" nType="0">
        <Node pos="l" depth="1" NCoef="0" IVar="1" Cut="3.7866342067718506e+00" cType="1" res="1.3731001317501068e-01" rms="4.5246401429176331e-01" purity="6.7545527219772339e-01" nType="0">
          <Node pos="l" depth="2" NCoef="0" IVar="-1" Cut="0.0000000000000000e+00" cType="1" res="-1.0830862447619438e-02" rms="4.8506587743759155e-01" purity="4.7797659039497375e-01" nType="-99"/>
          <Node pos="r" depth="2" NCoef="0" IVar="-1" Cut="0.0000000000000000e+00" cType="1" res="4.4482987374067307e-02" rms="4.1186708211898804e-01" purity="7.5958603620529175e-01" nType="-99"/>
        </Node>
        <Node pos="r" depth="1" NCoef="0" IVar="5" Cut="1.0066348075866699e+01" cType="1" res="-1.6961586475372314e-01" rms="4.3643629550933838e-01" purity="2.7666863799095154e-01" nType="0">
          <Node pos="l" depth="2" NCoef="0" IVar="-1" Cut="0.0000000000000000e+00" cType="1" res="-1.5112744644284248e-02" rms="4.9073135852813721e-01" purity="4.0417337417602539e-01" nType="-99"/>
          <Node pos="r" depth="2" NCoef="0" IVar="-1" Cut="0.0000000000000000e+00" cType="1" res="-5.8848831802606583e-02" rms="3.2551234960556030e-01" purity="1.2256432324647903e-01" nType="-99"/>
        </Node>
      </Node>
    </BinaryTree>
    <BinaryTree type="DecisionTree" boostWeight="1.0000000000000000e+00" itree="4">
      <Node pos="s" depth="0" NCoef="0" IVar="5" Cut="1.5454196929931641e+01" cType="1" res="-1.3432059437036514e-02" rms="4.6608340740203857e-01" purity="4.8594066500663757e-01" nType="0">
        <Node pos="l" depth="1" NCoef="0" IVar="2" Cut="7.4069775640964508e-02" cType="1" res="5.6788448244333267e-02" rms="4.7272497415542603e-01" purity="5.8121645450592041e-01" nType="0">
          <Node pos="l" depth="2" NCoef="0" IVar="-1" Cut="0.0000000000000000e+00" cType="1" res="2.4416200816631317e-02" rms="4.5959350466728210e-01" purity="6.6451162099838257e-01" nType="-99"/>
          <Node pos="r" depth="2" NCoef="0" IVar="-1" Cut="0.0000000000000000e+00" cType="1" res="-3.1568542122840881e-02" rms="4.5448315143585205e-01" purity="2.9821005463600159e-01" nType="-99"/>
        </Node>
        <Node pos="r" depth="1" NCoef="0" IVar="2" Cut="1.3320481404662132e-02" cType="1" res="-2.6138111948966980e-01" rms="3.4106814861297607e-01" purity="1.4952123165130615e-01" nType="0">
          <Node pos="l" depth="2" NCoef="0" IVar="-1" Cut="0.0000000000000000e+00" cType="1" res="-1.7095761373639107e-02" rms="4.8550331592559814e-01" purity="4.0338563919067383e-01" nType="-99"/>
          <Node pos="r" depth="2" NCoef="0" IVar="-1" Cut="0.0000000000000000e+00" cType="1" res="-6.1858717352151871e-02" rms="2.9693013429641724e-01" purity="1.0370697081089020e-01" nType="-99"/>
        </Node>
      </Node>
    </BinaryTree>
    <BinaryTree type="DecisionTree" boostWeight="1.0000000000000000e+00" itree="5">
      <Node pos="s" depth="0" NCoef="0" IVar="2" Cut="2.7771741151809692e-02" cType="1" res="-1.1785583570599556e-02" rms="4.5990529656410217e-01" purity="4.8517617583274841e-01" nType="0">
        <Node pos="l" depth="1" NCoef="0" IVar="5" Cut="2.2586368560791016e+01" cType="1" res="1.3148351013660431e-01" rms="4.3808072805404663e-01" purity="7.0769333839416504e-01" nType="0">
          <Node pos="l" depth="2" NCoef="0" IVar="-1" Cut="0.0000000000000000e+00" cType="1" res="3.4149706363677979e-02" rms="4.2610079050064087e-01" purity="7.5247615575790405e-01" nType="-99"/>
          <Node pos="r" depth="2" NCoef="0" IVar="-1" Cut="0.0000000000000000e+00" cType="1" res="-5.1002923399209976e-02" rms="3.8996469974517822e-01" purity="1.9106347858905792e-01" nType="-99"/>
        </Node>
        <Node pos="r" depth="1" NCoef="0" IVar="5" Cut="9.2302312850952148e+00" cType="1" res="-1.1849110573530197e-01" rms="4.4658228754997253e-01" purity="3.1944742798805237e-01" nType="0">
          <Node pos="l" depth="2" NCoef="0" IVar="-1" Cut="0.0000000000000000e+00" cType="1" res="-6.5662306733429432e-03" rms="4.9177685379981995e-01" purity="4.5347744226455688e-01" nType="-99"/>
          <Node pos="r" depth="2" NCoef="0" IVar="-1" Cut="0.0000000000000000e+00" cType="1" res="-4.6299826353788376e-02" rms="3.6537316441535950e-01" purity="1.6744656860828400e-01" nType="-99"/>
        </Node>
      </Node>
    </BinaryTree>
    <BinaryTree type="DecisionTree" boostWeight="1.0000000000000000e+00" itree="6">
      <Node pos="s" depth="0" NCoef="0" IVar="2" Cut="5.9255816042423248e-02" cType="1" res="-5.2902265451848507e-03" rms="4.5735800266265869e-01" purity="4.9402120709419250e-01" nType="0">
        <Node pos="l" depth="1" NCoef="0" IVar="3" Cut="3.2094138860702515e-01" cType="1" res="8.1991180777549744e-02" rms="4.5779591798782349e-01" purity="6.2911778688430786e-01" nType="0">
          <Node pos="l" depth="2" NCoef="0" IVar="-1" Cut="0.0000000000000000e+00" cType="1" res="2.7141330763697624e-02" rms="4.3988230824470520e-01" purity="6.7955076694488525e-01" nType="-99"/>
          <Node pos="r" depth="2" NCoef="0" IVar="-1" Cut="0.0000000000000000e+00" cType="1" res="-3.1339187175035477e-02" rms="4.7080475091934204e-01" purity="3.8629564642906189e-01" nType="-99"/>
        </Node>
        <Node pos="r" depth="1" NCoef="0" IVar="0" Cut="1.4837279052734375e+03" cType="1" res="-1.7970727384090424e-01" rms="4.0339905023574829e-01" purity="2.2405362129211426e-01" nType="0">
          <Node pos="l" depth="2" NCoef="0" IVar="-1" Cut="0.0000000000000000e+00" cType="1" res="-4.7874480485916138e-02" rms="3.6996057629585266e-01" purity="1.7647443711757660e-01" nType="-99"/>
          <Node pos="r" depth="2" NCoef="0" IVar="-1" Cut="0.0000000000000000e+00" cType="1" res="-8.0599458888173103e-03" rms="4.6329653263092041e-01" purity="3.6851546168327332e-01" nType="-99"/>
        </Node>
      </Node>
    </BinaryTree>
    <BinaryTree type="DecisionTree" boostWeight="1.0000000000000000e+00" itree="7">
      <Node pos="s" depth="0" NCoef="0" IVar="5" Cut="1.4998901367187500e+01" cType="1" res="4.9848859198391438e-03" rms="4.4999873638153076e-01" purity="5.0034254789352417e-01" nType="0">
        <Node pos="l" depth="1" NCoef="0" IVar="3" Cut="2.9619348049163818e-01" cType="1" res="6.9590836763381958e-02" rms="4.6032932400703430e-01" purity="6.0679405927658081e-01" nType="0">
          <Node pos="l" depth="2" NCoef="0" IVar="-1" Cut="0.0000000000000000e+00" cType="1" res="2.4735612794756889e-02" rms="4.4472390413284302e-01" purity="6.6222894191741943e-01" nType="-99"/>
          <Node pos="r" depth="2" NCoef="0" IVar="-1" Cut="0.0000000000000000e+00" cType="1" res="-2.0562162622809410e-02" rms="4.7311112284660339e-01" purity="4.1514429450035095e-01" nType="-99"/>
        </Node>
        <Node pos="r" depth="1" NCoef="0" IVar="5" Cut="2.3716522216796875e+01" cType="1" res="-1.9692298769950867e-01" rms="3.4539446234703064e-01" purity="1.6765812039375305e-01" nType="0">
          <Node pos="l" depth="2" NCoef="0" IVar="-1" Cut="0.0000000000000000e+00" cType="1" res="-2.8206281363964081e-02" rms="4.0701547265052795e-01" purity="2.5614625215530396e-01" nType="-99"/>
          <Node pos="r" depth="2" NCoef="0" IVar="-1" Cut="0.0000000000000000e+00" cType="1" res="-6.3183069229125977e-02" rms="2.2389054298400879e-01" purity="5.9770617634057999e-02" nType="-99"/>
        </Node>
      </Node>
    </BinaryTree>
    <BinaryTree type="DecisionTree" boostWeight="1.0000000000000000e+00" itree="8">
      <Node pos="s" depth="0" NCoef="0" IVar="2" Cut="2.7754325419664383e-02" cType="1" res="3.5402487264946103e-04" rms="4.4302529096603394e-01" purity="4.9433907866477966e-01" nType="0">
        <Node pos="l" depth="1" NCoef="0" IVar="1" Cut="4.0188236236572266e+00" cType="1" res="1.3701376318931580e-01" rms="4.1393712162971497e-01" purity="7.4180489778518677e-01" nType="0">
          <Node pos="l" depth="2" NCoef="0" IVar="-1" Cut="0.0000000000000000e+00" cType="1" res="-4.5562745071947575e-03" rms="4.7962477803230286e-01" purity="5.5739951133728027e-01" nType="-99"/>
          <Node pos="r" depth="2" NCoef="0" IVar="-1" Cut="0.0000000000000000e+00" cType="1" res="4.7548413276672363e-02" rms="3.4613788127899170e-01" purity="8.3952957391738892e-01" nType="-99"/>
        </Node>
        <Node pos="r" depth="1" NCoef="0" IVar="1" Cut="5.1392865180969238e+00" cType="1" res="-9.5808915793895721e-02" rms="4.3751928210258484e-01" purity="3.2020553946495056e-01" nType="0">
          <Node pos="l" depth="2" NCoef="0" IVar="-1" Cut="0.0000000000000000e+00" cType="1" res="-2.8894059360027313e-02" rms="4.2374396324157715e-01" purity="2.7615651488304138e-01" nType="-99"/>
          <Node pos="r" depth="2" NCoef="0" IVar="-1" Cut="0.0000000000000000e+00" cType="1" res="1.4283862896263599e-02" rms="4.5644775032997131e-01" purity="5.0608658790588379e-01" nType="-99"/>
        </Node>
      </Node>
    </BinaryTree>
    <BinaryTree type="DecisionTree" boostWeight="1.0000000000000000e+00" itree="9">
      <Node pos="s" depth="0" NCoef="0" IVar="2" Cut="2.4052225053310394e-02" cType="1" res="-3.3793651964515448e-03" rms="4.4181999564170837e-01" purity="4.9469682574272156e-01" nType="0">
        <Node pos="l" depth="1" NCoef="0" IVar="1" Cut="4.0604815483093262e+00" cType="1" res="1.2135313451290131e-01" rms="4.1093182563781738e-01" purity="7.3747450113296509e-01" nType="0">
          <Node pos="l" depth="2" NCoef="0" IVar="-1" Cut="0.0000000000000000e+00" cType="1" res="-5.3589362651109695e-03" rms="4.7404733300209045e-01" purity="5.5266648530960083e-01" nType="-99"/>
          <Node pos="r" depth="2" NCoef="0" IVar="-1" Cut="0.0000000000000000e+00" cType="1" res="4.6445820480585098e-02" rms="3.3736044168472290e-01" purity="8.4982413053512573e-01" nType="-99"/>
        </Node>
        <Node pos="r" depth="1" NCoef="0" IVar="5" Cut="1.7307607650756836e+01" cType="1" res="-7.9488091170787811e-02" rms="4.4270884990692139e-01" purity="3.4655979275703430e-01" nType="0">
          <Node pos="l" depth="2" NCoef="0" IVar="-1" Cut="0.0000000000000000e+00" cType="1" res="-7.8071448951959610e-03" rms="4.7634348273277283e-01" purity="4.2547017335891724e-01" nType="-99"/>
          <Node pos="r" depth="2" NCoef="0" IVar="-1" Cut="0.0000000000000000e+00" cType="1" res="-5.4346099495887756e-02" rms="2.4855345487594604e-01" purity="7.3202952742576599e-02" nType="-99"/>
        </Node>
      </Node>
    </BinaryTree>
    <BinaryTree type="DecisionTree" boostWeight="1.0000000000000000e+00" itree="10">
      <Node pos="s" depth="0" NCoef="0" IVar="2" Cut="8.7031982839107513e-02" cType="1" res="4.1887415573000908e-03" rms="4.3566396832466125e-01" purity="5.0011825561523438e-01" nType="0">
        <Node pos="l" depth="1" NCoef="0" IVar="5" Cut="1.3662324905395508e+01" cType="1" res="5.5390715599060059e-02" rms="4.4179034233093262e-01" purity="5.8991909027099609e-01" nType="0">
          <Node pos="l" depth="2" NCoef="0" IVar="-1" Cut="0.0000000000000000e+00" cType="1" res="2.2751081734895706e-02" rms="4.3847462534904480e-01" purity="6.8800002336502075e-01" nType="-99"/>
          <Node pos="r" depth="2" NCoef="0" IVar="-1" Cut="0.0000000000000000e+00" cType="1" res="-2.6599189266562462e-02" rms="4.0798357129096985e-01" purity="2.5621521472930908e-01" nType="-99"/>
        </Node>
        <Node pos="r" depth="1" NCoef="0" IVar="1" Cut="4.6626815795898438e+00" cType="1" res="-1.9056333601474762e-01" rms="3.4850591421127319e-01" purity="1.5855135023593903e-01" nType="0">
          <Node pos="l" depth="2" NCoef="0" IVar="-1" Cut="0.0000000000000000e+00" cType="1" res="-5.1767684519290924e-02" rms="3.1012794375419617e-01" purity="1.1495972424745560e-01" nType="-99"/>
          <Node pos="r" depth="2" NCoef="0" IVar="-1" Cut="0.0000000000000000e+00" cType="1" res="-2.3408727720379829e-02" rms="4.1233456134796143e-01" purity="2.6016855239868164e-01" nType="-99"/>
        </Node>
      </Node>
    </BinaryTree>
    <BinaryTree type="DecisionTree" boostWeight="1.0000000000000000e+00" itree="11">
      <Node pos="s" depth="0" NCoef="0" IVar="5" Cut="1.7057929992675781e+01" cType="1" res="1.3700164854526520e-02" rms="4.3884730339050293e-01" purity="5.1360791921615601e-01" nType="0">
        <Node pos="l" depth="1" NCoef="0" IVar="4" Cut="1.0429764986038208e+00" cType="1" res="5.2986167371273041e-02" rms="4.4886484742164612e-01" purity="5.9602814912796021e-01" nType="0">
          <Node pos="l" depth="2" NCoef="0" IVar="-1" Cut="0.0000000000000000e+00" cType="1" res="1.8239727243781090e-02" rms="4.4212242960929871e-01" purity="6.3595652580261230e-01" nType="-99"/>
          <Node pos="r" depth="2" NCoef="0" IVar="-1" Cut="0.0000000000000000e+00" cType="1" res="-3.2011739909648895e-02" rms="4.3847897648811340e-01" purity="3.3675414323806763e-01" nType="-99"/>
        </Node>
        <Node pos="r" depth="1" NCoef="0" IVar="3" Cut="9.8823070526123047e-02" cType="1" res="-1.5502892434597015e-01" rms="3.4539198875427246e-01" purity="1.5962201356887817e-01" nType="0">
          <Node pos="l" depth="2" NCoef="0" IVar="-1" Cut="0.0000000000000000e+00" cType="1" res="-1.8300777301192284e-02" rms="4.0109440684318542e-01" purity="2.4687239527702332e-01" nType="-99"/>
          <Node pos="r" depth="2" NCoef="0" IVar="-1" Cut="0.0000000000000000e+00" cType="1" res="-4.6041160821914673e-02" rms="3.1224092841148376e-01" purity="1.2189353257417679e-01" nType="-99"/>
        </Node>
      </Node>
    </BinaryTree>
    <BinaryTree type="DecisionTree" boostWeight="1.0000000000000000e+00" itree="12">
      <Node pos="s" depth="0" NCoef="0" IVar="2" Cut="7.5882658362388611e-02" cType="1" res="3.6185106728225946e-03" rms="4.3006682395935059e-01" purity="5.0235217809677124e-01" nType="0">
        <Node pos="l" depth="1" NCoef="0" IVar="3" Cut="3.1475424766540527e-01" cType="1" res="5.1639337092638016e-02" rms="4.3524360656738281e-01" purity="6.0317242145538330e-01" nType="0">
          <Node pos="l" depth="2" NCoef="0" IVar="-1" Cut="0.0000000000000000e+00" cType="1" res="2.1863399073481560e-02" rms="4.1774863004684448e-01" purity="6.6329818964004517e-01" nType="-99"/>
          <Node pos="r" depth="2" NCoef="0" IVar="-1" Cut="0.0000000000000000e+00" cType="1" res="-3.0293688178062439e-02" rms="4.5203319191932678e-01" purity="3.5782659053802490e-01" nType="-99"/>
        </Node>
        <Node pos="r" depth="1" NCoef="0" IVar="5" Cut="5.0699667930603027e+00" cType="1" res="-1.4008970558643341e-01" rms="3.7947180867195129e-01" purity="2.0063519477844238e-01" nType="0">
          <Node pos="l" depth="2" NCoef="0" IVar="-1" Cut="0.0000000000000000e+00" cType="1" res="-5.1847486756742001e-03" rms="4.8349839448928833e-01" purity="3.9177054166793823e-01" nType="-99"/>
          <Node pos="r" depth="2" NCoef="0" IVar="-1" Cut="0.0000000000000000e+00" cType="1" res="-4.3259464204311371e-02" rms="3.2614919543266296e-01" purity="1.3380545377731323e-01" nType="-99"/>
        </Node>
      </Node>
    </BinaryTree>
    <BinaryTree type="DecisionTree" boostWeight="1.0000000000000000e+00" itree="13">
      <Node pos="s" depth="0" NCoef="0" IVar="5" Cut="8.0765342712402344e+00" cType="1" res="-6.2326644547283649e-03" rms="4.3334063887596130e-01" purity="4.9126124382019043e-01" nType="0">
        <Node pos="l" depth="1" NCoef="0" IVar="2" Cut="5.9207580983638763e-02" cType="1" res="6.7548505961894989e-02" rms="4.3918055295944214e-01" purity="6.3850367069244385e-01" nType="0">
          <Node pos="l" depth="2" NCoef="0" IVar="-1" Cut="0.0000000000000000e+00" cType="1" res="2.6799669489264488e-02" rms="4.1075104475021362e-01" purity="7.5360465049743652e-01" nType="-99"/>
          <Node pos="r" depth="2" NCoef="0" IVar="-1" Cut="0.0000000000000000e+00" cType="1" res="-1.1884818784892559e-02" rms="4.7655856609344482e-01" purity="3.6887064576148987e-01" nType="-99"/>
        </Node>
        <Node pos="r" depth="1" NCoef="0" IVar="0" Cut="1.5722501220703125e+03" cType="1" res="-9.1625936329364777e-02" rms="4.1023680567741394e-01" purity="3.2084491848945618e-01" nType="0">
          <Node pos="l" depth="2" NCoef="0" IVar="-1" Cut="0.0000000000000000e+00" cType="1" res="-3.1882032752037048e-02" rms="3.9128771424293518e-01" purity="2.5786441564559937e-01" nType="-99"/>
          <Node pos="r" depth="2" NCoef="0" IVar="-1" Cut="0.0000000000000000e+00" cType="1" res="5.9470250271260738e-03" rms="4.3728804588317871e-01" purity="4.9452093243598938e-01" nType="-99"/>
        </Node>
      </Node>
    </BinaryTree>
    <BinaryTree type="DecisionTree" boostWeight="1.0000000000000000e+00" itree="14">
      <Node pos="s" depth="0" NCoef="0" IVar="2" Cut="5.1808074116706848e-02" cType="1" res="2.8479085303843021e-03" rms="4.3008527159690857e-01" purity="5.0605124235153198e-01" nType="0">
        <Node pos="l" depth="1" NCoef="0" IVar="1" Cut="4.5985746383666992e+00" cType="1" res="5.7622693479061127e-02" rms="4.3183025717735291e-01" purity="6.5223246812820435e-01" nType="0">
          <Node pos="l" depth="2" NCoef="0" IVar="-1" Cut="0.0000000000000000e+00" cType="1" res="-3.2533667981624603e-03" rms="4.6313112974166870e-01" purity="5.5104213953018188e-01" nType="-99"/>
          <Node pos="r" depth="2" NCoef="0" IVar="-1" Cut="0.0000000000000000e+00" cType="1" res="3.4467399120330811e-02" rms="3.6796376109123230e-01" purity="7.8155237436294556e-01" nType="-99"/>
        </Node>
        <Node pos="r" depth="1" NCoef="0" IVar="5" Cut="5.1358265876770020e+00" cType="1" res="-8.7124638259410858e-02" rms="4.1167894005775452e-01" purity="2.6593518257141113e-01" nType="0">
          <Node pos="l" depth="2" NCoef="0" IVar="-1" Cut="0.0000000000000000e+00" cType="1" res="2.7738350909203291e-03" rms="4.8729529976844788e-01" purity="4.5258730649948120e-01" nType="-99"/>
          <Node pos="r" depth="2" NCoef="0" IVar="-1" Cut="0.0000000000000000e+00" cType="1" res="-3.2034650444984436e-02" rms="3.6411705613136292e-01" purity="1.8258616328239441e-01" nType="-99"/>
        </Node>
      </Node>
    </BinaryTree>
    <BinaryTree type="DecisionTree" boostWeight="1.0000000000000000e+00" itree="15">
      <Node pos="s" depth="0" NCoef="0" IVar="5" Cut="1.4265293121337891e+01" cType="1" res="-3.1583006493747234e-03" rms="4.3181517720222473e-01" purity="5.0184929370880127e-01" nType="0">
        <Node pos="l" depth="1" NCoef="0" IVar="4" Cut="1.0410424470901489e+00" cType="1" res="3.3715572208166122e-02" rms="4.4768330454826355e-01" purity="6.0111945867538452e-01" nType="0">
          <Node pos="l" depth="2" NCoef="0" IVar="-1" Cut="0.0000000000000000e+00" cType="1" res="1.4036613516509533e-02" rms="4.4311201572418213e-01" purity="6.4481753110885620e-01" nType="-99"/>
          <Node pos="r" depth="2" NCoef="0" IVar="-1" Cut="0.0000000000000000e+00" cType="1" res="-3.1488716602325439e-02" rms="4.3328663706779480e-01" purity="3.3256146311759949e-01" nType="-99"/>
        </Node>
        <Node pos="r" depth="1" NCoef="0" IVar="2" Cut="1.8889172002673149e-02" cType="1" res="-1.2121646851301193e-01" rms="3.5141262412071228e-01" purity="1.8401840329170227e-01" nType="0">
          <Node pos="l" depth="2" NCoef="0" IVar="-1" Cut="0.0000000000000000e+00" cType="1" res="-4.4924025423824787e-03" rms="4.8060980439186096e-01" purity="4.4663718342781067e-01" nType="-99"/>
          <Node pos="r" depth="2" NCoef="0" IVar="-1" Cut="0.0000000000000000e+00" cType="1" res="-3.9995856583118439e-02" rms="3.0292564630508423e-01" purity="1.1461070179939270e-01" nType="-99"/>
        </Node>
      </Node>
    </BinaryTree>
    <BinaryTree type="DecisionTree" boostWeight="1.0000000000000000e+00" itree="16">
      <Node pos="s" depth="0" NCoef="0" IVar="2" Cut="4.0731888264417648e-02" cType="1" res="-4.0645934641361237e-03" rms="4.2396542429924011e-01" purity="4.9333959817886353e-01" nType="0">
        <Node pos="l" depth="1" NCoef="0" IVar="1" Cut="2.9692425727844238e+00" cType="1" res="6.2795683741569519e-02" rms="4.2542606592178345e-01" purity="6.8645960092544556e-01" nType="0">
          <Node pos="l" depth="2" NCoef="0" IVar="-1" Cut="0.0000000000000000e+00" cType="1" res="-4.1777279227972031e-02" rms="4.3773475289344788e-01" purity="3.2427379488945007e-01" nType="-99"/>
          <Node pos="r" depth="2" NCoef="0" IVar="-1" Cut="0.0000000000000000e+00" cType="1" res="2.1274516358971596e-02" rms="4.1390964388847351e-01" purity="7.2825807332992554e-01" nType="-99"/>
        </Node>
        <Node pos="r" depth="1" NCoef="0" IVar="1" Cut="3.9883508682250977e+00" cType="1" res="-8.0662198364734650e-02" rms="4.0906819701194763e-01" purity="2.7209424972534180e-01" nType="0">
          <Node pos="l" depth="2" NCoef="0" IVar="-1" Cut="0.0000000000000000e+00" cType="1" res="-3.3517487347126007e-02" rms="3.6317610740661621e-01" purity="1.8644872307777405e-01" nType="-99"/>
          <Node pos="r" depth="2" NCoef="0" IVar="-1" Cut="0.0000000000000000e+00" cType="1" res="-9.2111006379127502e-03" rms="4.3485733866691589e-01" purity="3.3409896492958069e-01" nType="-99"/>
        </Node>
      </Node>
    </BinaryTree>
    <BinaryTree type="DecisionTree" boostWeight="1.0000000000000000e+00" itree="17">
      <Node pos="s" depth="0" NCoef="0" IVar="5" Cut="8.0765790939331055e+00" cType="1" res="-1.1888999491930008e-02" rms="4.1758790612220764e-01" purity="4.8425519466400146e-01" nType="0">
        <Node pos="l" depth="1" NCoef="0" IVar="1" Cut="4.1801967620849609e+00" cType="1" res="5.5134609341621399e-02" rms="4.2782497406005859e-01" purity="6.4376151561737061e-01" nType="0">
          <Node pos="l" depth="2" NCoef="0" IVar="-1" Cut="0.0000000000000000e+00" cType="1" res="-7.8046326525509357e-03" rms="4.6311235427856445e-01" purity="5.0264942646026611e-01" nType="-99"/>
          <Node pos="r" depth="2" NCoef="0" IVar="-1" Cut="0.0000000000000000e+00" cType="1" res="2.8153982013463974e-02" rms="3.8656759262084961e-01" purity="7.4700599908828735e-01" nType="-99"/>
        </Node>
        <Node pos="r" depth="1" NCoef="0" IVar="4" Cut="5.9891325235366821e-01" cType="1" res="-9.0957783162593842e-02" rms="3.9066404104232788e-01" purity="2.9608321189880371e-01" nType="0">
          <Node pos="l" depth="2" NCoef="0" IVar="-1" Cut="0.0000000000000000e+00" cType="1" res="-1.7895506694912910e-02" rms="3.9099270105361938e-01" purity="3.1160402297973633e-01" nType="-99"/>
          <Node pos="r" depth="2" NCoef="0" IVar="-1" Cut="0.0000000000000000e+00" cType="1" res="-6.0394454747438431e-02" rms="3.4414896368980408e-01" purity="1.5624850988388062e-01" nType="-99"/>
        </Node>
      </Node>
    </BinaryTree>
    <BinaryTree type="DecisionTree" boostWeight="1.0000000000000000e+00" itree="18">
      <Node pos="s" depth="0" NCoef="0" IVar="2" Cut="9.8073922097682953e-02" cType="1" res="2.2519081830978394e-02" rms="4.1620182991027832e-01" purity="5.1843297481536865e-01" nType="0">
        <Node pos="l" depth="1" NCoef="0" IVar="5" Cut="1.0699133872985840e+01" cType="1" res="5.4215528070926666e-02" rms="4.2092737555503845e-01" purity="5.9136140346527100e-01" nType="0">
          <Node pos="l" depth="2" NCoef="0" IVar="-1" Cut="0.0000000000000000e+00" cType="1" res="2.3649632930755615e-02" rms="4.1321215033531189e-01" purity="7.1870499849319458e-01" nType="-99"/>
          <Node pos="r" depth="2" NCoef="0" IVar="-1" Cut="0.0000000000000000e+00" cType="1" res="-1.1291927658021450e-02" rms="4.1808676719665527e-01" purity="3.3696228265762329e-01" nType="-99"/>
        </Node>
        <Node pos="r" depth="1" NCoef="0" IVar="3" Cut="1.9763447344303131e-01" cType="1" res="-1.2909960746765137e-01" rms="3.5567826032638550e-01" purity="1.6958244144916534e-01" nType="0">
          <Node pos="l" depth="2" NCoef="0" IVar="-1" Cut="0.0000000000000000e+00" cType="1" res="-1.6511751338839531e-02" rms="3.9552393555641174e-01" purity="2.3895867168903351e-01" nType="-99"/>
          <Node pos="r" depth="2" NCoef="0" IVar="-1" Cut="0.0000000000000000e+00" cType="1" res="-4.8627592623233795e-02" rms="2.9770722985267639e-01" purity="9.9826179444789886e-02" nType="-99"/>
        </Node>
      </Node>
    </BinaryTree>
    <BinaryTree type="DecisionTree" boostWeight="1.0000000000000000e+00" itree="19">
      <Node pos="s" depth="0" NCoef="0" IVar="2" Cut="5.1840584725141525e-02" cType="1" res="2.3667612113058567e-03" rms="4.1981631517410278e-01" purity="5.0461930036544800e-01" nType="0">
        <Node pos="l" depth="1" NCoef="0" IVar="0" Cut="9.9655694580078125e+02" cType="1" res="5.3403761237859726e-02" rms="4.2527967691421509e-01" purity="6.6807776689529419e-01" nType="0">
          <Node pos="l" depth="2" NCoef="0" IVar="-1" Cut="0.0000000000000000e+00" cType="1" res="-1.5949066728353500e-02" rms="4.7036755084991455e-01" purity="5.0286585092544556e-01" nType="-99"/>
          <Node pos="r" depth="2" NCoef="0" IVar="-1" Cut="0.0000000000000000e+00" cType="1" res="2.4474460631608963e-02" rms="3.9496150612831116e-01" purity="7.3390954732894897e-01" nType="-99"/>
        </Node>
        <Node pos="r" depth="1" NCoef="0" IVar="2" Cut="1.1243181675672531e-01" cType="1" res="-7.7817335724830627e-02" rms="3.9808294177055359e-01" purity="2.4781009554862976e-01" nType="0">
          <Node pos="l" depth="2" NCoef="0" IVar="-1" Cut="0.0000000000000000e+00" cType="1" res="-1.1234657838940620e-02" rms="4.2009085416793823e-01" purity="2.9778933525085449e-01" nType="-99"/>
          <Node pos="r" depth="2" NCoef="0" IVar="-1" Cut="0.0000000000000000e+00" cType="1" res="-3.8520306348800659e-02" rms="3.3158096671104431e-01" purity="1.3321556150913239e-01" nType="-99"/>
        </Node>
      </Node>
    </BinaryTree>
    <BinaryTree type="DecisionTree" boostWeight="1.0000000000000000e+00" itree="20">
      <Node pos="s" depth="0" NCoef="0" IVar="2" Cut="2.4060610681772232e-02" cType="1" res="-1.7449209466576576e-02" rms="4.1814219951629639e-01" purity="4.8245796561241150e-01" nType="0">
        <Node pos="l" depth="1" NCoef="0" IVar="1" Cut="3.3806447982788086e+00" cType="1" res="6.8508833646774292e-02" rms="3.9832264184951782e-01" purity="7.4281448125839233e-01" nType="0">
          <Node pos="l" depth="2" NCoef="0" IVar="-1" Cut="0.0000000000000000e+00" cType="1" res="-2.5432670488953590e-02" rms="4.7828233242034912e-01" purity="4.4476836919784546e-01" nType="-99"/>
          <Node pos="r" depth="2" NCoef="0" IVar="-1" Cut="0.0000000000000000e+00" cType="1" res="2.6395643129944801e-02" rms="3.6928328871726990e-01" purity="8.0215948820114136e-01" nType="-99"/>
        </Node>
        <Node pos="r" depth="1" NCoef="0" IVar="1" Cut="5.8780531883239746e+00" cType="1" res="-6.8742148578166962e-02" rms="4.2125886678695679e-01" purity="3.2709783315658569e-01" nType="0">
          <Node pos="l" depth="2" NCoef="0" IVar="-1" Cut="0.0000000000000000e+00" cType="1" res="-1.9968310371041298e-02" rms="4.1800135374069214e-01" purity="3.0380094051361084e-01" nType="-99"/>
          <Node pos="r" depth="2" NCoef="0" IVar="-1" Cut="0.0000000000000000e+00" cType="1" res="2.2575227543711662e-02" rms="4.2226582765579224e-01" purity="5.9440636634826660e-01" nType="-99"/>
        </Node>
      </Node>
    </BinaryTree>
    <BinaryTree type="DecisionTree" boostWeight="1.0000000000000000e+00" itree="21">
      <Node pos="s" depth="0" NCoef="0" IVar="3" Cut="1.5430217981338501e-01" cType="1" res="9.7163477912545204e-03" rms="4.1083091497421265e-01" purity="5.0250530242919922e-01" nType="0">
        <Node pos="l" depth="1" NCoef="0" IVar="5" Cut="1.9352643966674805e+01" cType="1" res="7.9456619918346405e-02" rms="3.9778274297714233e-01" purity="6.0744661092758179e-01" nType="0">
          <Node pos="l" depth="2" NCoef="0" IVar="-1" Cut="0.0000000000000000e+00" cType="1" res="2.6561474427580833e-02" rms="3.9958798885345459e-01" purity="6.8660306930541992e-01" nType="-99"/>
          <Node pos="r" depth="2" NCoef="0" IVar="-1" Cut="0.0000000000000000e+00" cType="1" res="-2.8477268293499947e-02" rms="3.3418908715248108e-01" purity="1.6017557680606842e-01" nType="-99"/>
        </Node>
        <Node pos="r" depth="1" NCoef="0" IVar="0" Cut="2.4669946289062500e+03" cType="1" res="-4.9119684845209122e-02" rms="4.1245406866073608e-01" purity="4.1397210955619812e-01" nType="0">
          <Node pos="l" depth="2" NCoef="0" IVar="-1" Cut="0.0000000000000000e+00" cType="1" res="-1.6152324154973030e-02" rms="4.1285771131515503e-01" purity="3.8619056344032288e-01" nType="-99"/>
          <Node pos="r" depth="2" NCoef="0" IVar="-1" Cut="0.0000000000000000e+00" cType="1" res="3.9539560675621033e-02" rms="3.4009957313537598e-01" purity="7.5385808944702148e-01" nType="-99"/>
        </Node>
      </Node>
    </BinaryTree>
    <BinaryTree type="DecisionTree" boostWeight="1.0000000000000000e+00" itree="22">
      <Node pos="s" depth="0" NCoef="0" IVar="4" Cut="6.6857844591140747e-02" cType="1" res="-1.3932535657659173e-03" rms="4.1651326417922974e-01" purity="4.9828854203224182e-01" nType="0">
        <Node pos="l" depth="1" NCoef="0" IVar="3" Cut="2.2217831015586853e-01" cType="1" res="-1.3417263329029083e-01" rms="3.1974619626998901e-01" purity="1.4564397931098938e-01" nType="0">
          <Node pos="l" depth="2" NCoef="0" IVar="-1" Cut="0.0000000000000000e+00" cType="1" res="-3.1946387141942978e-02" rms="3.3805686235427856e-01" purity="1.7881931364536285e-01" nType="-99"/>
          <Node pos="r" depth="2" NCoef="0" IVar="-1" Cut="0.0000000000000000e+00" cType="1" res="-5.1325481384992599e-02" rms="2.7905458211898804e-01" purity="8.5262149572372437e-02" nType="-99"/>
        </Node>
        <Node pos="r" depth="1" NCoef="0" IVar="1" Cut="4.3416743278503418e+00" cType="1" res="2.0265951752662659e-02" rms="4.2633318901062012e-01" purity="5.5581259727478027e-01" nType="0">
          <Node pos="l" depth="2" NCoef="0" IVar="-1" Cut="0.0000000000000000e+00" cType="1" res="-7.2291214019060135e-03" rms="4.4461581110954285e-01" purity="4.4437453150749207e-01" nType="-99"/>
          <Node pos="r" depth="2" NCoef="0" IVar="-1" Cut="0.0000000000000000e+00" cType="1" res="1.7535803839564323e-02" rms="4.0053597092628479e-01" purity="6.6773688793182373e-01" nType="-99"/>
        </Node>
      </Node>
    </BinaryTree>
    <BinaryTree type="DecisionTree" boostWeight="1.0000000000000000e+00" itree="23">
      <Node pos="s" depth="0" NCoef="0" IVar="2" Cut="9.0735472738742828e-02" cType="1" res="6.0763959772884846e-03" rms="4.1061031818389893e-01" purity="5.1210170984268188e-01" nType="0">
        <Node pos="l" depth="1" NCoef="0" IVar="5" Cut="1.6642772674560547e+01" cType="1" res="3.3166203647851944e-02" rms="4.1966375708580017e-01" purity="5.9391868114471436e-01" nType="0">
          <Node pos="l" depth="2" NCoef="0" IVar="-1" Cut="0.0000000000000000e+00" cType="1" res="1.3999612070620060e-02" rms="4.2699313163757324e-01" purity="6.7965388298034668e-01" nType="-99"/>
          <Node pos="r" depth="2" NCoef="0" IVar="-1" Cut="0.0000000000000000e+00" cType="1" res="-2.4113634601235390e-02" rms="3.5940319299697876e-01" purity="1.9718608260154724e-01" nType="-99"/>
        </Node>
        <Node pos="r" depth="1" NCoef="0" IVar="4" Cut="8.2193726301193237e-01" cType="1" res="-1.0821255296468735e-01" rms="3.4746238589286804e-01" purity="1.6692467033863068e-01" nType="0">
          <Node pos="l" depth="2" NCoef="0" IVar="-1" Cut="0.0000000000000000e+00" cType="1" res="-2.3353584110736847e-02" rms="3.3944645524024963e-01" purity="1.6765899956226349e-01" nType="-99"/>
          <Node pos="r" depth="2" NCoef="0" IVar="-1" Cut="0.0000000000000000e+00" cType="1" res="-3.8095649331808090e-02" rms="3.5794582962989807e-01" purity="1.6534708440303802e-01" nType="-99"/>
        </Node>
      </Node>
    </BinaryTree>
    <BinaryTree type="DecisionTree" boostWeight="1.0000000000000000e+00" itree="24">
      <Node pos="s" depth="0" NCoef="0" IVar="3" Cut="2.9628837108612061e-01" cType="1" res="2.9324856586754322e-04" rms="4.0916585922241211e-01" purity="5.0119829177856445e-01" nType="0">
        <Node pos="l" depth="1" NCoef="0" IVar="5" Cut="1.4267031669616699e+01" cType="1" res="3.2927688211202621e-02" rms="4.0074026584625244e-01" purity="5.5426514148712158e-01" nType="0">
          <Node pos="l" depth="2" NCoef="0" IVar="-1" Cut="0.0000000000000000e+00" cType="1" res="1.6772249713540077e-02" rms="4.0643426775932312e-01" purity="6.6835021972656250e-01" nType="-99"/>
          <Node pos="r" depth="2" NCoef="0" IVar="-1" Cut="0.0000000000000000e+00" cType="1" res="-2.1882006898522377e-02" rms="3.6069023609161377e-01" purity="2.0934252440929413e-01" nType="-99"/>
        </Node>
        <Node pos="r" depth="1" NCoef="0" IVar="4" Cut="8.1863385438919067e-01" cType="1" res="-1.0840386152267456e-01" rms="4.1807079315185547e-01" purity="3.2444596290588379e-01" nType="0">
          <Node pos="l" depth="2" NCoef="0" IVar="-1" Cut="0.0000000000000000e+00" cType="1" res="-1.3731898739933968e-02" rms="4.0923753380775452e-01" purity="3.5231074690818787e-01" nType="-99"/>
          <Node pos="r" depth="2" NCoef="0" IVar="-1" Cut="0.0000000000000000e+00" cType="1" res="-5.0139822065830231e-02" rms="4.1376626491546631e-01" purity="2.6639249920845032e-01" nType="-99"/>
        </Node>
      </Node>
    </BinaryTree>
    <BinaryTree type="DecisionTree" boostWeight="1.0000000000000000e+00" itree="25">
      <Node pos="s" depth="0" NCoef="0" IVar="3" Cut="2.9626002907752991e-01" cType="1" res="-3.4385870676487684e-03" rms="4.1522362828254700e-01" purity="5.0142455101013184e-01" nType="0">
        <Node pos="l" depth="1" NCoef="0" IVar="5" Cut="8.0795793533325195e+00" cType="1" res="2.1361775696277618e-02" rms="4.1051667928695679e-01" purity="5.4992443323135376e-01" nType="0">
          <Node pos="l" depth="2" NCoef="0" IVar="-1" Cut="0.0000000000000000e+00" cType="1" res="1.8078997731208801e-02" rms="4.0220069885253906e-01" purity="7.0836228132247925e-01" nType="-99"/>
          <Node pos="r" depth="2" NCoef="0" IVar="-1" Cut="0.0000000000000000e+00" cType="1" res="-1.1215903796255589e-02" rms="4.1124600172042847e-01" purity="3.5847553610801697e-01" nType="-99"/>
        </Node>
        <Node pos="r" depth="1" NCoef="0" IVar="0" Cut="1.0417451171875000e+03" cType="1" res="-9.1989152133464813e-02" rms="4.1982269287109375e-01" purity="3.2825413346290588e-01" nType="0">
          <Node pos="l" depth="2" NCoef="0" IVar="-1" Cut="0.0000000000000000e+00" cType="1" res="-3.3356044441461563e-02" rms="4.1379818320274353e-01" purity="2.4916034936904907e-01" nType="-99"/>
          <Node pos="r" depth="2" NCoef="0" IVar="-1" Cut="0.0000000000000000e+00" cType="1" res="-1.2556672096252441e-02" rms="4.2105460166931152e-01" purity="3.9886265993118286e-01" nType="-99"/>
        </Node>
      </Node>
    </BinaryTree>
    <BinaryTree type="DecisionTree" boostWeight="1.0000000000000000e+00" itree="26">
      <Node pos="s" depth="0" NCoef="0" IVar="0" Cut="1.2430893554687500e+03" cType="1" res="1.3177605578675866e-03" rms="4.1241702437400818e-01" purity="4.9896642565727234e-01" nType="0">
        <Node pos="l" depth="1" NCoef="0" IVar="2" Cut="1.4803610742092133e-02" cType="1" res="-4.9103546887636185e-02" rms="4.1644597053527832e-01" purity="3.8624921441078186e-01" nType="0">
          <Node pos="l" depth="2" NCoef="0" IVar="-1" Cut="0.0000000000000000e+00" cType="1" res="7.0436433888971806e-03" rms="4.2298656702041626e-01" purity="6.6535305976867676e-01" nType="-99"/>
          <Node pos="r" depth="2" NCoef="0" IVar="-1" Cut="0.0000000000000000e+00" cType="1" res="-1.7413809895515442e-02" rms="4.1258591413497925e-01" purity="3.1877219676971436e-01" nType="-99"/>
        </Node>
        <Node pos="r" depth="1" NCoef="0" IVar="4" Cut="9.9706107378005981e-01" cType="1" res="6.0863696038722992e-02" rms="3.9949461817741394e-01" purity="6.3208174705505371e-01" nType="0">
          <Node pos="l" depth="2" NCoef="0" IVar="-1" Cut="0.0000000000000000e+00" cType="1" res="2.2337462753057480e-02" rms="3.8835799694061279e-01" purity="6.6462302207946777e-01" nType="-99"/>
          <Node pos="r" depth="2" NCoef="0" IVar="-1" Cut="0.0000000000000000e+00" cType="1" res="-2.3048633709549904e-02" rms="4.2903041839599609e-01" purity="4.3211960792541504e-01" nType="-99"/>
        </Node>
      </Node>
    </BinaryTree>
    <BinaryTree type="DecisionTree" boostWeight="1.0000000000000000e+00" itree="27">
      <Node pos="s" depth="0" NCoef="0" IVar="4" Cut="1.0424475669860840e+00" cType="1" res="3.8887304253876209e-03" rms="4.1109541058540344e-01" purity="5.1482951641082764e-01" nType="0">
        <Node pos="l" depth="1" NCoef="0" IVar="5" Cut="1.8214128494262695e+01" cType="1" res="2.0798176527023315e-02" rms="4.0727531909942627e-01" purity="5.3912866115570068e-01" nType="0">
          <Node pos="l" depth="2" NCoef="0" IVar="-1" Cut="0.0000000000000000e+00" cType="1" res="1.1719770729541779e-02" rms="4.2352247238159180e-01" purity="6.3667035102844238e-01" nType="-99"/>
          <Node pos="r" depth="2" NCoef="0" IVar="-1" Cut="0.0000000000000000e+00" cType="1" res="-2.9822887852787971e-02" rms="3.0481728911399841e-01" purity="1.3094002008438110e-01" nType="-99"/>
        </Node>
        <Node pos="r" depth="1" NCoef="0" IVar="5" Cut="5.0327606201171875e+00" cType="1" res="-1.2625032663345337e-01" rms="4.1704070568084717e-01" purity="3.2781752943992615e-01" nType="0">
          <Node pos="l" depth="2" NCoef="0" IVar="-1" Cut="0.0000000000000000e+00" cType="1" res="-1.6554154455661774e-02" rms="4.6125057339668274e-01" purity="4.4330608844757080e-01" nType="-99"/>
          <Node pos="r" depth="2" NCoef="0" IVar="-1" Cut="0.0000000000000000e+00" cType="1" res="-5.9065919369459152e-02" rms="2.7845755219459534e-01" purity="9.0958856046199799e-02" nType="-99"/>
        </Node>
      </Node>
    </BinaryTree>
    <BinaryTree type="DecisionTree" boostWeight="1.0000000000000000e+00" itree="28">
      <Node pos="s" depth="0" NCoef="0" IVar="2" Cut="1.8508162349462509e-02" cType="1" res="1.3622388243675232e-02" rms="4.0376704931259155e-01" purity="5.1371079683303833e-01" nType="0">
        <Node pos="l" depth="1" NCoef="0" IVar="3" Cut="3.7647596001625061e-01" cType="1" res="8.6343988776206970e-02" rms="3.6223608255386353e-01" purity="7.7478891611099243e-01" nType="0">
          <Node pos="l" depth="2" NCoef="0" IVar="-1" Cut="0.0000000000000000e+00" cType="1" res="2.8480255976319313e-02" rms="3.3707630634307861e-01" purity="8.1061774492263794e-01" nType="-99"/>
          <Node pos="r" depth="2" NCoef="0" IVar="-1" Cut="0.0000000000000000e+00" cType="1" res="-1.7098966985940933e-02" rms="4.8986789584159851e-01" purity="4.9044963717460632e-01" nType="-99"/>
        </Node>
        <Node pos="r" depth="1" NCoef="0" IVar="3" Cut="2.8394475579261780e-01" cType="1" res="-1.9052263349294662e-02" rms="4.1698673367500305e-01" purity="3.9640536904335022e-01" nType="0">
          <Node pos="l" depth="2" NCoef="0" IVar="-1" Cut="0.0000000000000000e+00" cType="1" res="1.2159305624663830e-03" rms="4.2409974336624146e-01" purity="4.5019704103469849e-01" nType="-99"/>
          <Node pos="r" depth="2" NCoef="0" IVar="-1" Cut="0.0000000000000000e+00" cType="1" res="-2.2544715553522110e-02" rms="3.8887867331504822e-01" purity="2.4692542850971222e-01" nType="-99"/>
        </Node>
      </Node>
    </BinaryTree>
    <BinaryTree type="DecisionTree" boostWeight="1.0000000000000000e+00" itree="29">
      <Node pos="s" depth="0" NCoef="0" IVar="4" Cut="1.0212188959121704e+00" cType="1" res="-1.2421048246324062e-02" rms="4.0553361177444458e-01" purity="4.8683679103851318e-01" nType="0">
        <Node pos="l" depth="1" NCoef="0" IVar="5" Cut="1.6152595520019531e+01" cType="1" res="7.7744750306010246e-03" rms="4.0253564715385437e-01" purity="5.1557677984237671e-01" nType="0">
          <Node pos="l" depth="2" NCoef="0" IVar="-1" Cut="0.0000000000000000e+00" cType="1" res="8.8744936510920525e-03" rms="4.2360159754753113e-01" purity="6.3668167591094971e-01" nType="-99"/>
          <Node pos="r" depth="2" NCoef="0" IVar="-1" Cut="0.0000000000000000e+00" cType="1" res="-2.6275280863046646e-02" rms="3.1210017204284668e-01" purity="1.3875509798526764e-01" nType="-99"/>
        </Node>
        <Node pos="r" depth="1" NCoef="0" IVar="5" Cut="3.3305418491363525e+00" cType="1" res="-1.3839749991893768e-01" rms="4.0144103765487671e-01" purity="3.0756133794784546e-01" nType="0">
          <Node pos="l" depth="2" NCoef="0" IVar="-1" Cut="0.0000000000000000e+00" cType="1" res="-1.2966490350663662e-02" rms="4.5095628499984741e-01" purity="4.8409807682037354e-01" nType="-99"/>
          <Node pos="r" depth="2" NCoef="0" IVar="-1" Cut="0.0000000000000000e+00" cType="1" res="-5.3392391651868820e-02" rms="3.2841676473617554e-01" purity="1.3696967065334320e-01" nType="-99"/>
        </Node>
      </Node>
    </BinaryTree>
    <BinaryTree type="DecisionTree" boostWeight="1.0000000000000000e+00" itree="30">
      <Node pos="s" depth="0" NCoef="0" IVar="1" Cut="4.3418068885803223e+00" cType="1" res="-6.8238326348364353e-03" rms="4.1299027204513550e-01" purity="5.0459605455398560e-01" nType="0">
        <Node pos="l" depth="1" NCoef="0" IVar="1" Cut="2.5207409858703613e+00" cType="1" res="-5.4356262087821960e-02" rms="4.2181780934333801e-01" purity="3.8863611221313477e-01" nType="0">
          <Node pos="l" depth="2" NCoef="0" IVar="-1" Cut="0.0000000000000000e+00" cType="1" res="-4.3986797332763672e-02" rms="4.1041302680969238e-01" purity="2.5168412923812866e-01" nType="-99"/>
          <Node pos="r" depth="2" NCoef="0" IVar="-1" Cut="0.0000000000000000e+00" cType="1" res="-1.0714074596762657e-02" rms="4.2076465487480164e-01" purity="4.0079250931739807e-01" nType="-99"/>
        </Node>
        <Node pos="r" depth="1" NCoef="0" IVar="4" Cut="4.4061899185180664e-02" cType="1" res="4.1590768843889236e-02" rms="3.9800709486007690e-01" purity="6.2270814180374146e-01" nType="0">
          <Node pos="l" depth="2" NCoef="0" IVar="-1" Cut="0.0000000000000000e+00" cType="1" res="-2.3312542587518692e-02" rms="3.5099369287490845e-01" purity="1.8943578004837036e-01" nType="-99"/>
          <Node pos="r" depth="2" NCoef="0" IVar="-1" Cut="0.0000000000000000e+00" cType="1" res="1.4722616411745548e-02" rms="4.0108385682106018e-01" purity="6.7755025625228882e-01" nType="-99"/>
        </Node>
      </Node>
    </BinaryTree>
    <BinaryTree type="DecisionTree" boostWeight="1.0000000000000000e+00" itree="31">
      <Node pos="s" depth="0" NCoef="0" IVar="2" Cut="8.6963556706905365e-02" cType="1" res="1.8530361354351044e-02" rms="4.0359413623809814e-01" purity="5.1983875036239624e-01" nType="0">
        <Node pos="l" depth="1" NCoef="0" IVar="1" Cut="4.0209708213806152e+00" cType="1" res="4.2179498821496964e-02" rms="4.1393157839775085e-01" purity="6.0771304368972778e-01" nType="0">
          <Node pos="l" depth="2" NCoef="0" IVar="-1" Cut="0.0000000000000000e+00" cType="1" res="-5.4278969764709473e-03" rms="4.4506213068962097e-01" purity="4.4528084993362427e-01" nType="-99"/>
          <Node pos="r" depth="2" NCoef="0" IVar="-1" Cut="0.0000000000000000e+00" cType="1" res="2.1071057766675949e-02" rms="3.8946238160133362e-01" purity="7.0314055681228638e-01" nType="-99"/>
        </Node>
        <Node pos="r" depth="1" NCoef="0" IVar="3" Cut="2.1555575728416443e-01" cType="1" res="-7.5383327901363373e-02" rms="3.4392875432968140e-01" purity="1.7087878286838531e-01" nType="0">
          <Node pos="l" depth="2" NCoef="0" IVar="-1" Cut="0.0000000000000000e+00" cType="1" res="-1.0349930264055729e-02" rms="3.8083761930465698e-01" purity="2.3005506396293640e-01" nType="-99"/>
          <Node pos="r" depth="2" NCoef="0" IVar="-1" Cut="0.0000000000000000e+00" cType="1" res="-3.7605304270982742e-02" rms="2.8716513514518738e-01" purity="1.0022221505641937e-01" nType="-99"/>
        </Node>
      </Node>
    </BinaryTree>
    <BinaryTree type="DecisionTree" boostWeight="1.0000000000000000e+00" itree="32">
      <Node pos="s" depth="0" NCoef="0" IVar="1" Cut="3.7864325046539307e+00" cType="1" res="-5.0705168396234512e-03" rms="3.9874917268753052e-01" purity="4.9651527404785156e-01" nType="0">
        <Node pos="l" depth="1" NCoef="0" IVar="0" Cut="1.0725583496093750e+03" cType="1" res="-7.6783493161201477e-02" rms="4.0492603182792664e-01" purity="3.2514116168022156e-01" nType="0">
          <Node pos="l" depth="2" NCoef="0" IVar="-1" Cut="0.0000000000000000e+00" cType="1" res="-2.5812536478042603e-02" rms="3.9527434110641479e-01" purity="2.9009154438972473e-01" nType="-99"/>
          <Node pos="r" depth="2" NCoef="0" IVar="-1" Cut="0.0000000000000000e+00" cType="1" res="-5.1635410636663437e-03" rms="4.2000633478164673e-01" purity="4.0226969122886658e-01" nType="-99"/>
        </Node>
        <Node pos="r" depth="1" NCoef="0" IVar="5" Cut="2.0283799171447754e+00" cType="1" res="2.6213468983769417e-02" rms="3.9193513989448547e-01" purity="5.7127535343170166e-01" nType="0">
          <Node pos="l" depth="2" NCoef="0" IVar="-1" Cut="0.0000000000000000e+00" cType="1" res="3.7381999194622040e-02" rms="3.1383666396141052e-01" purity="8.1429368257522583e-01" nType="-99"/>
          <Node pos="r" depth="2" NCoef="0" IVar="-1" Cut="0.0000000000000000e+00" cType="1" res="1.5304689295589924e-03" rms="4.0069010853767395e-01" purity="5.2834171056747437e-01" nType="-99"/>
        </Node>
      </Node>
    </BinaryTree>
    <BinaryTree type="DecisionTree" boostWeight="1.0000000000000000e+00" itree="33">
      <Node pos="s" depth="0" NCoef="0" IVar="0" Cut="2.0606118164062500e+03" cType="1" res="-2.8318454496911727e-05" rms="4.0401473641395569e-01" purity="5.0584942102432251e-01" nType="0">
        <Node pos="l" depth="1" NCoef="0" IVar="5" Cut="1.0699176788330078e+01" cType="1" res="-1.6845799982547760e-02" rms="4.0788668394088745e-01" purity="4.6436002850532532e-01" nType="0">
          <Node pos="l" depth="2" NCoef="0" IVar="-1" Cut="0.0000000000000000e+00" cType="1" res="2.4602729827165604e-03" rms="4.3209895491600037e-01" purity="6.0147088766098022e-01" nType="-99"/>
          <Node pos="r" depth="2" NCoef="0" IVar="-1" Cut="0.0000000000000000e+00" cType="1" res="-1.9070720300078392e-02" rms="3.5770455002784729e-01" purity="2.2824561595916748e-01" nType="-99"/>
        </Node>
        <Node pos="r" depth="1" NCoef="0" IVar="5" Cut="3.0731506347656250e+00" cType="1" res="8.8550239801406860e-02" rms="3.7058657407760620e-01" purity="7.2437644004821777e-01" nType="0">
          <Node pos="l" depth="2" NCoef="0" IVar="-1" Cut="0.0000000000000000e+00" cType="1" res="5.5271279066801071e-02" rms="2.4054808914661407e-01" purity="9.5668989419937134e-01" nType="-99"/>
          <Node pos="r" depth="2" NCoef="0" IVar="-1" Cut="0.0000000000000000e+00" cType="1" res="1.5761025249958038e-02" rms="3.9932161569595337e-01" purity="6.4935755729675293e-01" nType="-99"/>
        </Node>
      </Node>
    </BinaryTree>
    <BinaryTree type="DecisionTree" boostWeight="1.0000000000000000e+00" itree="34">
      <Node pos="s" depth="0" NCoef="0" IVar="2" Cut="7.4057974852621555e-03" cType="1" res="7.7621252276003361e-03" rms="4.0102455019950867e-01" purity="5.0806885957717896e-01" nType="0">
        <Node pos="l" depth="1" NCoef="0" IVar="4" Cut="6.0879504680633545e-01" cType="1" res="1.3011898100376129e-01" rms="3.4285503625869751e-01" purity="8.3274984359741211e-01" nType="0">
          <Node pos="l" depth="2" NCoef="0" IVar="-1" Cut="0.0000000000000000e+00" cType="1" res="4.9363512545824051e-02" rms="3.3477842807769775e-01" purity="8.3382332324981689e-01" nType="-99"/>
          <Node pos="r" depth="2" NCoef="0" IVar="-1" Cut="0.0000000000000000e+00" cType="1" res="1.9383540377020836e-02" rms="3.3859941363334656e-01" purity="8.3168298006057739e-01" nType="-99"/>
        </Node>
        <Node pos="r" depth="1" NCoef="0" IVar="5" Cut="8.0767354965209961e+00" cType="1" res="-5.7619428262114525e-03" rms="4.0467983484268188e-01" purity="4.7218194603919983e-01" nType="0">
          <Node pos="l" depth="2" NCoef="0" IVar="-1" Cut="0.0000000000000000e+00" cType="1" res="9.1019272804260254e-03" rms="4.2276090383529663e-01" purity="6.4663326740264893e-01" nType="-99"/>
          <Node pos="r" depth="2" NCoef="0" IVar="-1" Cut="0.0000000000000000e+00" cType="1" res="-1.3977412134408951e-02" rms="3.8090258836746216e-01" purity="2.9697003960609436e-01" nType="-99"/>
        </Node>
      </Node>
    </BinaryTree>
    <BinaryTree type="DecisionTree" boostWeight="1.0000000000000000e+00" itree="35">
      <Node pos="s" depth="0" NCoef="0" IVar="4" Cut="9.9836152791976929e-01" cType="1" res="-7.0827952586114407e-03" rms="4.1262331604957581e-01" purity="4.9893936514854431e-01" nType="0">
        <Node pos="l" depth="1" NCoef="0" IVar="0" Cut="9.9738269042968750e+02" cType="1" res="1.0143443010747433e-02" rms="4.1007748246192932e-01" purity="5.2415043115615845e-01" nType="0">
          <Node pos="l" depth="2" NCoef="0" IVar="-1" Cut="0.0000000000000000e+00" cType="1" res="-1.1018926277756691e-02" rms="4.1571837663650513e-01" purity="3.7300068140029907e-01" nType="-99"/>
          <Node pos="r" depth="2" NCoef="0" IVar="-1" Cut="0.0000000000000000e+00" cType="1" res="9.5472671091556549e-03" rms="4.0498515963554382e-01" purity="5.9628450870513916e-01" nType="-99"/>
        </Node>
        <Node pos="r" depth="1" NCoef="0" IVar="5" Cut="4.8428573608398438e+00" cType="1" res="-1.0509318858385086e-01" rms="4.1337674856185913e-01" purity="3.5549852252006531e-01" nType="0">
          <Node pos="l" depth="2" NCoef="0" IVar="-1" Cut="0.0000000000000000e+00" cType="1" res="-1.7121057957410812e-02" rms="4.5058095455169678e-01" purity="4.7503393888473511e-01" nType="-99"/>
          <Node pos="r" depth="2" NCoef="0" IVar="-1" Cut="0.0000000000000000e+00" cType="1" res="-4.5942436903715134e-02" rms="3.1919327378273010e-01" purity="1.2054817378520966e-01" nType="-99"/>
        </Node>
      </Node>
    </BinaryTree>
    <BinaryTree type="DecisionTree" boostWeight="1.0000000000000000e+00" itree="36">
      <Node pos="s" depth="0" NCoef="0" IVar="4" Cut="1.0205531120300293e+00" cType="1" res="-4.8447498120367527e-03" rms="4.0426823496818542e-01" purity="5.0287723541259766e-01" nType="0">
        <Node pos="l" depth="1" NCoef="0" IVar="3" Cut="3.9502826333045959e-01" cType="1" res="1.2619900517165661e-02" rms="3.9961609244346619e-01" purity="5.3023540973663330e-01" nType="0">
          <Node pos="l" depth="2" NCoef="0" IVar="-1" Cut="0.0000000000000000e+00" cType="1" res="6.7095160484313965e-03" rms="3.9598202705383301e-01" purity="5.5769133567810059e-01" nType="-99"/>
          <Node pos="r" depth="2" NCoef="0" IVar="-1" Cut="0.0000000000000000e+00" cType="1" res="-2.5241324678063393e-02" rms="4.1485559940338135e-01" purity="2.8435105085372925e-01" nType="-99"/>
        </Node>
        <Node pos="r" depth="1" NCoef="0" IVar="5" Cut="2.4393072128295898e+00" cType="1" res="-1.1315365135669708e-01" rms="4.1593644022941589e-01" purity="3.3321222662925720e-01" nType="0">
          <Node pos="l" depth="2" NCoef="0" IVar="-1" Cut="0.0000000000000000e+00" cType="1" res="-1.0839750990271568e-02" rms="4.4988480210304260e-01" purity="5.0677758455276489e-01" nType="-99"/>
          <Node pos="r" depth="2" NCoef="0" IVar="-1" Cut="0.0000000000000000e+00" cType="1" res="-3.8834705948829651e-02" rms="3.8662612438201904e-01" purity="2.2176811099052429e-01" nType="-99"/>
        </Node>
      </Node>
    </BinaryTree>
    <BinaryTree type="DecisionTree" boostWeight="1.0000000000000000e+00" itree="37">
      <Node pos="s" depth="0" NCoef="0" IVar="4" Cut="9.1016227006912231e-01" cType="1" res="7.4141938239336014e-03" rms="4.0692466497421265e-01" purity="5.1777768135070801e-01" nType="0">
        <Node pos="l" depth="1" NCoef="0" IVar="1" Cut="5.3092813491821289e+00" cType="1" res="2.7282938361167908e-02" rms="4.0235918760299683e-01" purity="5.3356403112411499e-01" nType="0">
          <Node pos="l" depth="2" NCoef="0" IVar="-1" Cut="0.0000000000000000e+00" cType="1" res="2.3204267490655184e-03" rms="4.1045200824737549e-01" purity="4.7712665796279907e-01" nType="-99"/>
          <Node pos="r" depth="2" NCoef="0" IVar="-1" Cut="0.0000000000000000e+00" cType="1" res="3.0148588120937347e-02" rms="3.5486266016960144e-01" purity="7.7497833967208862e-01" nType="-99"/>
        </Node>
        <Node pos="r" depth="1" NCoef="0" IVar="2" Cut="7.0304736495018005e-02" cType="1" res="-6.3679374754428864e-02" rms="4.1514018177986145e-01" purity="4.6129155158996582e-01" nType="0">
          <Node pos="l" depth="2" NCoef="0" IVar="-1" Cut="0.0000000000000000e+00" cType="1" res="-5.8930432423949242e-03" rms="4.4307240843772888e-01" purity="6.3963544368743896e-01" nType="-99"/>
          <Node pos="r" depth="2" NCoef="0" IVar="-1" Cut="0.0000000000000000e+00" cType="1" res="-3.4746032208204269e-02" rms="3.5298296809196472e-01" purity="1.6113276779651642e-01" nType="-99"/>
        </Node>
      </Node>
    </BinaryTree>
    <BinaryTree type="DecisionTree" boostWeight="1.0000000000000000e+00" itree="38">
      <Node pos="s" depth="0" NCoef="0" IVar="3" Cut="3.9499306678771973e-01" cType="1" res="-6.3357441686093807e-03" rms="4.0637832880020142e-01" purity="4.9666893482208252e-01" nType="0">
        <Node pos="l" depth="1" NCoef="0" IVar="5" Cut="1.6642732620239258e+01" cType="1" res="8.3222808316349983e-03" rms="4.0336140990257263e-01" purity="5.2507907152175903e-01" nType="0">
          <Node pos="l" depth="2" NCoef="0" IVar="-1" Cut="0.0000000000000000e+00" cType="1" res="6.0692429542541504e-03" rms="4.1607466340065002e-01" purity="6.1350226402282715e-01" nType="-99"/>
          <Node pos="r" depth="2" NCoef="0" IVar="-1" Cut="0.0000000000000000e+00" cType="1" res="-1.8618697300553322e-02" rms="3.3825936913490295e-01" purity="1.5780630707740784e-01" nType="-99"/>
        </Node>
        <Node pos="r" depth="1" NCoef="0" IVar="4" Cut="3.7667432427406311e-01" cType="1" res="-1.3145746290683746e-01" rms="4.1049566864967346e-01" purity="2.5415870547294617e-01" nType="0">
          <Node pos="l" depth="2" NCoef="0" IVar="-1" Cut="0.0000000000000000e+00" cType="1" res="9.9027287214994431e-03" rms="3.5320883989334106e-01" purity="2.4568770825862885e-01" nType="-99"/>
          <Node pos="r" depth="2" NCoef="0" IVar="-1" Cut="0.0000000000000000e+00" cType="1" res="-4.5882757753133774e-02" rms="4.1414815187454224e-01" purity="2.5762519240379333e-01" nType="-99"/>
        </Node>
      </Node>
    </BinaryTree>
    <BinaryTree type="DecisionTree" boostWeight="1.0000000000000000e+00" itree="39">
      <Node pos="s" depth="0" NCoef="0" IVar="3" Cut="1.5431739389896393e-01" cType="1" res="-3.3172215335071087e-03" rms="4.0548974275588989e-01" purity="4.9488174915313721e-01" nType="0">
        <Node pos="l" depth="1" NCoef="0" IVar="4" Cut="4.4682405889034271e-02" cType="1" res="3.0688636004924774e-02" rms="3.9037185907363892e-01" purity="5.7903093099594116e-01" nType="0">
          <Node pos="l" depth="2" NCoef="0" IVar="-1" Cut="0.0000000000000000e+00" cType="1" res="-3.8610141724348068e-02" rms="2.8572678565979004e-01" purity="1.2533748149871826e-01" nType="-99"/>
          <Node pos="r" depth="2" NCoef="0" IVar="-1" Cut="0.0000000000000000e+00" cType="1" res="1.3430064544081688e-02" rms="3.9888066053390503e-01" purity="6.4277029037475586e-01" nType="-99"/>
        </Node>
        <Node pos="r" depth="1" NCoef="0" IVar="4" Cut="7.7604335546493530e-01" cType="1" res="-3.4037236124277115e-02" rms="4.1629639267921448e-01" purity="4.1886353492736816e-01" nType="0">
          <Node pos="l" depth="2" NCoef="0" IVar="-1" Cut="0.0000000000000000e+00" cType="1" res="-3.5644629970192909e-03" rms="4.0499451756477356e-01" purity="3.9684325456619263e-01" nType="-99"/>
          <Node pos="r" depth="2" NCoef="0" IVar="-1" Cut="0.0000000000000000e+00" cType="1" res="-1.8151899799704552e-02" rms="4.3288055062294006e-01" purity="4.5753306150436401e-01" nType="-99"/>
        </Node>
      </Node>
    </BinaryTree>
    <BinaryTree type="DecisionTree" boostWeight="1.0000000000000000e+00" itree="40">
      <Node pos="s" depth="0" NCoef="0" IVar="5" Cut="2.0491664886474609e+01" cType="1" res="-1.7734039574861526e-03" rms="4.0147337317466736e-01" purity="5.0220221281051636e-01" nType="0">
        <Node pos="l" depth="1" NCoef="0" IVar="1" Cut="3.1820724010467529e+00" cType="1" res="1.1403105221688747e-02" rms="4.1654095053672791e-01" purity="5.6955850124359131e-01" nType="0">
          <Node pos="l" depth="2" NCoef="0" IVar="-1" Cut="0.0000000000000000e+00" cType="1" res="-1.9409952685236931e-02" rms="4.4281780719757080e-01" purity="3.5833787918090820e-01" nType="-99"/>
          <Node pos="r" depth="2" NCoef="0" IVar="-1" Cut="0.0000000000000000e+00" cType="1" res="6.6838613711297512e-03" rms="4.1063219308853149e-01" purity="6.0097402334213257e-01" nType="-99"/>
        </Node>
        <Node pos="r" depth="1" NCoef="0" IVar="5" Cut="2.4929292678833008e+01" cType="1" res="-8.0595053732395172e-02" rms="2.8319337964057922e-01" purity="9.9278084933757782e-02" nType="0">
          <Node pos="l" depth="2" NCoef="0" IVar="-1" Cut="0.0000000000000000e+00" cType="1" res="-4.0725953876972198e-02" rms="2.5987383723258972e-01" purity="7.7219732105731964e-02" nType="-99"/>
          <Node pos="r" depth="2" NCoef="0" IVar="-1" Cut="0.0000000000000000e+00" cType="1" res="-2.4306079372763634e-02" rms="2.9272243380546570e-01" purity="1.1013254523277283e-01" nType="-99"/>
        </Node>
      </Node>
    </BinaryTree>
    <BinaryTree type="DecisionTree" boostWeight="1.0000000000000000e+00" itree="41">
      <Node pos="s" depth="0" NCoef="0" IVar="0" Cut="9.9655694580078125e+02" cType="1" res="-4.2849238961935043e-03" rms="4.0139955282211304e-01" purity="4.9548742175102234e-01" nType="0">
        <Node pos="l" depth="1" NCoef="0" IVar="0" Cut="7.9567169189453125e+02" cType="1" res="-6.0991354286670685e-02" rms="4.1895264387130737e-01" purity="3.5005047917366028e-01" nType="0">
          <Node pos="l" depth="2" NCoef="0" IVar="-1" Cut="0.0000000000000000e+00" cType="1" res="-3.6640040576457977e-02" rms="4.0141177177429199e-01" purity="2.5632664561271667e-01" nType="-99"/>
          <Node pos="r" depth="2" NCoef="0" IVar="-1" Cut="0.0000000000000000e+00" cType="1" res="-1.0161284357309341e-02" rms="4.2173445224761963e-01" purity="3.7948691844940186e-01" nType="-99"/>
        </Node>
        <Node pos="r" depth="1" NCoef="0" IVar="5" Cut="1.1888046264648438e+01" cType="1" res="2.4560851976275444e-02" rms="3.8901007175445557e-01" purity="5.6946921348571777e-01" nType="0">
          <Node pos="l" depth="2" NCoef="0" IVar="-1" Cut="0.0000000000000000e+00" cType="1" res="1.4752421528100967e-02" rms="3.9044952392578125e-01" purity="7.0251733064651489e-01" nType="-99"/>
          <Node pos="r" depth="2" NCoef="0" IVar="-1" Cut="0.0000000000000000e+00" cType="1" res="-1.3342305086553097e-02" rms="3.7650942802429199e-01" purity="2.6869851350784302e-01" nType="-99"/>
        </Node>
      </Node>
    </BinaryTree>
    <BinaryTree type="DecisionTree" boostWeight="1.0000000000000000e+00" itree="42">
      <Node pos="s" depth="0" NCoef="0" IVar="1" Cut="5.7265491485595703e+00" cType="1" res="3.8667270564474165e-04" rms="3.9334523677825928e-01" purity="5.0016331672668457e-01" nType="0">
        <Node pos="l" depth="1" NCoef="0" IVar="4" Cut="6.6315576434135437e-02" cType="1" res="-1.2885382398962975e-02" rms="3.9916500449180603e-01" purity="4.6144494414329529e-01" nType="0">
          <Node pos="l" depth="2" NCoef="0" IVar="-1" Cut="0.0000000000000000e+00" cType="1" res="-3.5756397992372513e-02" rms="2.7101892232894897e-01" purity="1.0697179287672043e-01" nType="-99"/>
          <Node pos="r" depth="2" NCoef="0" IVar="-1" Cut="0.0000000000000000e+00" cType="1" res="3.8050362491048872e-04" rms="4.1592752933502197e-01" purity="5.2355307340621948e-01" nType="-99"/>
        </Node>
        <Node pos="r" depth="1" NCoef="0" IVar="0" Cut="2.2749284667968750e+03" cType="1" res="9.9585406482219696e-02" rms="3.3028879761695862e-01" purity="7.8955417871475220e-01" nType="0">
          <Node pos="l" depth="2" NCoef="0" IVar="-1" Cut="0.0000000000000000e+00" cType="1" res="7.1246927836909890e-04" rms="4.0201714634895325e-01" purity="6.5642178058624268e-01" nType="-99"/>
          <Node pos="r" depth="2" NCoef="0" IVar="-1" Cut="0.0000000000000000e+00" cType="1" res="5.2846502512693405e-02" rms="2.5177136063575745e-01" purity="8.7871539592742920e-01" nType="-99"/>
        </Node>
      </Node>
    </BinaryTree>
    <BinaryTree type="DecisionTree" boostWeight="1.0000000000000000e+00" itree="43">
      <Node pos="s" depth="0" NCoef="0" IVar="2" Cut="2.0365944132208824e-02" cType="1" res="-2.8238920494914055e-03" rms="3.9868688583374023e-01" purity="4.9443444609642029e-01" nType="0">
        <Node pos="l" depth="1" NCoef="0" IVar="0" Cut="1.2267376708984375e+03" cType="1" res="4.7709360718727112e-02" rms="3.7095090746879578e-01" purity="7.4564862251281738e-01" nType="0">
          <Node pos="l" depth="2" NCoef="0" IVar="-1" Cut="0.0000000000000000e+00" cType="1" res="-1.0693364311009645e-03" rms="4.2840123176574707e-01" purity="6.1928921937942505e-01" nType="-99"/>
          <Node pos="r" depth="2" NCoef="0" IVar="-1" Cut="0.0000000000000000e+00" cType="1" res="2.7700364589691162e-02" rms="3.1265318393707275e-01" purity="8.4486991167068481e-01" nType="-99"/>
        </Node>
        <Node pos="r" depth="1" NCoef="0" IVar="4" Cut="9.7673892974853516e-01" cType="1" res="-2.7592621743679047e-02" rms="4.0932762622833252e-01" purity="3.7130260467529297e-01" nType="0">
          <Node pos="l" depth="2" NCoef="0" IVar="-1" Cut="0.0000000000000000e+00" cType="1" res="-2.7162050828337669e-03" rms="4.0653738379478455e-01" purity="3.9254489541053772e-01" nType="-99"/>
          <Node pos="r" depth="2" NCoef="0" IVar="-1" Cut="0.0000000000000000e+00" cType="1" res="-2.4400098249316216e-02" rms="4.1275811195373535e-01" purity="2.8905493021011353e-01" nType="-99"/>
        </Node>
      </Node>
    </BinaryTree>
    <BinaryTree type="DecisionTree" boostWeight="1.0000000000000000e+00" itree="44">
      <Node pos="s" depth="0" NCoef="0" IVar="4" Cut="2.2473396733403206e-02" cType="1" res="2.7405933942645788e-03" rms="4.0516355633735657e-01" purity="5.0888460874557495e-01" nType="0">
        <Node pos="l" depth="1" NCoef="0" IVar="1" Cut="3.5588603019714355e+00" cType="1" res="-6.6324688494205475e-02" rms="3.0868625640869141e-01" purity="1.2367033958435059e-01" nType="0">
          <Node pos="l" depth="2" NCoef="0" IVar="-1" Cut="0.0000000000000000e+00" cType="1" res="4.1126724681816995e-04" rms="3.6305803060531616e-01" purity="1.4936338365077972e-01" nType="-99"/>
          <Node pos="r" depth="2" NCoef="0" IVar="-1" Cut="0.0000000000000000e+00" cType="1" res="-3.4463301301002502e-02" rms="2.8231832385063171e-01" purity="1.1429230123758316e-01" nType="-99"/>
        </Node>
        <Node pos="r" depth="1" NCoef="0" IVar="4" Cut="7.8114813566207886e-01" cType="1" res="1.1640603654086590e-02" rms="4.1513672471046448e-01" purity="5.5852478742599487e-01" nType="0">
          <Node pos="l" depth="2" NCoef="0" IVar="-1" Cut="0.0000000000000000e+00" cType="1" res="8.9176604524254799e-03" rms="4.1412246227264404e-01" purity="5.6428480148315430e-01" nType="-99"/>
          <Node pos="r" depth="2" NCoef="0" IVar="-1" Cut="0.0000000000000000e+00" cType="1" res="-6.6630542278289795e-03" rms="4.1425672173500061e-01" purity="5.4868549108505249e-01" nType="-99"/>
        </Node>
      </Node>
    </BinaryTree>
    <BinaryTree type="DecisionTree" boostWeight="1.0000000000000000e+00" itree="45">
      <Node pos="s" depth="0" NCoef="0" IVar="2" Cut="2.2202841937541962e-02" cType="1" res="8.2044012378901243e-04" rms="3.9978373050689697e-01" purity="5.0381469726562500e-01" nType="0">
        <Node pos="l" depth="1" NCoef="0" IVar="3" Cut="3.7616276741027832e-01" cType="1" res="4.5720729976892471e-02" rms="3.6961036920547485e-01" purity="7.5755316019058228e-01" nType="0">
          <Node pos="l" depth="2" NCoef="0" IVar="-1" Cut="0.0000000000000000e+00" cType="1" res="1.8251135945320129e-02" rms="3.5040652751922607e-01" purity="7.9266738891601562e-01" nType="-99"/>
          <Node pos="r" depth="2" NCoef="0" IVar="-1" Cut="0.0000000000000000e+00" cType="1" res="-1.7558865249156952e-02" rms="4.8147147893905640e-01" purity="4.7230917215347290e-01" nType="-99"/>
        </Node>
        <Node pos="r" depth="1" NCoef="0" IVar="3" Cut="7.4081532657146454e-02" cType="1" res="-2.3830240592360497e-02" rms="4.1334962844848633e-01" purity="3.6450991034507751e-01" nType="0">
          <Node pos="l" depth="2" NCoef="0" IVar="-1" Cut="0.0000000000000000e+00" cType="1" res="6.8471590057015419e-03" rms="4.1616383194923401e-01" purity="4.4624254107475281e-01" nType="-99"/>
          <Node pos="r" depth="2" NCoef="0" IVar="-1" Cut="0.0000000000000000e+00" cType="1" res="-1.0786488652229309e-02" rms="4.1121786832809448e-01" purity="3.3888030052185059e-01" nType="-99"/>
        </Node>
      </Node>
    </BinaryTree>
    <BinaryTree type="DecisionTree" boostWeight="1.0000000000000000e+00" itree="46">
      <Node pos="s" depth="0" NCoef="0" IVar="1" Cut="3.1032941341400146e+00" cType="1" res="-1.9599837251007557e-03" rms="4.0746122598648071e-01" purity="5.0941646099090576e-01" nType="0">
        <Node pos="l" depth="1" NCoef="0" IVar="1" Cut="2.4223930835723877e+00" cType="1" res="-9.9017582833766937e-02" rms="3.9987382292747498e-01" purity="2.7776333689689636e-01" nType="0">
          <Node pos="l" depth="2" NCoef="0" IVar="-1" Cut="0.0000000000000000e+00" cType="1" res="-4.6794824302196503e-02" rms="3.8356804847717285e-01" purity="1.8677727878093719e-01" nType="-99"/>
          <Node pos="r" depth="2" NCoef="0" IVar="-1" Cut="0.0000000000000000e+00" cType="1" res="-1.8329376354813576e-02" rms="4.0151149034500122e-01" purity="3.0985751748085022e-01" nType="-99"/>
        </Node>
        <Node pos="r" depth="1" NCoef="0" IVar="3" Cut="1.1109954118728638e-01" cType="1" res="1.2530216947197914e-02" rms="4.0659910440444946e-01" purity="5.4400110244750977e-01" nType="0">
          <Node pos="l" depth="2" NCoef="0" IVar="-1" Cut="0.0000000000000000e+00" cType="1" res="1.5654616057872772e-02" rms="3.8661262392997742e-01" purity="6.3660639524459839e-01" nType="-99"/>
          <Node pos="r" depth="2" NCoef="0" IVar="-1" Cut="0.0000000000000000e+00" cType="1" res="-2.8438675217330456e-03" rms="4.1524136066436768e-01" purity="4.9391740560531616e-01" nType="-99"/>
        </Node>
      </Node>
    </BinaryTree>
    <BinaryTree type="DecisionTree" boostWeight="1.0000000000000000e+00" itree="47">
      <Node pos="s" depth="0" NCoef="0" IVar="2" Cut="1.6663044691085815e-02" cType="1" res="8.6355215171352029e-04" rms="3.9593422412872314e-01" purity="5.0733637809753418e-01" nType="0">
        <Node pos="l" depth="1" NCoef="0" IVar="3" Cut="3.1470862030982971e-01" cType="1" res="4.8861734569072723e-02" rms="3.7046596407890320e-01" purity="7.7262085676193237e-01" nType="0">
          <Node pos="l" depth="2" NCoef="0" IVar="-1" Cut="0.0000000000000000e+00" cType="1" res="2.4892136454582214e-02" rms="3.3235347270965576e-01" purity="8.4049499034881592e-01" nType="-99"/>
          <Node pos="r" depth="2" NCoef="0" IVar="-1" Cut="0.0000000000000000e+00" cType="1" res="-1.7115112394094467e-02" rms="4.7853562235832214e-01" purity="4.9262422323226929e-01" nType="-99"/>
        </Node>
        <Node pos="r" depth="1" NCoef="0" IVar="5" Cut="1.0067980766296387e+01" cType="1" res="-1.7899194732308388e-02" rms="4.0390756726264954e-01" purity="4.0363529324531555e-01" nType="0">
          <Node pos="l" depth="2" NCoef="0" IVar="-1" Cut="0.0000000000000000e+00" cType="1" res="2.5856879074126482e-03" rms="4.4397380948066711e-01" purity="5.5553525686264038e-01" nType="-99"/>
          <Node pos="r" depth="2" NCoef="0" IVar="-1" Cut="0.0000000000000000e+00" cType="1" res="-1.9947504624724388e-02" rms="3.3352783322334290e-01" purity="1.8451514840126038e-01" nType="-99"/>
        </Node>
      </Node>
    </BinaryTree>
    <BinaryTree type="DecisionTree" boostWeight="1.0000000000000000e+00" itree="48">
      <Node pos="s" depth="0" NCoef="0" IVar="2" Cut="7.9557359218597412e-02" cType="1" res="-9.8095433786511421e-03" rms="4.0300586819648743e-01" purity="4.9301886558532715e-01" nType="0">
        <Node pos="l" depth="1" NCoef="0" IVar="1" Cut="2.4731197357177734e+00" cType="1" res="8.1633189693093300e-03" rms="4.1867586970329285e-01" purity="5.9797042608261108e-01" nType="0">
          <Node pos="l" depth="2" NCoef="0" IVar="-1" Cut="0.0000000000000000e+00" cType="1" res="-3.2451331615447998e-02" rms="4.2474642395973206e-01" purity="2.4965453147888184e-01" nType="-99"/>
          <Node pos="r" depth="2" NCoef="0" IVar="-1" Cut="0.0000000000000000e+00" cType="1" res="3.8594964426010847e-03" rms="4.1734620928764343e-01" purity="6.1274677515029907e-01" nType="-99"/>
        </Node>
        <Node pos="r" depth="1" NCoef="0" IVar="1" Cut="4.7832274436950684e+00" cType="1" res="-6.4928591251373291e-02" rms="3.4481540322303772e-01" purity="1.7115406692028046e-01" nType="0">
          <Node pos="l" depth="2" NCoef="0" IVar="-1" Cut="0.0000000000000000e+00" cType="1" res="-1.6322594135999680e-02" rms="3.3513018488883972e-01" purity="1.5449552237987518e-01" nType="-99"/>
          <Node pos="r" depth="2" NCoef="0" IVar="-1" Cut="0.0000000000000000e+00" cType="1" res="-2.7522495016455650e-02" rms="3.6356168985366821e-01" purity="2.1050523221492767e-01" nType="-99"/>
        </Node>
      </Node>
    </BinaryTree>
    <BinaryTree type="DecisionTree" boostWeight="1.0000000000000000e+00" itree="49">
      <Node pos="s" depth="0" NCoef="0" IVar="3" Cut="1.5431216359138489e-01" cType="1" res="-3.1933668069541454e-03" rms="4.0428748726844788e-01" purity="5.1167559623718262e-01" nType="0">
        <Node pos="l" depth="1" NCoef="0" IVar="1" Cut="3.2920691967010498e+00" cType="1" res="2.8154792264103889e-02" rms="3.8804611563682556e-01" purity="6.0212862491607666e-01" nType="0">
          <Node pos="l" depth="2" NCoef="0" IVar="-1" Cut="0.0000000000000000e+00" cType="1" res="-2.0303722470998764e-02" rms="4.0329086780548096e-01" purity="3.2869607210159302e-01" nType="-99"/>
          <Node pos="r" depth="2" NCoef="0" IVar="-1" Cut="0.0000000000000000e+00" cType="1" res="1.2279523536562920e-02" rms="3.8383772969245911e-01" purity="6.3863807916641235e-01" nType="-99"/>
        </Node>
        <Node pos="r" depth="1" NCoef="0" IVar="1" Cut="5.4666662216186523e+00" cType="1" res="-2.9462894424796104e-02" rms="4.1559422016143799e-01" purity="4.3587654829025269e-01" nType="0">
          <Node pos="l" depth="2" NCoef="0" IVar="-1" Cut="0.0000000000000000e+00" cType="1" res="-4.0449080988764763e-03" rms="4.0880340337753296e-01" purity="4.1294240951538086e-01" nType="-99"/>
          <Node pos="r" depth="2" NCoef="0" IVar="-1" Cut="0.0000000000000000e+00" cType="1" res="-3.0046062543988228e-02" rms="4.4147941470146179e-01" purity="5.5624401569366455e-01" nType="-99"/>
        </Node>
      </Node>
    </BinaryTree>
    <BinaryTree type="DecisionTree" boostWeight="1.0000000000000000e+00" itree="50">
      <Node pos="s" depth="0" NCoef="0" IVar="1" Cut="4.7608966827392578e+00" cType="1" res="-5.3346399217844009e-03" rms="3.9984393119812012e-01" purity="4.9958202242851257e-01" nType="0">
        <Node pos="l" depth="1" NCoef="0" IVar="4" Cut="7.7678555250167847e-01" cType="1" res="-2.5435909628868103e-02" rms="4.1320729255676270e-01" purity="4.1348287463188171e-01" nType="0">
          <Node pos="l" depth="2" NCoef="0" IVar="-1" Cut="0.0000000000000000e+00" cType="1" res="-1.5610799891874194e-03" rms="3.9958578348159790e-01" purity="3.9788341522216797e-01" nType="-99"/>
          <Node pos="r" depth="2" NCoef="0" IVar="-1" Cut="0.0000000000000000e+00" cType="1" res="-1.5941767022013664e-02" rms="4.3514105677604675e-01" purity="4.4275996088981628e-01" nType="-99"/>
        </Node>
        <Node pos="r" depth="1" NCoef="0" IVar="2" Cut="7.9562403261661530e-02" cType="1" res="3.3791445195674896e-02" rms="3.6933654546737671e-01" purity="6.6716945171356201e-01" nType="0">
          <Node pos="l" depth="2" NCoef="0" IVar="-1" Cut="0.0000000000000000e+00" cType="1" res="1.7403602600097656e-02" rms="3.5654637217521667e-01" purity="7.6637154817581177e-01" nType="-99"/>
          <Node pos="r" depth="2" NCoef="0" IVar="-1" Cut="0.0000000000000000e+00" cType="1" res="-1.3552685268223286e-02" rms="4.0577903389930725e-01" purity="2.6803007721900940e-01" nType="-99"/>
        </Node>
      </Node>
    </BinaryTree>
    <BinaryTree type="DecisionTree" boostWeight="1.0000000000000000e+00" itree="51">
      <Node pos="s" depth="0" NCoef="0" IVar="2" Cut="9.6275366842746735e-02" cType="1" res="1.4912410639226437e-02" rms="3.9922985434532166e-01" purity="5.1683467626571655e-01" nType="0">
        <Node pos="l" depth="1" NCoef="0" IVar="5" Cut="9.5104131698608398e+00" cType="1" res="2.8764786198735237e-02" rms="4.0956744551658630e-01" purity="5.9046757221221924e-01" nType="0">
          <Node pos="l" depth="2" NCoef="0" IVar="-1" Cut="0.0000000000000000e+00" cType="1" res="1.3436157256364822e-02" rms="4.0475317835807800e-01" purity="7.2372239828109741e-01" nType="-99"/>
          <Node pos="r" depth="2" NCoef="0" IVar="-1" Cut="0.0000000000000000e+00" cType="1" res="-1.5889088390395045e-03" rms="4.1497358679771423e-01" purity="3.7428560853004456e-01" nType="-99"/>
        </Node>
        <Node pos="r" depth="1" NCoef="0" IVar="5" Cut="5.5179381370544434e+00" cType="1" res="-5.2583307027816772e-02" rms="3.3638486266136169e-01" purity="1.5805836021900177e-01" nType="0">
          <Node pos="l" depth="2" NCoef="0" IVar="-1" Cut="0.0000000000000000e+00" cType="1" res="-1.7190444050356746e-03" rms="4.4070345163345337e-01" purity="3.1576615571975708e-01" nType="-99"/>
          <Node pos="r" depth="2" NCoef="0" IVar="-1" Cut="0.0000000000000000e+00" cType="1" res="-2.7497464790940285e-02" rms="2.8456860780715942e-01" purity="9.7594603896141052e-02" nType="-99"/>
        </Node>
      </Node>
    </BinaryTree>
    <BinaryTree type="DecisionTree" boostWeight="1.0000000000000000e+00" itree="52">
      <Node pos="s" depth="0" NCoef="0" IVar="0" Cut="8.6916394042968750e+02" cType="1" res="-8.2553355023264885e-03" rms="4.0574848651885986e-01" purity="4.9673920869827271e-01" nType="0">
        <Node pos="l" depth="1" NCoef="0" IVar="0" Cut="7.7207086181640625e+02" cType="1" res="-5.7278264313936234e-02" rms="4.0037539601325989e-01" purity="3.1261375546455383e-01" nType="0">
          <Node pos="l" depth="2" NCoef="0" IVar="-1" Cut="0.0000000000000000e+00" cType="1" res="-4.8489119857549667e-02" rms="3.7425908446311951e-01" purity="2.1524596214294434e-01" nType="-99"/>
          <Node pos="r" depth="2" NCoef="0" IVar="-1" Cut="0.0000000000000000e+00" cType="1" res="-8.1614702939987183e-03" rms="4.0109398961067200e-01" purity="3.3576592803001404e-01" nType="-99"/>
        </Node>
        <Node pos="r" depth="1" NCoef="0" IVar="1" Cut="6.0373101234436035e+00" cType="1" res="2.4188298266381025e-03" rms="4.0612527728080750e-01" purity="5.3683036565780640e-01" nType="0">
          <Node pos="l" depth="2" NCoef="0" IVar="-1" Cut="0.0000000000000000e+00" cType="1" res="3.3433558419346809e-03" rms="4.0405791997909546e-01" purity="5.2560454607009888e-01" nType="-99"/>
          <Node pos="r" depth="2" NCoef="0" IVar="-1" Cut="0.0000000000000000e+00" cType="1" res="-2.3278117179870605e-02" rms="4.1468939185142517e-01" purity="6.2646478414535522e-01" nType="-99"/>
        </Node>
      </Node>
    </BinaryTree>
    <BinaryTree type="DecisionTree" boostWeight="1.0000000000000000e+00" itree="53">
      <Node pos="s" depth="0" NCoef="0" IVar="0" Cut="2.2292429199218750e+03" cType="1" res="4.5345672406256199e-03" rms="4.0654933452606201e-01" purity="5.1454132795333862e-01" nType="0">
        <Node pos="l" depth="1" NCoef="0" IVar="3" Cut="3.6416485905647278e-01" cType="1" res="-9.7672594711184502e-03" rms="4.1320666670799255e-01" purity="4.7668039798736572e-01" nType="0">
          <Node pos="l" depth="2" NCoef="0" IVar="-1" Cut="0.0000000000000000e+00" cType="1" res="6.6615105606615543e-04" rms="4.1064918041229248e-01" purity="5.1179790496826172e-01" nType="-99"/>
          <Node pos="r" depth="2" NCoef="0" IVar="-1" Cut="0.0000000000000000e+00" cType="1" res="-2.2966826334595680e-02" rms="4.2095053195953369e-01" purity="2.6432335376739502e-01" nType="-99"/>
        </Node>
        <Node pos="r" depth="1" NCoef="0" IVar="3" Cut="1.9673846662044525e-01" cType="1" res="1.1006142944097519e-01" rms="3.3521559834480286e-01" purity="7.9390072822570801e-01" nType="0">
          <Node pos="l" depth="2" NCoef="0" IVar="-1" Cut="0.0000000000000000e+00" cType="1" res="2.7516748756170273e-02" rms="3.3683329820632935e-01" purity="8.0530816316604614e-01" nType="-99"/>
          <Node pos="r" depth="2" NCoef="0" IVar="-1" Cut="0.0000000000000000e+00" cType="1" res="5.1179457455873489e-02" rms="3.2122293114662170e-01" purity="7.6532202959060669e-01" nType="-99"/>
        </Node>
      </Node>
    </BinaryTree>
    <BinaryTree type="DecisionTree" boostWeight="1.0000000000000000e+00" itree="54">
      <Node pos="s" depth="0" NCoef="0" IVar="0" Cut="3.1081494140625000e+03" cType="1" res="-9.9079320207238197e-03" rms="4.0789771080017090e-01" purity="4.9748933315277100e-01" nType="0">
        <Node pos="l" depth="1" NCoef="0" IVar="0" Cut="1.9434002685546875e+03" cType="1" res="-1.4456462115049362e-02" rms="4.1174760460853577e-01" purity="4.8257949948310852e-01" nType="0">
          <Node pos="l" depth="2" NCoef="0" IVar="-1" Cut="0.0000000000000000e+00" cType="1" res="-1.4901605900377035e-03" rms="4.0957611799240112e-01" purity="4.5892938971519470e-01" nType="-99"/>
          <Node pos="r" depth="2" NCoef="0" IVar="-1" Cut="0.0000000000000000e+00" cType="1" res="-1.9352519884705544e-02" rms="4.1980177164077759e-01" purity="6.0905718803405762e-01" nType="-99"/>
        </Node>
        <Node pos="r" depth="1" NCoef="0" IVar="-1" Cut="0.0000000000000000e+00" cType="1" res="3.7108309566974640e-02" rms="2.7155712246894836e-01" purity="8.7129992246627808e-01" nType="-99"/>
      </Node>
    </BinaryTree>
    <BinaryTree type="DecisionTree" boostWeight="1.0000000000000000e+00" itree="55">
      <Node pos="s" depth="0" NCoef="0" IVar="4" Cut="1.0877000093460083e+00" cType="1" res="1.4403984881937504e-02" rms="3.9389860630035400e-01" purity="5.1435029506683350e-01" nType="0">
        <Node pos="l" depth="1" NCoef="0" IVar="5" Cut="2.1920898437500000e+01" cType="1" res="2.6416569948196411e-02" rms="3.9424738287925720e-01" purity="5.4623883962631226e-01" nType="0">
          <Node pos="l" depth="2" NCoef="0" IVar="-1" Cut="0.0000000000000000e+00" cType="1" res="1.0703389532864094e-02" rms="4.1056197881698608e-01" purity="6.1978960037231445e-01" nType="-99"/>
          <Node pos="r" depth="2" NCoef="0" IVar="-1" Cut="0.0000000000000000e+00" cType="1" res="-2.3978859186172485e-02" rms="2.5768545269966125e-01" purity="8.8530398905277252e-02" nType="-99"/>
        </Node>
        <Node pos="r" depth="1" NCoef="0" IVar="4" Cut="1.2578816413879395e+00" cType="1" res="-8.0953747034072876e-02" rms="3.7780350446701050e-01" purity="2.6121416687965393e-01" nType="0">
          <Node pos="l" depth="2" NCoef="0" IVar="-1" Cut="0.0000000000000000e+00" cType="1" res="-3.0134985223412514e-02" rms="3.6393824219703674e-01" purity="2.6987260580062866e-01" nType="-99"/>
          <Node pos="r" depth="2" NCoef="0" IVar="-1" Cut="0.0000000000000000e+00" cType="1" res="-9.5867225900292397e-03" rms="3.9069530367851257e-01" purity="2.4906435608863831e-01" nType="-99"/>
        </Node>
      </Node>
    </BinaryTree>
    <BinaryTree type="DecisionTree" boostWeight="1.0000000000000000e+00" itree="56">
      <Node pos="s" depth="0" NCoef="0" IVar="0" Cut="3.3713227539062500e+03" cType="1" res="-1.2389282695949078e-02" rms="4.0261226892471313e-01" purity="4.8941546678543091e-01" nType="0">
        <Node pos="l" depth="1" NCoef="0" IVar="4" Cut="9.0998131036758423e-01" cType="1" res="-1.6873586922883987e-02" rms="4.0565001964569092e-01" purity="4.7672626376152039e-01" nType="0">
          <Node pos="l" depth="2" NCoef="0" IVar="-1" Cut="0.0000000000000000e+00" cType="1" res="-1.7442773096263409e-03" rms="4.0423876047134399e-01" purity="4.8555922508239746e-01" nType="-99"/>
          <Node pos="r" depth="2" NCoef="0" IVar="-1" Cut="0.0000000000000000e+00" cType="1" res="-1.4988142997026443e-02" rms="4.0828597545623779e-01" purity="4.4530233740806580e-01" nType="-99"/>
        </Node>
        <Node pos="r" depth="1" NCoef="0" IVar="-1" Cut="0.0000000000000000e+00" cType="1" res="4.1639298200607300e-02" rms="2.6935034990310669e-01" purity="8.6035639047622681e-01" nType="-99"/>
      </Node>
    </BinaryTree>
    <BinaryTree type="DecisionTree" boostWeight="1.0000000000000000e+00" itree="57">
      <Node pos="s" depth="0" NCoef="0" IVar="2" Cut="2.9613059014081955e-02" cType="1" res="3.8962269900366664e-04" rms="3.9324074983596802e-01" purity="5.0053447484970093e-01" nType="0">
        <Node pos="l" depth="1" NCoef="0" IVar="1" Cut="3.3804814815521240e+00" cType="1" res="3.3929727971553802e-02" rms="3.7037909030914307e-01" purity="7.5126737356185913e-01" nType="0">
          <Node pos="l" depth="2" NCoef="0" IVar="-1" Cut="0.0000000000000000e+00" cType="1" res="-1.1806357651948929e-02" rms="4.6339714527130127e-01" purity="4.8885610699653625e-01" nType="-99"/>
          <Node pos="r" depth="2" NCoef="0" IVar="-1" Cut="0.0000000000000000e+00" cType="1" res="1.6550472006201744e-02" rms="3.4557485580444336e-01" purity="8.0517154932022095e-01" nType="-99"/>
        </Node>
        <Node pos="r" depth="1" NCoef="0" IVar="2" Cut="4.3000701814889908e-02" cType="1" res="-2.4345554411411285e-02" rms="4.0751868486404419e-01" purity="3.1562379002571106e-01" nType="0">
          <Node pos="l" depth="2" NCoef="0" IVar="-1" Cut="0.0000000000000000e+00" cType="1" res="-2.2243706509470940e-02" rms="4.5890295505523682e-01" purity="4.2972922325134277e-01" nType="-99"/>
          <Node pos="r" depth="2" NCoef="0" IVar="-1" Cut="0.0000000000000000e+00" cType="1" res="-1.7914610216394067e-03" rms="3.9032700657844543e-01" purity="2.8444215655326843e-01" nType="-99"/>
        </Node>
      </Node>
    </BinaryTree>
    <BinaryTree type="DecisionTree" boostWeight="1.0000000000000000e+00" itree="58">
      <Node pos="s" depth="0" NCoef="0" IVar="3" Cut="3.7033975124359131e-01" cType="1" res="-5.2102343179285526e-03" rms="4.0116998553276062e-01" purity="4.9964597821235657e-01" nType="0">
        <Node pos="l" depth="1" NCoef="0" IVar="5" Cut="3.4617464542388916e+00" cType="1" res="6.1212107539176941e-03" rms="3.9972633123397827e-01" purity="5.3212690353393555e-01" nType="0">
          <Node pos="l" depth="2" NCoef="0" IVar="-1" Cut="0.0000000000000000e+00" cType="1" res="1.4044020324945450e-02" rms="3.8745877146720886e-01" purity="7.1024507284164429e-01" nType="-99"/>
          <Node pos="r" depth="2" NCoef="0" IVar="-1" Cut="0.0000000000000000e+00" cType="1" res="-2.6622379664331675e-03" rms="4.0265753865242004e-01" purity="4.7174304723739624e-01" nType="-99"/>
        </Node>
        <Node pos="r" depth="1" NCoef="0" IVar="1" Cut="4.3663001060485840e+00" cType="1" res="-8.9640550315380096e-02" rms="4.0182957053184509e-01" purity="2.5763157010078430e-01" nType="0">
          <Node pos="l" depth="2" NCoef="0" IVar="-1" Cut="0.0000000000000000e+00" cType="1" res="-1.2369799427688122e-02" rms="3.9815187454223633e-01" purity="2.6191464066505432e-01" nType="-99"/>
          <Node pos="r" depth="2" NCoef="0" IVar="-1" Cut="0.0000000000000000e+00" cType="1" res="-5.2080299705266953e-02" rms="3.9112254977226257e-01" purity="2.4815836548805237e-01" nType="-99"/>
        </Node>
      </Node>
    </BinaryTree>
    <BinaryTree type="DecisionTree" boostWeight="1.0000000000000000e+00" itree="59">
      <Node pos="s" depth="0" NCoef="0" IVar="5" Cut="3.4635155200958252e+00" cType="1" res="2.4936865083873272e-03" rms="3.9781853556632996e-01" purity="5.0881493091583252e-01" nType="0">
        <Node pos="l" depth="1" NCoef="0" IVar="3" Cut="5.5568881332874298e-02" cType="1" res="5.5832862854003906e-02" rms="3.9590588212013245e-01" purity="7.1237498521804810e-01" nType="0">
          <Node pos="l" depth="2" NCoef="0" IVar="-1" Cut="0.0000000000000000e+00" cType="1" res="-8.2317879423499107e-03" rms="4.1596099734306335e-01" purity="7.0416498184204102e-01" nType="-99"/>
          <Node pos="r" depth="2" NCoef="0" IVar="-1" Cut="0.0000000000000000e+00" cType="1" res="2.0482048392295837e-02" rms="3.8846305012702942e-01" purity="7.1429467201232910e-01" nType="-99"/>
        </Node>
        <Node pos="r" depth="1" NCoef="0" IVar="4" Cut="7.7678555250167847e-01" cType="1" res="-1.5282299369573593e-02" rms="3.9686444401741028e-01" purity="4.4097575545310974e-01" nType="0">
          <Node pos="l" depth="2" NCoef="0" IVar="-1" Cut="0.0000000000000000e+00" cType="1" res="-1.2807562015950680e-03" rms="3.9601850509643555e-01" purity="4.5551812648773193e-01" nType="-99"/>
          <Node pos="r" depth="2" NCoef="0" IVar="-1" Cut="0.0000000000000000e+00" cType="1" res="-2.2956805303692818e-02" rms="3.9576503634452820e-01" purity="3.5579541325569153e-01" nType="-99"/>
        </Node>
      </Node>
    </BinaryTree>
    <BinaryTree type="DecisionTree" boostWeight="1.0000000000000000e+00" itree="60">
      <Node pos="s" depth="0" NCoef="0" IVar="3" Cut="1.8518750369548798e-01" cType="1" res="-9.0817837044596672e-03" rms="4.0127471089363098e-01" purity="4.9612900614738464e-01" nType="0">
        <Node pos="l" depth="1" NCoef="0" IVar="5" Cut="2.1252304077148438e+01" cType="1" res="1.5021233819425106e-02" rms="3.9496359229087830e-01" purity="5.7883983850479126e-01" nType="0">
          <Node pos="l" depth="2" NCoef="0" IVar="-1" Cut="0.0000000000000000e+00" cType="1" res="7.9673929139971733e-03" rms="4.0952008962631226e-01" purity="6.5516293048858643e-01" nType="-99"/>
          <Node pos="r" depth="2" NCoef="0" IVar="-1" Cut="0.0000000000000000e+00" cType="1" res="-2.9822699725627899e-02" rms="2.6953184604644775e-01" purity="8.9918434619903564e-02" nType="-99"/>
        </Node>
        <Node pos="r" depth="1" NCoef="0" IVar="0" Cut="1.8698134765625000e+03" cType="1" res="-3.7559296935796738e-02" rms="4.0676921606063843e-01" purity="3.9840701222419739e-01" nType="0">
          <Node pos="l" depth="2" NCoef="0" IVar="-1" Cut="0.0000000000000000e+00" cType="1" res="-6.8871974945068359e-03" rms="4.0326201915740967e-01" purity="3.7042582035064697e-01" nType="-99"/>
          <Node pos="r" depth="2" NCoef="0" IVar="-1" Cut="0.0000000000000000e+00" cType="1" res="-2.7429351583123207e-02" rms="4.1651636362075806e-01" purity="5.1668035984039307e-01" nType="-99"/>
        </Node>
      </Node>
    </BinaryTree>
    <BinaryTree type="DecisionTree" boostWeight="1.0000000000000000e+00" itree="61">
      <Node pos="s" depth="0" NCoef="0" IVar="0" Cut="1.6628376464843750e+03" cType="1" res="-2.5415886193513870e-03" rms="3.9987838268280029e-01" purity="4.9981611967086792e-01" nType="0">
        <Node pos="l" depth="1" NCoef="0" IVar="2" Cut="7.4018053710460663e-03" cType="1" res="-1.8316930159926414e-02" rms="4.0396463871002197e-01" purity="4.3421655893325806e-01" nType="0">
          <Node pos="l" depth="2" NCoef="0" IVar="-1" Cut="0.0000000000000000e+00" cType="1" res="1.5059576369822025e-02" rms="4.0070828795433044e-01" purity="7.4726957082748413e-01" nType="-99"/>
          <Node pos="r" depth="2" NCoef="0" IVar="-1" Cut="0.0000000000000000e+00" cType="1" res="-7.4757216498255730e-03" rms="4.0355780720710754e-01" purity="4.0179774165153503e-01" nType="-99"/>
        </Node>
        <Node pos="r" depth="1" NCoef="0" IVar="3" Cut="1.4197240769863129e-01" cType="1" res="4.2322583496570587e-02" rms="3.8450050354003906e-01" purity="6.8637752532958984e-01" nType="0">
          <Node pos="l" depth="2" NCoef="0" IVar="-1" Cut="0.0000000000000000e+00" cType="1" res="-6.8240738473832607e-03" rms="3.8446277379989624e-01" purity="6.4809447526931763e-01" nType="-99"/>
          <Node pos="r" depth="2" NCoef="0" IVar="-1" Cut="0.0000000000000000e+00" cType="1" res="3.5516243427991867e-02" rms="3.7088757753372192e-01" purity="7.3151135444641113e-01" nType="-99"/>
        </Node>
      </Node>
    </BinaryTree>
    <BinaryTree type="DecisionTree" boostWeight="1.0000000000000000e+00" itree="62">
      <Node pos="s" depth="0" NCoef="0" IVar="0" Cut="9.1492144775390625e+02" cType="1" res="7.8299343585968018e-03" rms="4.0034428238868713e-01" purity="5.1550859212875366e-01" nType="0">
        <Node pos="l" depth="1" NCoef="0" IVar="2" Cut="3.1559966504573822e-02" cType="1" res="-4.2506873607635498e-02" rms="4.2346477508544922e-01" purity="3.4254443645477295e-01" nType="0">
          <Node pos="l" depth="2" NCoef="0" IVar="-1" Cut="0.0000000000000000e+00" cType="1" res="-2.7392817661166191e-02" rms="4.4413617253303528e-01" purity="4.6597659587860107e-01" nType="-99"/>
          <Node pos="r" depth="2" NCoef="0" IVar="-1" Cut="0.0000000000000000e+00" cType="1" res="1.2118906015530229e-03" rms="4.0248548984527588e-01" purity="2.6035138964653015e-01" nType="-99"/>
        </Node>
        <Node pos="r" depth="1" NCoef="0" IVar="5" Cut="4.4743432998657227e+00" cType="1" res="2.2072147578001022e-02" rms="3.9238590002059937e-01" purity="5.6444680690765381e-01" nType="0">
          <Node pos="l" depth="2" NCoef="0" IVar="-1" Cut="0.0000000000000000e+00" cType="1" res="1.9606824964284897e-02" rms="3.7300860881805420e-01" purity="7.4941366910934448e-01" nType="-99"/>
          <Node pos="r" depth="2" NCoef="0" IVar="-1" Cut="0.0000000000000000e+00" cType="1" res="2.0643965399358422e-06" rms="3.9947438240051270e-01" purity="4.7571447491645813e-01" nType="-99"/>
        </Node>
      </Node>
    </BinaryTree>
    <BinaryTree type="DecisionTree" boostWeight="1.0000000000000000e+00" itree="63">
      <Node pos="s" depth="0" NCoef="0" IVar="4" Cut="9.7635471820831299e-01" cType="1" res="-9.3623846769332886e-03" rms="4.0061280131340027e-01" purity="4.9349141120910645e-01" nType="0">
